FANN_FLO_2.1
num_layers=3
learning_rate=0.700000
connection_rate=1.000000
network_type=0
learning_momentum=0.000000
training_algorithm=2
train_error_function=1
train_stop_function=1
cascade_output_change_fraction=0.010000
quickprop_decay=-0.000100
quickprop_mu=1.750000
rprop_increase_factor=1.200000
rprop_decrease_factor=0.500000
rprop_delta_min=0.000000
rprop_delta_max=50.000000
rprop_delta_zero=0.100000
cascade_output_stagnation_epochs=12
cascade_candidate_change_fraction=0.010000
cascade_candidate_stagnation_epochs=12
cascade_max_out_epochs=150
cascade_max_cand_epochs=150
cascade_num_candidate_groups=2
bit_fail_limit=3.49999999999999977796e-01
cascade_candidate_limit=1.00000000000000000000e+03
cascade_weight_multiplier=4.00000000000000022204e-01
cascade_activation_functions_count=10
cascade_activation_functions=3 5 7 8 10 11 14 15 16 17 
cascade_activation_steepnesses_count=4
cascade_activation_steepnesses=2.50000000000000000000e-01 5.00000000000000000000e-01 7.50000000000000000000e-01 1.00000000000000000000e+00 
layer_sizes=411 129 4 
scale_included=0
neurons (num_inputs, activation_function, activation_steepness)=(0, 0, 0.00000000000000000000e+00) (0, 0, 0.00000000000000000000e+00) (0, 0, 0.00000000000000000000e+00) (0, 0, 0.00000000000000000000e+00) (0, 0, 0.00000000000000000000e+00) (0, 0, 0.00000000000000000000e+00) (0, 0, 0.00000000000000000000e+00) (0, 0, 0.00000000000000000000e+00) (0, 0, 0.00000000000000000000e+00) (0, 0, 0.00000000000000000000e+00) (0, 0, 0.00000000000000000000e+00) (0, 0, 0.00000000000000000000e+00) (0, 0, 0.00000000000000000000e+00) (0, 0, 0.00000000000000000000e+00) (0, 0, 0.00000000000000000000e+00) (0, 0, 0.00000000000000000000e+00) (0, 0, 0.00000000000000000000e+00) (0, 0, 0.00000000000000000000e+00) (0, 0, 0.00000000000000000000e+00) (0, 0, 0.00000000000000000000e+00) (0, 0, 0.00000000000000000000e+00) (0, 0, 0.00000000000000000000e+00) (0, 0, 0.00000000000000000000e+00) (0, 0, 0.00000000000000000000e+00) (0, 0, 0.00000000000000000000e+00) (0, 0, 0.00000000000000000000e+00) (0, 0, 0.00000000000000000000e+00) (0, 0, 0.00000000000000000000e+00) (0, 0, 0.00000000000000000000e+00) (0, 0, 0.00000000000000000000e+00) (0, 0, 0.00000000000000000000e+00) (0, 0, 0.00000000000000000000e+00) (0, 0, 0.00000000000000000000e+00) (0, 0, 0.00000000000000000000e+00) (0, 0, 0.00000000000000000000e+00) (0, 0, 0.00000000000000000000e+00) (0, 0, 0.00000000000000000000e+00) (0, 0, 0.00000000000000000000e+00) (0, 0, 0.00000000000000000000e+00) (0, 0, 0.00000000000000000000e+00) (0, 0, 0.00000000000000000000e+00) (0, 0, 0.00000000000000000000e+00) (0, 0, 0.00000000000000000000e+00) (0, 0, 0.00000000000000000000e+00) (0, 0, 0.00000000000000000000e+00) (0, 0, 0.00000000000000000000e+00) (0, 0, 0.00000000000000000000e+00) (0, 0, 0.00000000000000000000e+00) (0, 0, 0.00000000000000000000e+00) (0, 0, 0.00000000000000000000e+00) (0, 0, 0.00000000000000000000e+00) (0, 0, 0.00000000000000000000e+00) (0, 0, 0.00000000000000000000e+00) (0, 0, 0.00000000000000000000e+00) (0, 0, 0.00000000000000000000e+00) (0, 0, 0.00000000000000000000e+00) (0, 0, 0.00000000000000000000e+00) (0, 0, 0.00000000000000000000e+00) (0, 0, 0.00000000000000000000e+00) (0, 0, 0.00000000000000000000e+00) (0, 0, 0.00000000000000000000e+00) (0, 0, 0.00000000000000000000e+00) (0, 0, 0.00000000000000000000e+00) (0, 0, 0.00000000000000000000e+00) (0, 0, 0.00000000000000000000e+00) (0, 0, 0.00000000000000000000e+00) (0, 0, 0.00000000000000000000e+00) (0, 0, 0.00000000000000000000e+00) (0, 0, 0.00000000000000000000e+00) (0, 0, 0.00000000000000000000e+00) (0, 0, 0.00000000000000000000e+00) (0, 0, 0.00000000000000000000e+00) (0, 0, 0.00000000000000000000e+00) (0, 0, 0.00000000000000000000e+00) (0, 0, 0.00000000000000000000e+00) (0, 0, 0.00000000000000000000e+00) (0, 0, 0.00000000000000000000e+00) (0, 0, 0.00000000000000000000e+00) (0, 0, 0.00000000000000000000e+00) (0, 0, 0.00000000000000000000e+00) (0, 0, 0.00000000000000000000e+00) (0, 0, 0.00000000000000000000e+00) (0, 0, 0.00000000000000000000e+00) (0, 0, 0.00000000000000000000e+00) (0, 0, 0.00000000000000000000e+00) (0, 0, 0.00000000000000000000e+00) (0, 0, 0.00000000000000000000e+00) (0, 0, 0.00000000000000000000e+00) (0, 0, 0.00000000000000000000e+00) (0, 0, 0.00000000000000000000e+00) (0, 0, 0.00000000000000000000e+00) (0, 0, 0.00000000000000000000e+00) (0, 0, 0.00000000000000000000e+00) (0, 0, 0.00000000000000000000e+00) (0, 0, 0.00000000000000000000e+00) (0, 0, 0.00000000000000000000e+00) (0, 0, 0.00000000000000000000e+00) (0, 0, 0.00000000000000000000e+00) (0, 0, 0.00000000000000000000e+00) (0, 0, 0.00000000000000000000e+00) (0, 0, 0.00000000000000000000e+00) (0, 0, 0.00000000000000000000e+00) (0, 0, 0.00000000000000000000e+00) (0, 0, 0.00000000000000000000e+00) (0, 0, 0.00000000000000000000e+00) (0, 0, 0.00000000000000000000e+00) (0, 0, 0.00000000000000000000e+00) (0, 0, 0.00000000000000000000e+00) (0, 0, 0.00000000000000000000e+00) (0, 0, 0.00000000000000000000e+00) (0, 0, 0.00000000000000000000e+00) (0, 0, 0.00000000000000000000e+00) (0, 0, 0.00000000000000000000e+00) (0, 0, 0.00000000000000000000e+00) (0, 0, 0.00000000000000000000e+00) (0, 0, 0.00000000000000000000e+00) (0, 0, 0.00000000000000000000e+00) (0, 0, 0.00000000000000000000e+00) (0, 0, 0.00000000000000000000e+00) (0, 0, 0.00000000000000000000e+00) (0, 0, 0.00000000000000000000e+00) (0, 0, 0.00000000000000000000e+00) (0, 0, 0.00000000000000000000e+00) (0, 0, 0.00000000000000000000e+00) (0, 0, 0.00000000000000000000e+00) (0, 0, 0.00000000000000000000e+00) (0, 0, 0.00000000000000000000e+00) (0, 0, 0.00000000000000000000e+00) (0, 0, 0.00000000000000000000e+00) (0, 0, 0.00000000000000000000e+00) (0, 0, 0.00000000000000000000e+00) (0, 0, 0.00000000000000000000e+00) (0, 0, 0.00000000000000000000e+00) (0, 0, 0.00000000000000000000e+00) (0, 0, 0.00000000000000000000e+00) (0, 0, 0.00000000000000000000e+00) (0, 0, 0.00000000000000000000e+00) (0, 0, 0.00000000000000000000e+00) (0, 0, 0.00000000000000000000e+00) (0, 0, 0.00000000000000000000e+00) (0, 0, 0.00000000000000000000e+00) (0, 0, 0.00000000000000000000e+00) (0, 0, 0.00000000000000000000e+00) (0, 0, 0.00000000000000000000e+00) (0, 0, 0.00000000000000000000e+00) (0, 0, 0.00000000000000000000e+00) (0, 0, 0.00000000000000000000e+00) (0, 0, 0.00000000000000000000e+00) (0, 0, 0.00000000000000000000e+00) (0, 0, 0.00000000000000000000e+00) (0, 0, 0.00000000000000000000e+00) (0, 0, 0.00000000000000000000e+00) (0, 0, 0.00000000000000000000e+00) (0, 0, 0.00000000000000000000e+00) (0, 0, 0.00000000000000000000e+00) (0, 0, 0.00000000000000000000e+00) (0, 0, 0.00000000000000000000e+00) (0, 0, 0.00000000000000000000e+00) (0, 0, 0.00000000000000000000e+00) (0, 0, 0.00000000000000000000e+00) (0, 0, 0.00000000000000000000e+00) (0, 0, 0.00000000000000000000e+00) (0, 0, 0.00000000000000000000e+00) (0, 0, 0.00000000000000000000e+00) (0, 0, 0.00000000000000000000e+00) (0, 0, 0.00000000000000000000e+00) (0, 0, 0.00000000000000000000e+00) (0, 0, 0.00000000000000000000e+00) (0, 0, 0.00000000000000000000e+00) (0, 0, 0.00000000000000000000e+00) (0, 0, 0.00000000000000000000e+00) (0, 0, 0.00000000000000000000e+00) (0, 0, 0.00000000000000000000e+00) (0, 0, 0.00000000000000000000e+00) (0, 0, 0.00000000000000000000e+00) (0, 0, 0.00000000000000000000e+00) (0, 0, 0.00000000000000000000e+00) (0, 0, 0.00000000000000000000e+00) (0, 0, 0.00000000000000000000e+00) (0, 0, 0.00000000000000000000e+00) (0, 0, 0.00000000000000000000e+00) (0, 0, 0.00000000000000000000e+00) (0, 0, 0.00000000000000000000e+00) (0, 0, 0.00000000000000000000e+00) (0, 0, 0.00000000000000000000e+00) (0, 0, 0.00000000000000000000e+00) (0, 0, 0.00000000000000000000e+00) (0, 0, 0.00000000000000000000e+00) (0, 0, 0.00000000000000000000e+00) (0, 0, 0.00000000000000000000e+00) (0, 0, 0.00000000000000000000e+00) (0, 0, 0.00000000000000000000e+00) (0, 0, 0.00000000000000000000e+00) (0, 0, 0.00000000000000000000e+00) (0, 0, 0.00000000000000000000e+00) (0, 0, 0.00000000000000000000e+00) (0, 0, 0.00000000000000000000e+00) (0, 0, 0.00000000000000000000e+00) (0, 0, 0.00000000000000000000e+00) (0, 0, 0.00000000000000000000e+00) (0, 0, 0.00000000000000000000e+00) (0, 0, 0.00000000000000000000e+00) (0, 0, 0.00000000000000000000e+00) (0, 0, 0.00000000000000000000e+00) (0, 0, 0.00000000000000000000e+00) (0, 0, 0.00000000000000000000e+00) (0, 0, 0.00000000000000000000e+00) (0, 0, 0.00000000000000000000e+00) (0, 0, 0.00000000000000000000e+00) (0, 0, 0.00000000000000000000e+00) (0, 0, 0.00000000000000000000e+00) (0, 0, 0.00000000000000000000e+00) (0, 0, 0.00000000000000000000e+00) (0, 0, 0.00000000000000000000e+00) (0, 0, 0.00000000000000000000e+00) (0, 0, 0.00000000000000000000e+00) (0, 0, 0.00000000000000000000e+00) (0, 0, 0.00000000000000000000e+00) (0, 0, 0.00000000000000000000e+00) (0, 0, 0.00000000000000000000e+00) (0, 0, 0.00000000000000000000e+00) (0, 0, 0.00000000000000000000e+00) (0, 0, 0.00000000000000000000e+00) (0, 0, 0.00000000000000000000e+00) (0, 0, 0.00000000000000000000e+00) (0, 0, 0.00000000000000000000e+00) (0, 0, 0.00000000000000000000e+00) (0, 0, 0.00000000000000000000e+00) (0, 0, 0.00000000000000000000e+00) (0, 0, 0.00000000000000000000e+00) (0, 0, 0.00000000000000000000e+00) (0, 0, 0.00000000000000000000e+00) (0, 0, 0.00000000000000000000e+00) (0, 0, 0.00000000000000000000e+00) (0, 0, 0.00000000000000000000e+00) (0, 0, 0.00000000000000000000e+00) (0, 0, 0.00000000000000000000e+00) (0, 0, 0.00000000000000000000e+00) (0, 0, 0.00000000000000000000e+00) (0, 0, 0.00000000000000000000e+00) (0, 0, 0.00000000000000000000e+00) (0, 0, 0.00000000000000000000e+00) (0, 0, 0.00000000000000000000e+00) (0, 0, 0.00000000000000000000e+00) (0, 0, 0.00000000000000000000e+00) (0, 0, 0.00000000000000000000e+00) (0, 0, 0.00000000000000000000e+00) (0, 0, 0.00000000000000000000e+00) (0, 0, 0.00000000000000000000e+00) (0, 0, 0.00000000000000000000e+00) (0, 0, 0.00000000000000000000e+00) (0, 0, 0.00000000000000000000e+00) (0, 0, 0.00000000000000000000e+00) (0, 0, 0.00000000000000000000e+00) (0, 0, 0.00000000000000000000e+00) (0, 0, 0.00000000000000000000e+00) (0, 0, 0.00000000000000000000e+00) (0, 0, 0.00000000000000000000e+00) (0, 0, 0.00000000000000000000e+00) (0, 0, 0.00000000000000000000e+00) (0, 0, 0.00000000000000000000e+00) (0, 0, 0.00000000000000000000e+00) (0, 0, 0.00000000000000000000e+00) (0, 0, 0.00000000000000000000e+00) (0, 0, 0.00000000000000000000e+00) (0, 0, 0.00000000000000000000e+00) (0, 0, 0.00000000000000000000e+00) (0, 0, 0.00000000000000000000e+00) (0, 0, 0.00000000000000000000e+00) (0, 0, 0.00000000000000000000e+00) (0, 0, 0.00000000000000000000e+00) (0, 0, 0.00000000000000000000e+00) (0, 0, 0.00000000000000000000e+00) (0, 0, 0.00000000000000000000e+00) (0, 0, 0.00000000000000000000e+00) (0, 0, 0.00000000000000000000e+00) (0, 0, 0.00000000000000000000e+00) (0, 0, 0.00000000000000000000e+00) (0, 0, 0.00000000000000000000e+00) (0, 0, 0.00000000000000000000e+00) (0, 0, 0.00000000000000000000e+00) (0, 0, 0.00000000000000000000e+00) (0, 0, 0.00000000000000000000e+00) (0, 0, 0.00000000000000000000e+00) (0, 0, 0.00000000000000000000e+00) (0, 0, 0.00000000000000000000e+00) (0, 0, 0.00000000000000000000e+00) (0, 0, 0.00000000000000000000e+00) (0, 0, 0.00000000000000000000e+00) (0, 0, 0.00000000000000000000e+00) (0, 0, 0.00000000000000000000e+00) (0, 0, 0.00000000000000000000e+00) (0, 0, 0.00000000000000000000e+00) (0, 0, 0.00000000000000000000e+00) (0, 0, 0.00000000000000000000e+00) (0, 0, 0.00000000000000000000e+00) (0, 0, 0.00000000000000000000e+00) (0, 0, 0.00000000000000000000e+00) (0, 0, 0.00000000000000000000e+00) (0, 0, 0.00000000000000000000e+00) (0, 0, 0.00000000000000000000e+00) (0, 0, 0.00000000000000000000e+00) (0, 0, 0.00000000000000000000e+00) (0, 0, 0.00000000000000000000e+00) (0, 0, 0.00000000000000000000e+00) (0, 0, 0.00000000000000000000e+00) (0, 0, 0.00000000000000000000e+00) (0, 0, 0.00000000000000000000e+00) (0, 0, 0.00000000000000000000e+00) (0, 0, 0.00000000000000000000e+00) (0, 0, 0.00000000000000000000e+00) (0, 0, 0.00000000000000000000e+00) (0, 0, 0.00000000000000000000e+00) (0, 0, 0.00000000000000000000e+00) (0, 0, 0.00000000000000000000e+00) (0, 0, 0.00000000000000000000e+00) (0, 0, 0.00000000000000000000e+00) (0, 0, 0.00000000000000000000e+00) (0, 0, 0.00000000000000000000e+00) (0, 0, 0.00000000000000000000e+00) (0, 0, 0.00000000000000000000e+00) (0, 0, 0.00000000000000000000e+00) (0, 0, 0.00000000000000000000e+00) (0, 0, 0.00000000000000000000e+00) (0, 0, 0.00000000000000000000e+00) (0, 0, 0.00000000000000000000e+00) (0, 0, 0.00000000000000000000e+00) (0, 0, 0.00000000000000000000e+00) (0, 0, 0.00000000000000000000e+00) (0, 0, 0.00000000000000000000e+00) (0, 0, 0.00000000000000000000e+00) (0, 0, 0.00000000000000000000e+00) (0, 0, 0.00000000000000000000e+00) (0, 0, 0.00000000000000000000e+00) (0, 0, 0.00000000000000000000e+00) (0, 0, 0.00000000000000000000e+00) (0, 0, 0.00000000000000000000e+00) (0, 0, 0.00000000000000000000e+00) (0, 0, 0.00000000000000000000e+00) (0, 0, 0.00000000000000000000e+00) (0, 0, 0.00000000000000000000e+00) (0, 0, 0.00000000000000000000e+00) (0, 0, 0.00000000000000000000e+00) (0, 0, 0.00000000000000000000e+00) (0, 0, 0.00000000000000000000e+00) (0, 0, 0.00000000000000000000e+00) (0, 0, 0.00000000000000000000e+00) (0, 0, 0.00000000000000000000e+00) (0, 0, 0.00000000000000000000e+00) (0, 0, 0.00000000000000000000e+00) (0, 0, 0.00000000000000000000e+00) (0, 0, 0.00000000000000000000e+00) (0, 0, 0.00000000000000000000e+00) (0, 0, 0.00000000000000000000e+00) (0, 0, 0.00000000000000000000e+00) (0, 0, 0.00000000000000000000e+00) (0, 0, 0.00000000000000000000e+00) (0, 0, 0.00000000000000000000e+00) (0, 0, 0.00000000000000000000e+00) (0, 0, 0.00000000000000000000e+00) (0, 0, 0.00000000000000000000e+00) (0, 0, 0.00000000000000000000e+00) (0, 0, 0.00000000000000000000e+00) (0, 0, 0.00000000000000000000e+00) (0, 0, 0.00000000000000000000e+00) (0, 0, 0.00000000000000000000e+00) (0, 0, 0.00000000000000000000e+00) (0, 0, 0.00000000000000000000e+00) (0, 0, 0.00000000000000000000e+00) (0, 0, 0.00000000000000000000e+00) (0, 0, 0.00000000000000000000e+00) (0, 0, 0.00000000000000000000e+00) (0, 0, 0.00000000000000000000e+00) (0, 0, 0.00000000000000000000e+00) (0, 0, 0.00000000000000000000e+00) (0, 0, 0.00000000000000000000e+00) (0, 0, 0.00000000000000000000e+00) (0, 0, 0.00000000000000000000e+00) (0, 0, 0.00000000000000000000e+00) (0, 0, 0.00000000000000000000e+00) (0, 0, 0.00000000000000000000e+00) (0, 0, 0.00000000000000000000e+00) (0, 0, 0.00000000000000000000e+00) (0, 0, 0.00000000000000000000e+00) (0, 0, 0.00000000000000000000e+00) (0, 0, 0.00000000000000000000e+00) (0, 0, 0.00000000000000000000e+00) (0, 0, 0.00000000000000000000e+00) (0, 0, 0.00000000000000000000e+00) (0, 0, 0.00000000000000000000e+00) (0, 0, 0.00000000000000000000e+00) (0, 0, 0.00000000000000000000e+00) (0, 0, 0.00000000000000000000e+00) (0, 0, 0.00000000000000000000e+00) (0, 0, 0.00000000000000000000e+00) (0, 0, 0.00000000000000000000e+00) (0, 0, 0.00000000000000000000e+00) (0, 0, 0.00000000000000000000e+00) (0, 0, 0.00000000000000000000e+00) (0, 0, 0.00000000000000000000e+00) (0, 0, 0.00000000000000000000e+00) (0, 0, 0.00000000000000000000e+00) (0, 0, 0.00000000000000000000e+00) (0, 0, 0.00000000000000000000e+00) (0, 0, 0.00000000000000000000e+00) (0, 0, 0.00000000000000000000e+00) (0, 0, 0.00000000000000000000e+00) (0, 0, 0.00000000000000000000e+00) (0, 0, 0.00000000000000000000e+00) (0, 0, 0.00000000000000000000e+00) (0, 0, 0.00000000000000000000e+00) (411, 5, 5.00000000000000000000e-01) (411, 5, 5.00000000000000000000e-01) (411, 5, 5.00000000000000000000e-01) (411, 5, 5.00000000000000000000e-01) (411, 5, 5.00000000000000000000e-01) (411, 5, 5.00000000000000000000e-01) (411, 5, 5.00000000000000000000e-01) (411, 5, 5.00000000000000000000e-01) (411, 5, 5.00000000000000000000e-01) (411, 5, 5.00000000000000000000e-01) (411, 5, 5.00000000000000000000e-01) (411, 5, 5.00000000000000000000e-01) (411, 5, 5.00000000000000000000e-01) (411, 5, 5.00000000000000000000e-01) (411, 5, 5.00000000000000000000e-01) (411, 5, 5.00000000000000000000e-01) (411, 5, 5.00000000000000000000e-01) (411, 5, 5.00000000000000000000e-01) (411, 5, 5.00000000000000000000e-01) (411, 5, 5.00000000000000000000e-01) (411, 5, 5.00000000000000000000e-01) (411, 5, 5.00000000000000000000e-01) (411, 5, 5.00000000000000000000e-01) (411, 5, 5.00000000000000000000e-01) (411, 5, 5.00000000000000000000e-01) (411, 5, 5.00000000000000000000e-01) (411, 5, 5.00000000000000000000e-01) (411, 5, 5.00000000000000000000e-01) (411, 5, 5.00000000000000000000e-01) (411, 5, 5.00000000000000000000e-01) (411, 5, 5.00000000000000000000e-01) (411, 5, 5.00000000000000000000e-01) (411, 5, 5.00000000000000000000e-01) (411, 5, 5.00000000000000000000e-01) (411, 5, 5.00000000000000000000e-01) (411, 5, 5.00000000000000000000e-01) (411, 5, 5.00000000000000000000e-01) (411, 5, 5.00000000000000000000e-01) (411, 5, 5.00000000000000000000e-01) (411, 5, 5.00000000000000000000e-01) (411, 5, 5.00000000000000000000e-01) (411, 5, 5.00000000000000000000e-01) (411, 5, 5.00000000000000000000e-01) (411, 5, 5.00000000000000000000e-01) (411, 5, 5.00000000000000000000e-01) (411, 5, 5.00000000000000000000e-01) (411, 5, 5.00000000000000000000e-01) (411, 5, 5.00000000000000000000e-01) (411, 5, 5.00000000000000000000e-01) (411, 5, 5.00000000000000000000e-01) (411, 5, 5.00000000000000000000e-01) (411, 5, 5.00000000000000000000e-01) (411, 5, 5.00000000000000000000e-01) (411, 5, 5.00000000000000000000e-01) (411, 5, 5.00000000000000000000e-01) (411, 5, 5.00000000000000000000e-01) (411, 5, 5.00000000000000000000e-01) (411, 5, 5.00000000000000000000e-01) (411, 5, 5.00000000000000000000e-01) (411, 5, 5.00000000000000000000e-01) (411, 5, 5.00000000000000000000e-01) (411, 5, 5.00000000000000000000e-01) (411, 5, 5.00000000000000000000e-01) (411, 5, 5.00000000000000000000e-01) (411, 5, 5.00000000000000000000e-01) (411, 5, 5.00000000000000000000e-01) (411, 5, 5.00000000000000000000e-01) (411, 5, 5.00000000000000000000e-01) (411, 5, 5.00000000000000000000e-01) (411, 5, 5.00000000000000000000e-01) (411, 5, 5.00000000000000000000e-01) (411, 5, 5.00000000000000000000e-01) (411, 5, 5.00000000000000000000e-01) (411, 5, 5.00000000000000000000e-01) (411, 5, 5.00000000000000000000e-01) (411, 5, 5.00000000000000000000e-01) (411, 5, 5.00000000000000000000e-01) (411, 5, 5.00000000000000000000e-01) (411, 5, 5.00000000000000000000e-01) (411, 5, 5.00000000000000000000e-01) (411, 5, 5.00000000000000000000e-01) (411, 5, 5.00000000000000000000e-01) (411, 5, 5.00000000000000000000e-01) (411, 5, 5.00000000000000000000e-01) (411, 5, 5.00000000000000000000e-01) (411, 5, 5.00000000000000000000e-01) (411, 5, 5.00000000000000000000e-01) (411, 5, 5.00000000000000000000e-01) (411, 5, 5.00000000000000000000e-01) (411, 5, 5.00000000000000000000e-01) (411, 5, 5.00000000000000000000e-01) (411, 5, 5.00000000000000000000e-01) (411, 5, 5.00000000000000000000e-01) (411, 5, 5.00000000000000000000e-01) (411, 5, 5.00000000000000000000e-01) (411, 5, 5.00000000000000000000e-01) (411, 5, 5.00000000000000000000e-01) (411, 5, 5.00000000000000000000e-01) (411, 5, 5.00000000000000000000e-01) (411, 5, 5.00000000000000000000e-01) (411, 5, 5.00000000000000000000e-01) (411, 5, 5.00000000000000000000e-01) (411, 5, 5.00000000000000000000e-01) (411, 5, 5.00000000000000000000e-01) (411, 5, 5.00000000000000000000e-01) (411, 5, 5.00000000000000000000e-01) (411, 5, 5.00000000000000000000e-01) (411, 5, 5.00000000000000000000e-01) (411, 5, 5.00000000000000000000e-01) (411, 5, 5.00000000000000000000e-01) (411, 5, 5.00000000000000000000e-01) (411, 5, 5.00000000000000000000e-01) (411, 5, 5.00000000000000000000e-01) (411, 5, 5.00000000000000000000e-01) (411, 5, 5.00000000000000000000e-01) (411, 5, 5.00000000000000000000e-01) (411, 5, 5.00000000000000000000e-01) (411, 5, 5.00000000000000000000e-01) (411, 5, 5.00000000000000000000e-01) (411, 5, 5.00000000000000000000e-01) (411, 5, 5.00000000000000000000e-01) (411, 5, 5.00000000000000000000e-01) (411, 5, 5.00000000000000000000e-01) (411, 5, 5.00000000000000000000e-01) (411, 5, 5.00000000000000000000e-01) (411, 5, 5.00000000000000000000e-01) (411, 5, 5.00000000000000000000e-01) (411, 5, 5.00000000000000000000e-01) (0, 5, 0.00000000000000000000e+00) (129, 3, 5.00000000000000000000e-01) (129, 3, 5.00000000000000000000e-01) (129, 3, 5.00000000000000000000e-01) (0, 3, 0.00000000000000000000e+00) 
connections (connected_to_neuron, weight)=(0, 1.39329404155749680960e-01) (1, 1.54641823668420563820e+00) (2, 1.12598176047988565718e-01) (3, 2.38805274110714016444e+00) (4, 2.77266910263022081651e-01) (5, 1.54818692992723239144e+00) (6, 1.20570227791545234175e-01) (7, 2.36131282013756743643e-01) (8, 2.07536229326494270353e+00) (9, 4.05543852236112320475e-02) (10, 1.17362243947913488795e-01) (11, -4.41725366722487189364e-01) (12, 2.29199463557991367502e-01) (13, 2.86211563549892689107e-01) (14, 2.22375699184057223912e-01) (15, 2.39606663470100234026e-01) (16, 8.91942642637583577025e-02) (17, 1.45054901194719021440e+00) (18, 2.61889008416000379498e-01) (19, 6.74204570508833866960e-01) (20, 2.38557406522843518104e-01) (21, 2.14621936866923074261e-01) (22, 2.17686102799230368765e-01) (23, -1.23571926701576406682e-01) (24, 2.07873951867817291506e-01) (25, 2.78840926143767375844e-01) (26, 2.14611962079515883328e-01) (27, 6.97501025976642596849e-02) (28, 7.81856290397719283503e-02) (29, 1.10083447923336741336e-01) (30, 6.02776504935726500922e-02) (31, 1.25404684931779059065e-01) (32, 2.38148866879330733948e-01) (33, 1.32048277590663865055e+00) (34, 2.29779024942218940142e-01) (35, -5.60731697728336198061e-01) (36, 1.06851261233095920500e-01) (37, 2.51128715203300101333e-01) (38, 1.16337400999755341546e-01) (39, 1.97149675478828750874e-01) (40, 2.53469687238958185649e-01) (41, 4.94790792251309952121e+00) (42, 1.83885981364024564400e-01) (43, 8.31369172541737033733e-01) (44, 9.51474624176973093892e-02) (45, 8.06696166876292308778e-02) (46, 2.68433363821326764764e-01) (47, -1.76015232248976527529e+00) (48, 2.49078800117717158447e-01) (49, 1.82084104834597776401e-01) (50, 4.99213393029707519499e-01) (51, 2.48324732636519829310e-01) (52, 2.33009450189121225527e-01) (53, 4.42300510255920431568e-01) (54, 1.22973090663317435878e-01) (55, 3.97080805818900317572e-01) (56, 4.97697170995072157851e-01) (57, 3.26315415106115003230e-01) (58, 2.40558153543929814644e-01) (59, 6.62825491005078859530e+00) (60, 5.26260799788996425086e-01) (61, 3.74903268296408243021e-01) (62, 4.82109632648485220141e-01) (63, 5.34361257333444972240e-01) (64, 4.93127762455629781169e-01) (65, 4.81605290550875142497e-01) (66, 4.22777798332231669054e-01) (67, 3.44165093381094522318e-01) (68, 4.66140820760416574320e-01) (69, 5.11408876933115208452e-01) (70, 3.65983482755678324327e-01) (71, 4.02124672312426156839e-01) (72, 3.92276627813771594511e-01) (73, 4.93078612699562823796e-01) (74, 5.11746549024636121494e-01) (75, 4.83210056552348166115e-01) (76, 4.23306153958037723051e-01) (77, 3.81189117078975070463e-01) (78, 5.76405507601582267618e-01) (79, 3.90510315660872853183e-01) (80, 5.04743329309984889441e-01) (81, 5.30226776247218145599e-01) (82, 3.85048597004997494864e-01) (83, 4.86688205843165633269e-01) (84, 4.37585098307864406308e-01) (85, 4.32496191804602969633e-01) (86, 4.26321048732701435302e-01) (87, 4.07956518613265650686e-01) (88, 4.09626137524968680914e-01) (89, 3.84506660741918138147e-01) (90, 3.85796343319881440692e-01) (91, 4.55212598239992494165e-01) (92, 4.60505988447264091867e-01) (93, 4.98597663769856480620e-01) (94, 4.70493328700200108550e-01) (95, 5.20725619491043789644e-01) (96, 4.65272446733252631468e-01) (97, 3.87737234139285069645e-01) (98, 4.13504907584845649016e-01) (99, 5.18233268175759986818e-01) (100, 3.24487324790646625150e-01) (101, 4.09080148537754040294e-01) (102, 4.60009966156631533440e-01) (103, 1.70554544161099663757e-01) (104, 3.18633993691415262628e-01) (105, 1.49559866021413079284e-01) (106, 2.61380422156781644372e-01) (107, 2.50224265665692613414e-01) (108, 1.95016147065482481349e-01) (109, 1.87110427189682793081e-01) (110, 1.98822684290242718275e-01) (111, -3.25697646056274270343e-01) (112, 3.87471867092355648499e-01) (113, 7.89065843237019781675e-01) (114, 2.42047672491237397807e+00) (115, 3.94248419596201982174e+00) (116, 8.12159763224392428071e-01) (117, 1.33404825933296167229e+00) (118, -1.38583191649914105881e+00) (119, 2.32357846300712156395e-01) (120, 1.08763886399920892245e+02) (121, 2.99141105368267101738e-01) (122, 3.66238613223415554465e-01) (123, 4.52307217374074477245e-01) (124, 3.27627346470582614391e-01) (125, 4.32950005486238131969e-01) (126, 3.87423095886493817908e-01) (127, 3.58373952691341535193e-01) (128, 3.32844287708032260387e-01) (129, 5.14046989932286813030e-01) (130, 3.84410014037872449499e-01) (131, 3.20896238639581332652e-01) (132, 5.03161155238378121624e-01) (133, 4.29701947226750979869e-01) (134, 4.00801718785989413707e-01) (135, 4.74557214036214369823e-01) (136, 4.83188383832204360058e-01) (137, 3.47121462776887546031e-01) (138, 4.67015890066410088721e-01) (139, 4.77881901517140883495e-01) (140, 3.61279763832318911998e-01) (141, 4.29113217249143252818e-01) (142, 5.02482471649432937966e-01) (143, 3.61239125613952771765e-01) (144, 4.82674350815944619431e-01) (145, 4.86090951218831557323e-01) (146, 3.32398008227822283622e-01) (147, 4.98993730026416726364e-01) (148, 3.60791252779893933944e-01) (149, 3.96851920142400393932e-01) (150, 4.85238378721408791794e-01) (151, 3.74507842439346372299e-01) (152, 3.26508907455139218978e-01) (153, 4.13484737828004489391e-01) (154, 4.38083395912873874156e-01) (155, 4.67742555394399184276e-01) (156, 3.49027999296414981334e-01) (157, 5.13698749795186593303e-01) (158, 3.34823653652894626109e-01) (159, 3.81272353782880435435e-01) (160, 4.44572672798860202281e-01) (161, 3.24436399050444190806e-01) (162, 3.10049000007981967464e-01) (163, 3.62625740544410823940e-01) (164, 3.81803865671341502441e-01) (165, 4.57513318352757714091e-01) (166, 3.54061168763067368737e-01) (167, 3.83824231930464332407e-01) (168, 4.45328633197039081004e-01) (169, 3.48220981160635656426e-01) (170, 2.92082505096926570154e-01) (171, 3.76926846878143428921e-01) (172, 3.43214976497381751841e-01) (173, 3.34162898912656436412e-01) (174, 4.75951783910024184276e-01) (175, 3.13058475859850471323e-01) (176, 5.90958418751651781697e-01) (177, 4.15834151839455545829e-01) (178, 5.11799042428445538633e-01) (179, 4.28829779232453911497e-01) (180, 3.64521206671905129149e-01) (181, 3.29577297523248324840e-01) (182, 4.05780494764077792613e-01) (183, 3.52893636181581149547e-01) (184, 4.83503290071713942577e-01) (185, 4.39932197883355746715e-01) (186, 3.40610489800202975719e-01) (187, 4.40691710069406161754e-01) (188, 5.07362627124031795312e-01) (189, 4.32002306615551889823e-01) (190, 4.64116296380186699189e-01) (191, 4.74928176611090324677e-01) (192, 3.77207685893019617485e-01) (193, 5.13709052589500281272e-01) (194, 5.09580812066222188506e-01) (195, 4.50645527960970238013e-01) (196, 4.56017467797276365715e-01) (197, 3.77120719606589882567e-01) (198, 4.91389595603188344963e-01) (199, 3.73187848066529215263e-01) (200, 3.51283235409404148708e-01) (201, 3.83814771359404505180e-01) (202, 3.57965888389493336330e-01) (203, 4.92959129242317106723e-01) (204, 3.63943260714042315929e-01) (205, 3.89400673884086667709e-01) (206, 4.30205022770099698715e-01) (207, 4.34122264936196933238e-01) (208, 4.92878012910115737011e-01) (209, 4.00791019752252231090e-01) (210, 4.94705685034024733593e-01) (211, 5.18509291663396432170e-01) (212, 3.85696352079141269176e-01) (213, 3.95254267041469709021e-01) (214, 3.69008540302698695434e-01) (215, 4.26811116643637245005e-01) (216, 3.34423684134709964244e-01) (217, 4.58975263490903395702e-01) (218, 3.97433095231282840221e-01) (219, 4.58102666392552870800e-01) (220, 3.57599450257262141406e-01) (221, 4.53554867416048779205e-01) (222, 3.54506818224382014293e-01) (223, 4.92136729527902105907e-01) (224, 4.37786266758668551891e-01) (225, 4.73971121564137953808e-01) (226, 4.32547495320069919078e-01) (227, 4.25765753343331943004e-01) (228, 4.45147269025075564830e-01) (229, 3.90096769287812839000e-01) (230, 3.56552303388345370738e-01) (231, 3.74743410005796084850e-01) (232, 5.12650557413327767620e-01) (233, 5.18087514295804574260e-01) (234, 4.96895082845914382030e-01) (235, 5.15877985015142037639e-01) (236, 3.61428801521289477794e-01) (237, 3.34005304231870303600e-01) (238, 4.27867375602471955442e-01) (239, 4.94695388411721059807e-01) (240, 3.46524960010672344879e-01) (241, 5.17374476998473054046e-01) (242, 3.71900007759770334648e-01) (243, 5.06426347081447181253e-01) (244, 4.51244094108780691155e-01) (245, 4.47696962093552530693e-01) (246, 4.44054855614329113678e-01) (247, 4.89326500033577749260e-01) (248, 4.98621635770043203362e-01) (249, 3.20230767681825290172e-01) (250, 5.18634595527875497112e-01) (251, 4.91731621875989455273e-01) (252, 3.33506465509164462535e-01) (253, 4.43267733409631381480e-01) (254, 4.00906026914346347301e-01) (255, 4.27621663167703280894e-01) (256, 4.37428385570275912730e-01) (257, 4.59024407520520705273e-01) (258, 4.14740416117399757212e-01) (259, 4.58659780804897332374e-01) (260, 4.33178273622776166540e-01) (261, 3.60529343493670051402e-01) (262, 3.28075888462751930064e-01) (263, 4.82830311067789508250e-01) (264, 4.40564091213434649852e-01) (265, 4.71962476976602984813e-01) (266, 3.84776252217978065318e-01) (267, 4.50966266577030205909e-01) (268, 3.28516250138069287878e-01) (269, 5.10949683968806800394e-01) (270, 4.69820646230960869971e-01) (271, 4.13990718905712262732e-01) (272, 4.80306235735202813331e-01) (273, 4.40234328516214801219e-01) (274, 3.34880096499706403357e-01) (275, 4.68137455765987420264e-01) (276, 3.24564730410362378699e-01) (277, 4.97765434567714715186e-01) (278, 4.81826243583942437354e-01) (279, 3.95445064261186252086e-01) (280, 4.41877198998714582068e-01) (281, 3.68471299891258374792e-01) (282, 4.35475906018997327429e-01) (283, 3.81838401441360608679e-01) (284, 4.99734439506757277538e-01) (285, 4.36759137168157229869e-01) (286, 4.30643847927560829980e-01) (287, 8.04346918141743416619e-01) (288, 4.69320885516703589779e-01) (289, 3.41786422907554066075e-01) (290, 4.28262800529229770152e-01) (291, 4.09559955482269422156e-01) (292, 4.12567091767574445349e-01) (293, 3.48345654912680213755e-01) (294, 3.58289909321098776207e-01) (295, 5.27508210411795963601e-01) (296, 4.77712127903866579093e-01) (297, 4.39922850690869060575e-01) (298, 3.46482341770912305456e-01) (299, 4.67142698948169732276e-01) (300, 4.05566354875351087195e-01) (301, 4.88528922903566698022e-01) (302, 4.15690252042803909394e-01) (303, 5.03342361606153976261e-01) (304, 4.73172555573671771434e-01) (305, 3.32890451585492075370e-01) (306, 4.93190546322710476890e-01) (307, 4.29299419821298267053e-01) (308, 3.53307873561608920543e-01) (309, 4.45550256028401980846e-01) (310, 3.54483651824682777232e-01) (311, 3.18142215617388313120e-01) (312, 3.27690902062147682017e-01) (313, 4.12462490506857459849e-01) (314, 3.68517271139114921397e-01) (315, 3.81254146702974860972e-01) (316, 4.49899936922281695750e-01) (317, 3.79652860470503394907e-01) (318, 3.37071257539480750864e-01) (319, 4.68051682122438861278e-01) (320, 4.56000144489496661571e-01) (321, 5.05891586549966798536e-01) (322, 4.36331858520294324499e-01) (323, 3.67907223884845868689e-01) (324, 3.55086458508754865271e-01) (325, 4.76471734826351189795e-01) (326, 3.98650517349029676062e-01) (327, 4.57685691897655511085e-01) (328, 4.61808455769802117530e-01) (329, 3.52883299474502698523e-01) (330, 4.51487295880544203808e-01) (331, 3.59914131731112307833e-01) (332, 3.37023237222668858859e-01) (333, 4.81266104235875624706e-01) (334, 4.39581141426789889781e-01) (335, 4.40429673149812350719e-01) (336, 4.98125565831447625342e-01) (337, 3.34915538911605970007e-01) (338, 4.63782069866443658057e-01) (339, 3.23622053150917188269e-01) (340, 4.54263848845745110694e-01) (341, 3.50876589898849622351e-01) (342, 3.21230312471176282507e-01) (343, 4.56254748289371514502e-01) (344, 4.11895384673858777624e-01) (345, 4.58912874468058062938e-01) (346, 4.60000361211985064891e-01) (347, 3.37267967768400733775e-01) (348, 3.79312118177200452429e-01) (349, 4.40814068187665553111e-01) (350, 4.58112846793711503413e-01) (351, 4.42110524132478366344e-01) (352, 3.42257761813197280976e-01) (353, 3.20223791933420709466e-01) (354, 4.33802744625581382376e-01) (355, 4.94802243510717942865e-01) (356, 3.16643911309927528208e-01) (357, 3.45698225208014076060e-01) (358, 4.60577802217993770295e-01) (359, 3.27526524166102117608e-01) (360, 3.18945115093971387488e-01) (361, 4.67232412307882927216e-01) (362, 5.00977761270716137609e-01) (363, 5.25319874310421375263e-01) (364, 8.39074143220728041470e-01) (365, 6.15901765382333765686e-01) (366, 4.60974198734804108124e-01) (367, 4.84223903590676407749e-01) (368, 4.82679077043759841015e-01) (369, 3.87305565729367862193e-01) (370, 4.44823824420201907603e-01) (371, 3.50579050962711469275e-01) (372, 3.20513760332847730261e-01) (373, 4.13141039793277875525e-01) (374, 3.99799486284042493445e-01) (375, 3.68225017224336759192e-01) (376, 4.96293915097499871436e-01) (377, 3.49981268529678479773e-01) (378, 4.73651719872737908545e-01) (379, 4.02668563310886518103e-01) (380, 3.88954465870643750769e-01) (381, 4.96062336151386285010e-01) (382, 4.57943496887470269385e-01) (383, 3.94683686678196088415e-01) (384, 3.87151619081283704382e-01) (385, 3.95649199967170850378e-01) (386, 4.14431733672405377966e-01) (387, 4.92500913922573113624e-01) (388, 4.01129459624076978308e-01) (389, 3.21182435040260449988e-01) (390, 4.51619458977962517920e-01) (391, 5.06666151468539771585e-01) (392, 4.76369363848949456397e-01) (393, 4.73017196067064715770e-01) (394, 5.11375839718072877638e-01) (395, 4.13657755210626254527e-01) (396, 3.57572099172731583394e-01) (397, 4.44714484715124314107e-01) (398, 4.46820279562135880269e-01) (399, 4.38975332283636276998e-01) (400, 3.91137066517363518603e-01) (401, 4.35612979192288474195e-01) (402, 4.87611613891582362790e-01) (403, 1.60825731058430870801e-01) (404, 1.43845860584119966674e-01) (405, 1.88972577392796381446e-01) (406, 1.48128518649984775024e-01) (407, -2.65132675076002355397e+00) (408, -2.49282837708577709179e+00) (409, -3.92808464694324577238e+00) (410, -5.35711686352880467332e-02) (0, 5.73828266558939259490e-01) (1, 2.71352736130542948612e-01) (2, 5.40024227634865350289e-01) (3, 4.17339152929848022922e-01) (4, 6.24903684310176510408e-01) (5, 3.65741914248289057277e-01) (6, 5.94115032817435162471e-01) (7, 3.08761999721594238011e-01) (8, 9.55817102628539749798e-02) (9, 4.08539272467088987462e-01) (10, 5.67113514137136620619e-01) (11, 1.56829566763899519444e+00) (12, 5.57500705534043849987e-01) (13, 3.41395447495896120493e-01) (14, 3.97869713023389692808e-01) (15, 4.31199603836311839977e-01) (16, 5.39268490323664861918e-01) (17, 5.27734589948978122242e-02) (18, 5.89328145928744717708e-01) (19, -2.72769850411108238930e-01) (20, 3.49769274105944827369e-01) (21, 2.82030819705605617642e-01) (22, 5.94290680873640564386e-01) (23, 1.45123953363937885364e+00) (24, 6.03111122851330616612e-01) (25, -3.40475577024410613891e-01) (26, 5.10453688805692529229e-01) (27, 4.46666978218064891770e-01) (28, 4.87265028825482560126e-01) (29, -3.97418077306199879484e-01) (30, 4.36056333088261804942e-01) (31, 1.48380761944209071945e-01) (32, 1.21795845505562591593e-01) (33, 6.05104737186210162037e-01) (34, 6.53420381431062735622e-01) (35, 1.54806968100683128853e+00) (36, 2.03539130183111927064e-01) (37, 5.55852426691735179709e-01) (38, 5.73289536066105442913e-01) (39, 5.95875339306431883735e-01) (40, 6.72999945488471085220e-01) (41, -1.64996126451037028460e+00) (42, 6.83223226139920924993e-01) (43, 1.09174471165358749625e-01) (44, 2.38040481518903335179e-01) (45, 5.87959285347755100659e-01) (46, 5.59522150807650775484e-01) (47, 1.61630476753152541036e+00) (48, 1.20180565307349218607e-01) (49, 5.84517884785032859618e-01) (50, 5.69433452985631860521e-01) (51, 3.77963724470451511994e-01) (52, 5.15713264255665659874e-01) (53, -2.15165579991874522658e-01) (54, 9.36512070728497514338e-01) (55, 9.37928017298896632425e-01) (56, 9.16602116742266659344e-01) (57, 1.63977619537242630399e-01) (58, 7.08183355638637879181e-01) (59, 6.43866478011380083402e-01) (60, 2.55475110864459231674e-01) (61, 2.66685075616656497299e-01) (62, 2.67477347078434790628e-01) (63, 2.21915847184769504663e-01) (64, 2.69561378779522742288e-01) (65, 2.48003421845547550317e-01) (66, 1.23698128881565866388e-01) (67, 1.24444215121380624689e-01) (68, 2.63937576236836168864e-01) (69, 1.28708659234158362406e-01) (70, 1.36467015864960544702e-01) (71, 1.31256199004761570093e-01) (72, 1.52924133958927982446e-01) (73, 1.31125524198828974365e-01) (74, 1.23306229269324538200e-01) (75, 9.93042798067254178784e-02) (76, 1.37136886390559070703e-01) (77, 1.89696556451432102319e-01) (78, 1.60073245438448780176e-01) (79, 2.81097351136319006937e-01) (80, 1.38555114017115260650e-01) (81, 1.47037509387551584839e-01) (82, 1.56475008324967052031e-01) (83, 1.21507889154068765558e-01) (84, 1.18197097933112435508e-01) (85, 2.35285006022273340820e-01) (86, 1.33475938380122227667e-01) (87, 2.82833541946297839509e-01) (88, 2.25449168622851414678e-01) (89, 2.85141132734205327015e-01) (90, 2.24406691304926686481e-01) (91, 2.28017716415577748057e-01) (92, 1.56670336961707068468e-01) (93, 1.33828366212134175495e-01) (94, 2.73742054917326560481e-01) (95, 2.98740970007662753893e-01) (96, 1.59247256025689121195e-01) (97, 2.93653218569866869547e-01) (98, 1.59728719415776126977e-01) (99, 2.90651618065945360758e-01) (100, 1.24668587912676515073e-01) (101, 2.80643287244460415408e-01) (102, 6.04240081757499769566e-01) (103, 6.39149406851124646245e-01) (104, 5.82464591671308928866e-01) (105, 6.34361020188378699203e-01) (106, 6.29975543595486908721e-01) (107, 5.81893967179023530178e-01) (108, 5.37750891760456095625e-01) (109, 6.37248945673372979570e-01) (110, 5.39585083991813485582e-01) (111, 6.05383535641617065437e-01) (112, 6.91028744115413706695e-01) (113, 5.11199543420232660473e-01) (114, 3.35257817300667670946e-01) (115, 6.63758739388273899529e-01) (116, 3.27751968633953061349e-01) (117, -4.38390473770081168237e-01) (118, 8.63549002387813624537e-01) (119, 4.67523119088569694135e-01) (120, -2.33356632741589331559e+00) (121, 3.09859381123126054192e-01) (122, 1.36538520918114580915e-01) (123, 1.67707547002988066609e-01) (124, 1.74859874148053290321e-01) (125, 1.70161105149941649373e-01) (126, 2.11764708358925940468e-01) (127, 2.31456197995823981239e-01) (128, 1.83598040077005031367e-01) (129, 2.15354505383925642903e-01) (130, 1.75455875152306761677e-01) (131, 1.99341613256888594563e-01) (132, 2.46951523625807967122e-01) (133, 2.26579289340930190022e-01) (134, 2.30412449145274367268e-01) (135, 2.54504624211745578144e-01) (136, 1.71644199097113814290e-01) (137, 1.36439512872653212483e-01) (138, 2.50399632784639003535e-01) (139, 1.47991434670448257505e-01) (140, 1.96297966592919898021e-01) (141, 1.71070114427220892894e-01) (142, 1.72771889173941817219e-01) (143, 2.89523515307860801471e-01) (144, 1.32475943304061843930e-01) (145, 2.27489233666074347484e-01) (146, 2.02716403358590674388e-01) (147, 2.53266677357883163157e-01) (148, 2.69931970569406209925e-01) (149, 2.29613828861670699055e-01) (150, 2.31965165042834486897e-01) (151, 1.52130927988023384456e-01) (152, 2.83698916532726108652e-01) (153, 1.45635824108081068928e-01) (154, 2.13687132501559462483e-01) (155, 1.52046620303349699910e-01) (156, 1.59912228041844572957e-01) (157, 1.57208159023480620320e-01) (158, 3.08988703820024190883e-01) (159, 2.55998391115622836445e-01) (160, 2.76412411066804586390e-01) (161, 1.48153282899541022255e-01) (162, 3.17585088889736633089e-01) (163, 3.10688467460459805114e-01) (164, 1.69957836094015130035e-01) (165, 2.06581676142996856216e-01) (166, 2.45705750677045364760e-01) (167, 1.85042475256379623794e-01) (168, 2.16301277477425696327e-01) (169, 2.78897699806150145552e-01) (170, 2.45000437798506803810e-01) (171, 2.17744312675292095438e-01) (172, 2.23033626470025558852e-01) (173, 1.33548721868676306679e-01) (174, 2.53633815252738314960e-01) (175, 1.38861049804147262954e-01) (176, 2.01124146064707604031e-01) (177, 2.55440347171115800240e-01) (178, 1.99586928821563674985e-01) (179, 1.66435928083419754087e-01) (180, 1.97602265513896896421e-01) (181, 2.10912822219644191524e-01) (182, 2.93875946137224008936e-01) (183, 2.55073680016313253383e-01) (184, 3.05194152924333272914e-01) (185, 2.79992087218080332178e-01) (186, 3.09120877119813619593e-01) (187, 2.76711775395188985804e-01) (188, 1.76091098226070358335e-01) (189, 2.64875747394648641819e-01) (190, 2.57922746372309774632e-01) (191, 1.98749989402381060932e-01) (192, 2.82144867014971933994e-01) (193, 3.06756507278662493565e-01) (194, 2.81898475742160148361e-01) (195, 1.64350952511845865844e-01) (196, 1.46024257593762946117e-01) (197, 2.20898919456613135326e-01) (198, 2.39288211517942023265e-01) (199, 1.08179510288846605914e-01) (200, 1.70120587280525537022e-01) (201, 2.27751237697984665331e-01) (202, 1.17440608969463705646e-01) (203, 2.40013306668533654697e-01) (204, 1.20170320498037414003e-01) (205, 2.91429276691961447465e-01) (206, 2.42788229190071036534e-01) (207, 2.93223021957193186182e-01) (208, 2.81391052934442331690e-01) (209, 2.21543951365266444942e-01) (210, 1.71197837623868587276e-01) (211, 2.04115441474233272334e-01) (212, 2.50358758899484279414e-01) (213, 2.64219179947060900382e-01) (214, 2.34705111600120502890e-01) (215, 2.00238212355559858091e-01) (216, 2.52301857072991686515e-01) (217, 1.36537095937047603389e-01) (218, 2.61081291767869649867e-01) (219, 2.77536026545947778210e-01) (220, 1.76671736216831132271e-01) (221, 1.28381788861838458393e-01) (222, 2.12574447894053664143e-01) (223, 2.49463313258647789716e-01) (224, 2.40513253414588179524e-01) (225, 2.17795303496633174678e-01) (226, 1.68660878592686858113e-01) (227, 1.95848475599246230061e-01) (228, 1.36742724510942104121e-01) (229, 1.18032540583567879811e-01) (230, 2.84386484357629587549e-01) (231, 1.65734855863366725703e-01) (232, 1.87798170778070094844e-01) (233, 2.05943068894658687373e-01) (234, 1.67294381591592433711e-01) (235, 1.98778404328141811153e-01) (236, 1.51652059906678404744e-01) (237, 1.28595116937117809330e-01) (238, 2.08894223905563308774e-01) (239, 1.86998352539626239155e-01) (240, 1.74906619542253088939e-01) (241, 2.46675015144956183422e-01) (242, 2.57801415831688529590e-01) (243, 2.01543206823543291639e-01) (244, 2.41353102959155990659e-01) (245, 1.23311549556342159306e-01) (246, 1.90875687354219031322e-01) (247, 2.38404887230042078494e-01) (248, 2.02922002411842300473e-01) (249, 2.20590356194930281575e-01) (250, 1.74549199098305907185e-01) (251, 1.60813688689427580769e-01) (252, 3.08102670514540988300e-01) (253, 1.93866390192465987141e-01) (254, 2.24797609651046004231e-01) (255, 2.85720321738677451862e-01) (256, 2.13924433493571486409e-01) (257, 1.40323694252925124104e-01) (258, 1.34455882210415961220e-01) (259, 3.00251069867568332050e-01) (260, 2.31236203047547939082e-01) (261, 2.71496400434655504874e-01) (262, 1.41830072004479529335e-01) (263, 2.39944175083321692421e-01) (264, 2.43727043468636633827e-01) (265, 2.23668669256623764419e-01) (266, 2.06733189720791937782e-01) (267, 2.66687974531335192374e-01) (268, 1.26667529542130619102e-01) (269, 2.03122630912942053749e-01) (270, 1.84051104087514044716e-01) (271, 2.48836994368714453651e-01) (272, 3.05203095276040392569e-01) (273, 2.50447750289124693168e-01) (274, 1.77417352993172766640e-01) (275, 1.55412033397835852577e-01) (276, 3.11996042925996142081e-01) (277, 2.19238773185891272499e-01) (278, 2.48123288352173926308e-01) (279, 3.09960171777886706046e-01) (280, 2.02386811573189856484e-01) (281, 2.17127628822011115028e-01) (282, 1.65986892033499838783e-01) (283, 2.43678078252953650429e-01) (284, 1.99337467748803259804e-01) (285, 1.66780904133004309609e-01) (286, 1.87489460700564603002e-01) (287, 2.18255403525135144305e-01) (288, 2.62845178462973227962e-01) (289, 1.53357847386112577937e-01) (290, 2.47115019166426863606e-01) (291, 1.76118359167260291054e-01) (292, 1.23224355477971253547e-01) (293, 1.33708633680028082802e-01) (294, 1.30258678706438313366e-01) (295, 1.98160171640006183003e-01) (296, 1.71922244104192434300e-01) (297, 3.03666919418480396597e-01) (298, 2.70044349594277699467e-01) (299, 2.11254917282742621376e-01) (300, 2.64579442235883421919e-01) (301, 1.94210967664916939190e-01) (302, 1.22775115939491322181e-01) (303, 2.04864100488536843292e-01) (304, 2.71763026911897020987e-01) (305, 2.14579121190202309899e-01) (306, 3.06186678972007075838e-01) (307, 2.41294190690156062917e-01) (308, 2.60764971778031651173e-01) (309, 3.10851335723084765128e-01) (310, 1.81625638994630356216e-01) (311, 1.90752063784059067153e-01) (312, 1.78623658511098404311e-01) (313, 1.36539620253499527358e-01) (314, 2.30105166229661484145e-01) (315, 1.86213639470990677260e-01) (316, 3.00066068966073351554e-01) (317, 3.12452793318909960441e-01) (318, 2.95944392878694007010e-01) (319, 2.39143781561535956337e-01) (320, 1.91578857798260809853e-01) (321, 1.67837493319195868446e-01) (322, 1.46658763487023474648e-01) (323, 1.95794828433674933388e-01) (324, 2.25696690578145148232e-01) (325, 1.86225116450471045448e-01) (326, 1.87448702950162054970e-01) (327, 1.52276404399556281044e-01) (328, 2.11455948848408820107e-01) (329, 2.42152318555993201210e-01) (330, 1.54576359310107463996e-01) (331, 2.29220400818002323362e-01) (332, 2.57493684792032828668e-01) (333, 2.52940128349772086480e-01) (334, 1.26411768996672863041e-01) (335, 1.16731122333687958870e-01) (336, 2.01909385819119574501e-01) (337, 1.92990713019055487587e-01) (338, 2.96860024530572363943e-01) (339, 2.28354364831132056191e-01) (340, 2.53770396310967760733e-01) (341, 2.20939673680943610146e-01) (342, 2.34993554849309088661e-01) (343, 2.38754481274766089394e-01) (344, 2.48422667581719519569e-01) (345, 1.43024739715512771987e-01) (346, 2.24211886722725989296e-01) (347, 2.32510481867249985122e-01) (348, 2.11084068019074561073e-01) (349, 1.83924370163095068920e-01) (350, 2.07962811642301154125e-01) (351, 2.30158761341256262734e-01) (352, 1.82430993537552238459e-01) (353, 1.83261561678760565020e-01) (354, 1.58065944682009101863e-01) (355, 2.79306243877060433878e-01) (356, 1.63824119511302490615e-01) (357, 2.00670313927587051772e-01) (358, 2.75695275287277719034e-01) (359, 2.75465062102096702734e-01) (360, 2.05075323779267432167e-01) (361, 2.01204711266002839176e-01) (362, 1.36937672766558521387e-01) (363, 2.37469293451595231392e-01) (364, 1.52340832656441965698e-01) (365, 2.89665519146404593087e-01) (366, 1.10108046678982107736e-01) (367, 2.90967280768862357476e-01) (368, 2.48812872374015031651e-01) (369, 3.11918452579659777335e-01) (370, 1.15335919160527405891e-01) (371, 1.52775034506005408241e-01) (372, 1.91982247132939459755e-01) (373, 1.47537864942235114052e-01) (374, 1.70859258819502951576e-01) (375, 1.33499726850670935585e-01) (376, 2.31847197014969946816e-01) (377, 1.57821279216689230873e-01) (378, 2.04242177505177618935e-01) (379, 2.00287908513230444862e-01) (380, 1.40776224631947638466e-01) (381, 1.27998680073899417931e-01) (382, 1.75849460262936713173e-01) (383, 2.03829512197655798866e-01) (384, 2.64565736252946215323e-01) (385, 2.58153975207490282706e-01) (386, 2.95953706104440161795e-01) (387, 1.95859007734936835243e-01) (388, 3.04248631198090868644e-01) (389, 2.08809122640771033241e-01) (390, 1.56900398630780341103e-01) (391, 1.26956768531483799034e-01) (392, 2.64443725545090990714e-01) (393, 2.07620196242016913368e-01) (394, 1.74539271939677359535e-01) (395, 1.75552026086461615551e-01) (396, 2.91163228010951236069e-01) (397, 2.76910922980128593185e-01) (398, 5.01078596970711220848e-01) (399, 6.38631357512150055200e-01) (400, 4.87922682127628903892e-01) (401, 5.31197827750209849995e-01) (402, 6.00440830433134120625e-01) (403, 5.74197101257961417531e-01) (404, 5.12589300833862449025e-01) (405, 6.73981594566609776287e-01) (406, 5.54543833574601796599e-01) (407, 1.20185899463813461452e+00) (408, 5.63833801181559013393e-01) (409, 8.10259096099227860144e-01) (410, 1.87136294481720200089e-01) (0, 2.72027869952508938312e-01) (1, 2.61819165939940590171e-01) (2, 2.35051520160147853211e-01) (3, 2.88062626325214288237e-01) (4, 1.92374819981658756740e-01) (5, 2.42905611427382622791e-01) (6, 2.46954069788293179011e-01) (7, 2.61974363003986798759e-01) (8, 1.89818347126253200718e-01) (9, 2.00157475646482591047e-01) (10, 2.76178761056235289040e-01) (11, 6.17001038089980635704e-01) (12, 2.20745828494360363248e-01) (13, 1.21684582221168374749e-01) (14, 1.22764476890401125209e-01) (15, 2.07052729485204423110e-01) (16, 1.66799680888328832884e-01) (17, 1.76179811822289034140e-01) (18, 1.25763594077662049786e-01) (19, 1.32105179718399107225e-01) (20, 2.47388095250988010454e-01) (21, 2.13168433363349646426e-01) (22, 1.09127318357529576320e-01) (23, 1.99712469634804046237e-01) (24, 2.26175657451913758589e-01) (25, 1.06329725099653452092e-01) (26, 1.90897064832842938698e-01) (27, 1.92042611389532408284e-01) (28, 5.85191875747038195432e-02) (29, -2.88283061131569651181e-01) (30, 2.38809161672745046134e-01) (31, 2.80749542792758877141e-01) (32, 9.61183814514075529623e-02) (33, 2.98549662097619350476e-01) (34, 1.17726577957989173018e-01) (35, 1.08991523495907571828e-01) (36, 1.48628541893527837958e-01) (37, 2.74987189567352630082e-01) (38, 1.24945754776827955279e-01) (39, 2.61978437882004033810e-01) (40, 5.29423931165050251635e-02) (41, 2.10881736324432300655e-01) (42, 1.75625048865057947767e-01) (43, 9.93051574526497282669e-02) (44, 2.01878747952335124705e-01) (45, 3.88673777220981397917e-01) (46, 1.66217660793245736173e-01) (47, 3.53510472667329767038e-01) (48, 2.22487140977947084330e-01) (49, 1.77700395245725339954e-01) (50, 3.40271720539878252954e-01) (51, 2.40843394320675946441e-01) (52, -2.13894860973285982908e+00) (53, 8.19796034730756878472e-02) (54, 2.26151058744643390641e-01) (55, 2.48429942650658791559e-01) (56, 4.23758793396813493448e-01) (57, 3.08949046306682240104e-01) (58, 3.27005754288326067059e-01) (59, -1.39689519111055787670e-01) (60, 1.81170835888779885314e-01) (61, 1.16396628117955550086e-01) (62, 2.54771881349605211486e-01) (63, 1.82796888597529988418e-01) (64, 2.95485418638930130708e-01) (65, 1.47684813089889149795e-01) (66, 1.71201982397883284426e-01) (67, 2.71429874796717596208e-01) (68, 2.01616638202517378664e-01) (69, 2.56113254921697508504e-01) (70, 2.97725358253454863711e-01) (71, 2.26393796895355547960e-01) (72, 3.02588209782946815363e-01) (73, 2.57015272939682293263e-01) (74, 2.61672005022049236622e-01) (75, 1.26132160698283452005e-01) (76, 1.57831851784796084459e-01) (77, 1.81110099349827136095e-01) (78, 2.19702602233775745599e-01) (79, 1.45561674294485077219e-01) (80, 1.16473988380816032007e-01) (81, 1.37962789025690590883e-01) (82, 3.00191574480917489076e-01) (83, 2.77910419359764626623e-01) (84, 1.96959146914495453196e-01) (85, 1.52456455483993891242e-01) (86, 2.97007623959860300733e-01) (87, 1.27896319338780345420e-01) (88, 2.43828073103683012901e-01) (89, 1.48543578323509728456e-01) (90, 1.30685472676593916752e-01) (91, 2.96550483644322904198e-01) (92, 2.24788363070048874404e-01) (93, 2.87161511866999785703e-01) (94, 1.54070304273320163313e-01) (95, 2.89442959219970430418e-01) (96, 1.40785862879738599140e-01) (97, 2.75538154628660714174e-01) (98, 1.29407719459917580629e-01) (99, 1.16797492281951492687e-01) (100, 1.24638970296766793400e-01) (101, 1.25789050890479175981e-01) (102, 1.95656760758996545180e-01) (103, 1.23686702731732586780e-01) (104, 2.32189987003575848412e-01) (105, 1.22980664465708114386e-01) (106, 2.66881022291122815826e-01) (107, 3.12994049474965507773e-01) (108, 2.36052159394579963436e-01) (109, 1.28657114056111687717e-01) (110, -9.86050243686453636860e-02) (111, -2.22382176357301064584e-01) (112, -1.47212709712860267963e-01) (113, -1.16369701290536933791e-01) (114, -2.07061928729913941050e-01) (115, -1.93432255528934116118e-01) (116, -3.61267456951355203643e-01) (117, -1.02376322975479361332e+00) (118, -2.61360461321257009359e-01) (119, -7.26424269627126917293e-01) (120, -6.45648345907174792124e-01) (121, 1.29858771336345685254e-01) (122, 2.49720302316602249526e-01) (123, 2.57718351575788207075e-01) (124, 2.81029370519574828169e-01) (125, 2.69152757617887206099e-01) (126, 2.58977544400151915571e-01) (127, 2.44114127847608108901e-01) (128, 2.34703306946214218520e-01) (129, 2.67228868696149535200e-01) (130, 1.24404941591676310164e-01) (131, 2.82548275682386107466e-01) (132, 1.97623495850022812270e-01) (133, 2.66768363210614867231e-01) (134, 1.84495148155149002456e-01) (135, 2.18658287915643234633e-01) (136, 1.98543813917096634292e-01) (137, 1.34582293126042862319e-01) (138, 1.33308117184098740005e-01) (139, 1.16551004447669664943e-01) (140, 2.91911184885234653574e-01) (141, 1.70311763980121239070e-01) (142, 2.50726071092542357466e-01) (143, 1.61672611627038498305e-01) (144, 2.40274165663178940200e-01) (145, 2.95089314393729984509e-01) (146, 1.43582875542373311628e-01) (147, 1.76164568308051605605e-01) (148, 2.06604299041684646987e-01) (149, 2.07132366392072220229e-01) (150, 2.82383811566289610884e-01) (151, 2.33656137692388105043e-01) (152, 2.25226421746667404555e-01) (153, 1.89180117937978287124e-01) (154, 1.58983030262645264052e-01) (155, 2.36503635439332504653e-01) (156, 1.25138563010152442656e-01) (157, 2.12496851477082748794e-01) (158, 2.43347284290250320815e-01) (159, 1.46509204897340317153e-01) (160, 1.88922178837712784194e-01) (161, 2.24058314668592023500e-01) (162, 3.15733509236614251492e-01) (163, 1.49411307510720708924e-01) (164, 2.55394048094051528963e-01) (165, 1.38869414103298172147e-01) (166, 2.91638743969854175031e-01) (167, 1.81067724618371506118e-01) (168, 2.13921134266313095473e-01) (169, 1.80801702392037938472e-01) (170, 2.09867507139180037301e-01) (171, 3.14978410500831029761e-01) (172, 2.16892569767888593324e-01) (173, 2.79907313081678099653e-01) (174, 2.10914951655324478530e-01) (175, 2.58056520930106614298e-01) (176, 8.65453605872449904801e-02) (177, 1.12327246924930471139e-01) (178, 2.91392418680127940345e-01) (179, 1.48881901893075485610e-01) (180, 2.66752955409940428755e-01) (181, 1.25519026908334330184e-01) (182, 2.06941072735246200942e-01) (183, 2.67311316821035094282e-01) (184, 3.09986916276868529341e-01) (185, 1.58868704828675766372e-01) (186, 3.14985957834180541060e-01) (187, 1.77854110392983932876e-01) (188, 2.01992045280870002877e-01) (189, 1.94327256026477462880e-01) (190, 1.80889867399657566782e-01) (191, 2.73912124489272490457e-01) (192, 2.96033927807754726480e-01) (193, 1.29571862672293980356e-01) (194, 1.72195315514529545542e-01) (195, 1.43174558757348135973e-01) (196, 1.17253189086328077351e-01) (197, 2.13332422175140007381e-01) (198, 2.98834768030103503644e-01) (199, 1.22189415934295331212e-01) (200, 1.65404184845622581612e-01) (201, 2.63823035297330588111e-01) (202, 1.89329075751241249215e-01) (203, 1.70231097284015198134e-01) (204, 2.82799017521794981977e-01) (205, 2.11706978175099869155e-01) (206, 1.67873122635539551162e-01) (207, 2.52294030878003838758e-01) (208, 3.14512041303571410200e-01) (209, 2.12673236522134323501e-01) (210, 2.07791258487161178969e-01) (211, 1.56366036179717560195e-01) (212, 2.52684053871091607313e-01) (213, 2.69887797045167632248e-01) (214, 1.66574552370915895949e-01) (215, 1.12602149247537183796e-01) (216, 2.45080214831288833999e-01) (217, 2.71799248549398131392e-01) (218, 1.38774474057611008071e-01) (219, 1.91680696293609620362e-01) (220, 1.46635833906748919153e-01) (221, 2.42016761778002909011e-01) (222, 2.70863559934552855513e-01) (223, 2.12602701875623245620e-01) (224, 2.22252842876370926284e-01) (225, 2.12218110355790634536e-01) (226, 1.58477951678689499282e-01) (227, 1.47604037913735886001e-01) (228, 1.89693038258012314223e-01) (229, 1.79598850104268570327e-01) (230, 1.26616042944844742202e-01) (231, 2.44488042685445328139e-01) (232, 1.19218346568997934920e-01) (233, 3.11420646402295775435e-01) (234, 2.55527106019910521528e-01) (235, 2.52741810771878960828e-01) (236, 2.40234468969758530044e-01) (237, 2.29299996885713119887e-01) (238, 2.53008294043477743873e-01) (239, 2.24461300614089614980e-01) (240, 2.47307544889659530751e-01) (241, 2.23590872464781931228e-01) (242, 1.84150791941291025466e-01) (243, 1.17459540161546305281e-01) (244, 1.48734776618690139882e-01) (245, 3.11549282016963691166e-01) (246, 1.34887999239177353017e-01) (247, 1.85281798397029240366e-01) (248, 2.94184866485532603431e-01) (249, 2.81513062211927123091e-01) (250, 1.98582504782136459731e-01) (251, 1.84890967699941177749e-01) (252, 2.71200504991468138716e-01) (253, 2.75685232970174498579e-01) (254, 2.50375357362683903517e-01) (255, 2.67305222246106810591e-01) (256, 2.07436439487393875503e-01) (257, 1.92923103365357895278e-01) (258, 2.67628184961732573655e-01) (259, 1.93445493373330612563e-01) (260, 2.47094792220052261733e-01) (261, 1.31087354826387003648e-01) (262, 1.52092173206265973695e-01) (263, 1.79671530517991562270e-01) (264, 1.48191754612382431411e-01) (265, 2.67535251471456236860e-01) (266, 2.73691025468763060591e-01) (267, 1.33801867160256882094e-01) (268, 2.16671687457021255874e-01) (269, 2.09756147953923721694e-01) (270, 1.80338454338964004897e-01) (271, 1.57086503598149795913e-01) (272, 1.61562741640265961074e-01) (273, 1.94017461943086194642e-01) (274, 2.18142096790727157973e-01) (275, 1.23024445864614084822e-01) (276, 2.80578506085332579634e-01) (277, 2.91502383443769275129e-01) (278, 2.89126437994893847883e-01) (279, 1.56816315743382950210e-01) (280, 2.20512335094865341567e-01) (281, 1.59514770749267120742e-01) (282, 1.73434683027919311904e-01) (283, 1.25419241282399757109e-01) (284, 1.30294289871948271164e-01) (285, 2.29673600792186766162e-01) (286, 2.58153701063031149054e-01) (287, 2.84319859936662422406e-01) (288, 2.71543276503511066267e-01) (289, 1.35083242761548566468e-01) (290, 3.10924387978967375901e-01) (291, 2.72885940479692168381e-01) (292, 1.60842526214774655946e-01) (293, 2.45847148321088337930e-01) (294, 2.63731129855724388822e-01) (295, 3.01014967416251555399e-01) (296, 1.94467110253762454075e-01) (297, 2.22728482233707059113e-01) (298, 1.93658505998071217569e-01) (299, 1.75427072587665100478e-01) (300, 2.11504329833444137954e-01) (301, 1.63349469102198885384e-01) (302, 2.92747514466113578635e-01) (303, 1.50423821493881226807e-01) (304, 1.46364767536418916016e-01) (305, 1.25790118681844365067e-01) (306, 1.22698988204067063745e-01) (307, 2.39820298749751387168e-01) (308, 2.35987156143958404231e-01) (309, 2.71702199688727830118e-01) (310, 1.33582382499473600879e-01) (311, 2.50166144654052846619e-01) (312, 3.15887770652073074373e-01) (313, 2.57185733913677383455e-01) (314, 2.51319226715024823804e-01) (315, 1.30962815973218488219e-01) (316, 3.00805670115407652876e-01) (317, 2.49625262710507889174e-01) (318, 2.60500398370679564497e-01) (319, 2.38764640781339188003e-01) (320, 1.26030673179086227798e-01) (321, 2.06214387807305832290e-01) (322, 2.53875461313184447310e-01) (323, 2.93622773978170215070e-01) (324, 1.26680438312943954848e-01) (325, 1.26802910956796188735e-01) (326, 1.85170893463548202895e-01) (327, 1.75911256018336792373e-01) (328, 1.49190907272752304458e-01) (329, 2.60517335938867278244e-01) (330, 2.81962043642299819979e-01) (331, 2.67441627576776141950e-01) (332, 1.98863788949903058656e-01) (333, 2.70631975936349578049e-01) (334, 2.78411901997979827073e-01) (335, 2.35754504310544538148e-01) (336, 2.92543065640386401594e-01) (337, 1.79945696982797165298e-01) (338, 1.56027701589520950698e-01) (339, 1.66299291792567749404e-01) (340, 2.01537801920669584765e-01) (341, 1.77125754802721052661e-01) (342, 2.83965474962490249666e-01) (343, 1.38971399947898865967e-01) (344, 2.65082743856366820356e-01) (345, 2.54670437857406783966e-01) (346, 2.19393942937152863770e-01) (347, 1.27190147027271271973e-01) (348, 2.57580471131261534712e-01) (349, 1.63827158021386670717e-01) (350, 2.10161489441819698820e-01) (351, 2.92150449540882317656e-01) (352, 2.45471730342681243586e-01) (353, 2.77986831068294693026e-01) (354, 2.55735930487411666778e-01) (355, 1.27075363382595063477e-01) (356, 1.28758705663140848863e-01) (357, 2.14810683428543119922e-01) (358, 2.54446930288570571932e-01) (359, 2.18636071072515036917e-01) (360, 2.47409936878140945815e-01) (361, 2.21159149562945633871e-01) (362, 2.26027609620385649958e-01) (363, 1.59860902191758719182e-01) (364, 1.51764504645958947515e-01) (365, 1.57665615081201054837e-01) (366, 2.22141851782212712552e-01) (367, 2.78669041487630553267e-01) (368, 1.99246701690610428237e-01) (369, 1.47173973855908912789e-01) (370, 2.68712180790837973365e-01) (371, 1.61976379248555679702e-01) (372, 1.45702836009915848159e-01) (373, 2.36288112494405289077e-01) (374, 3.02928951475080199263e-01) (375, 1.35543090197499771499e-01) (376, 2.81402599903997130415e-01) (377, 1.42072235140260239028e-01) (378, 2.16782395634110947036e-01) (379, 2.70390924903806395552e-01) (380, 2.68861380311902709028e-01) (381, 1.62200893717464017518e-01) (382, 2.77006116601880736372e-01) (383, 2.50526037904676035506e-01) (384, 1.99932393524106521987e-01) (385, 2.72447583171781249067e-01) (386, 2.35275004896577377700e-01) (387, 2.75588852259572691938e-01) (388, 2.30453093442376633071e-01) (389, 2.34217091905530500062e-01) (390, 2.53574676322396941330e-01) (391, 1.96127247902806778335e-01) (392, 1.19333793315347269637e-01) (393, 2.51765427085813342511e-01) (394, 2.30114702972825546645e-01) (395, 1.41526515187238771665e-01) (396, 2.08607668472333057652e-01) (397, 2.06934387279553516636e-01) (398, 2.84153717053933385639e-01) (399, 1.09428273929162170330e-01) (400, 2.98908995879693162312e-01) (401, 3.01543625486893784871e-01) (402, 1.81516135526700123082e-01) (403, 2.79764987974340517685e-01) (404, 1.31278487422943374030e-01) (405, -2.38108568660413022489e-01) (406, -2.07959112291213721324e-01) (407, -1.40992514968823479116e-01) (408, -1.30279671069232216851e-01) (409, -2.84704618375239026928e-01) (410, 5.06563860196276166681e-02) (0, 1.12369667403039746878e-01) (1, 2.42620112869693427271e-01) (2, 2.52525567458684374600e-01) (3, 2.63082151972699074260e-01) (4, 2.92372162940986612956e-01) (5, 1.33445108399534134724e-01) (6, 2.52974677464609498667e-01) (7, 1.45202860680336054422e-01) (8, 2.66692012766842234672e-01) (9, 2.39632476612856304410e-01) (10, 1.21049547340322929956e-01) (11, 1.51465804944487514305e+00) (12, 1.44120580360124789232e-01) (13, 1.00697008665253107118e-01) (14, 2.39808905242221315213e-01) (15, 2.53516201421549125516e-01) (16, 2.83721250534446189917e-01) (17, 6.25073482468452151783e-02) (18, 2.63064718603696512389e-01) (19, 1.77734315584619106954e-01) (20, 2.81947233342414782520e-01) (21, 1.40564536546769036640e-01) (22, 1.88446401765801324624e-01) (23, 7.14797763649646866746e-01) (24, 1.43122319933199543263e-01) (25, 2.19592860913592369254e-01) (26, 1.37030383442940606464e-01) (27, 2.18371419107022068928e-01) (28, 8.96778016301523622777e-02) (29, -7.64899374740072579559e-02) (30, 2.75183748326085331204e-01) (31, 1.99454776222524277074e-01) (32, 1.45159671237192006155e-01) (33, 2.77344603887441365497e-01) (34, 2.06137580568442141393e-01) (35, 6.19947353822041913318e-01) (36, 2.68060540474222175344e-01) (37, 1.87123958215595770360e-01) (38, 2.35837361435524917042e-01) (39, 2.29564539526830535543e-01) (40, 1.10195343679766105671e-01) (41, 2.83476881253022339191e-01) (42, 2.39928973979206955347e-01) (43, 2.24598211322539653700e-01) (44, 2.49126224828117165400e-01) (45, 1.58356498397288186775e-01) (46, 1.11165747323172484085e-01) (47, 9.95566754778375972990e-01) (48, 1.84704851799035479898e-01) (49, 3.23586341628960216799e-01) (50, 2.75525916285112748572e-01) (51, 2.54574665923547549529e-01) (52, 1.61967115036140890671e-01) (53, 6.59094429390654351630e-02) (54, 1.66978727369142515569e-01) (55, 3.12966408020586117633e-01) (56, 2.47039722091287772265e-01) (57, 3.03520014856089259681e-01) (58, 1.85411884207207611208e-01) (59, 1.45569367117607845197e-01) (60, 2.98542354751627603271e-01) (61, 2.94385016148968114980e-01) (62, 2.16902713494187604493e-01) (63, 1.17649916103366850018e-01) (64, 2.94934813847603116699e-01) (65, 2.76950012164002612458e-01) (66, 1.33748114292877612330e-01) (67, 1.65067352538364825465e-01) (68, 1.49301934258824597901e-01) (69, 1.52562808429258761622e-01) (70, 1.81407016685070338058e-01) (71, 2.13602803831356463649e-01) (72, 2.89073062022385363079e-01) (73, 2.53195691067583550371e-01) (74, 2.21890718519539981157e-01) (75, 2.43918695767887522274e-01) (76, 2.08155658920464309292e-01) (77, 2.69144845206895688694e-01) (78, 1.55404698287504611232e-01) (79, 1.45056144317449869918e-01) (80, 2.71474931587768142371e-01) (81, 2.83970006584973455599e-01) (82, 2.10563772638805823956e-01) (83, 2.03781266679825129318e-01) (84, 2.59496490673905455537e-01) (85, 1.90214072337211909103e-01) (86, 2.36624467798634191551e-01) (87, 2.84380135518649657111e-01) (88, 1.88841785916252669075e-01) (89, 2.09294115495418625583e-01) (90, 1.11005737068351595376e-01) (91, 2.66411041670755466271e-01) (92, 1.98173988416508989330e-01) (93, 1.69314389615012134138e-01) (94, 2.94017895534783413325e-01) (95, 2.13785538950443526618e-01) (96, 2.58688189463176343441e-01) (97, 2.75866502245434408458e-01) (98, 1.56181221177347617779e-01) (99, 2.06932113349290042192e-01) (100, 2.36389635275024906358e-01) (101, 2.87299465101041651138e-01) (102, 1.63043370734162251789e-01) (103, 2.47556137966411404783e-01) (104, 1.96807166128111804548e-01) (105, 1.71025583592434776703e-01) (106, 2.91206164357443841872e-01) (107, 1.62883645625812645275e-01) (108, 2.67118787162908932764e-01) (109, 2.91280007351052250275e-01) (110, 2.69564249375496334249e-01) (111, 3.10975284437075449873e-01) (112, 2.35468678742383946689e-01) (113, 1.51641589729347547877e-01) (114, 1.94079505690234216386e-01) (115, 2.85448606933388082663e-01) (116, 2.36767191872587351442e-02) (117, -1.81983428128094670839e+00) (118, -2.70525873800188776386e-01) (119, -3.25533626005078569055e-01) (120, 1.74411799241573517438e-01) (121, 2.46741460077823632213e-01) (122, 1.23321954998429850203e-01) (123, 2.80817654821332640669e-01) (124, 3.10811010095533080122e-01) (125, 2.09297691378053207778e-01) (126, 2.74961736890729613325e-01) (127, 2.90532913896497546613e-01) (128, 1.95406717154439468764e-01) (129, 2.07671105959148033504e-01) (130, 1.47411041059226616268e-01) (131, 1.58133313897307892226e-01) (132, 1.53610445656509025936e-01) (133, 1.49908557631702049617e-01) (134, 1.34005506429132004165e-01) (135, 2.39169572386201401137e-01) (136, 1.31739635857995557311e-01) (137, 1.56792436632569809341e-01) (138, 2.19187077972348709487e-01) (139, 2.84189298846454441172e-01) (140, 1.88657581903667076473e-01) (141, 1.87062002815932854061e-01) (142, 1.70148603715629204158e-01) (143, 3.08458638283666319868e-01) (144, 2.71150752999515243236e-01) (145, 2.49817431070537276927e-01) (146, 3.00634905793399520579e-01) (147, 1.89947053887576683406e-01) (148, 2.59291216828555770579e-01) (149, 1.28209215495046185973e-01) (150, 2.20945362839158554458e-01) (151, 2.37476249131616135024e-01) (152, 2.71994632574971861860e-01) (153, 2.22598490211423416518e-01) (154, 2.21520704123433609389e-01) (155, 3.07096344325002379438e-01) (156, 1.76925708445962448501e-01) (157, 1.99066256079133530044e-01) (158, 3.15214496943410582563e-01) (159, 2.18729351553376694106e-01) (160, 1.92899417969640274428e-01) (161, 2.69502348708566374924e-01) (162, 2.93229477983911190897e-01) (163, 1.56947108855081535195e-01) (164, 2.90689360782402317351e-01) (165, 1.90220148675502770397e-01) (166, 1.69654865655358810805e-01) (167, 1.97973851952012558364e-01) (168, 1.55161105933841247939e-01) (169, 2.01385398301538010024e-01) (170, 2.94835999122436132058e-01) (171, 1.43901123439090755651e-01) (172, 2.02792328688558121108e-01) (173, 1.39374789688046951674e-01) (174, 2.80738395544942564985e-01) (175, 1.79263282999294282227e-01) (176, 2.18702589668293506664e-01) (177, 1.78027591666274798143e-01) (178, 1.16129130222530047023e-01) (179, 2.01405331589908226375e-01) (180, 2.38545864917964561824e-01) (181, 2.61102971527036376020e-01) (182, 1.64590682931871040706e-01) (183, 2.96485540363248645246e-01) (184, 2.41115269157346268081e-01) (185, 2.32947890552934189223e-01) (186, 1.63889189156945724868e-01) (187, 2.94311505648549853742e-01) (188, 3.00459921457500167552e-01) (189, 2.48349070467441590537e-01) (190, 2.56010994233577870993e-01) (191, 2.29374873802436679560e-01) (192, 2.69888143405689284737e-01) (193, 1.76271367237342685419e-01) (194, 1.55032742647929266955e-01) (195, 2.12827637055132162791e-01) (196, 2.35764354564876182918e-01) (197, 3.10670316316814132396e-01) (198, 2.55091801383228011790e-01) (199, 1.47030003466338737850e-01) (200, 1.52493316777677162532e-01) (201, 1.74309395351142509822e-01) (202, 2.37175025143355949764e-01) (203, 2.21448955032285232924e-01) (204, 3.01282939407285399458e-01) (205, 2.70983827206548399946e-01) (206, 2.33712469133790512466e-01) (207, 2.14198973867352981948e-01) (208, 2.50800919625219109754e-01) (209, 2.19686333927567978286e-01) (210, 2.76955407950338072798e-01) (211, 1.98223476204331894301e-01) (212, 1.50650699529107590102e-01) (213, 1.95013095530923386001e-01) (214, 1.94098352896626996644e-01) (215, 1.77560527715142746352e-01) (216, 2.68519115540441222212e-01) (217, 2.09348869416173477553e-01) (218, 1.35197107586320419692e-01) (219, 2.66516667696889586470e-01) (220, 1.49219403972917330492e-01) (221, 1.36625976297980455954e-01) (222, 2.60013592335637755415e-01) (223, 2.57098567578252501509e-01) (224, 2.64304068777021117231e-01) (225, 1.65263138808936699276e-01) (226, 1.98453036043103714370e-01) (227, 2.08826911541875381850e-01) (228, 1.62586935702022095107e-01) (229, 2.07328286859448929214e-01) (230, 1.75205015483554382705e-01) (231, 2.79420328232701964399e-01) (232, 2.24273495473594292049e-01) (233, 1.83812432088584526424e-01) (234, 1.54699456044168098812e-01) (235, 2.54596021863874144575e-01) (236, 2.04105873498376388930e-01) (237, 2.16056679281648178481e-01) (238, 2.71517440774173446361e-01) (239, 2.11850598372905735145e-01) (240, 2.26990826525420769100e-01) (241, 2.53824830152721114818e-01) (242, 2.52717726860171520986e-01) (243, 2.14064632448609848403e-01) (244, 1.91259861089915855770e-01) (245, 1.22861608781307321547e-01) (246, 1.89126581051082237606e-01) (247, 2.69286834631091320791e-01) (248, 2.89306581117839634043e-01) (249, 1.96598281058724899673e-01) (250, 2.36013096663411636733e-01) (251, 2.80753520223554320356e-01) (252, 2.33243618997987289809e-01) (253, 1.34167429897244949721e-01) (254, 1.60659567359145660781e-01) (255, 2.14039144012387771987e-01) (256, 1.64537412020619888686e-01) (257, 1.88971263262685318374e-01) (258, 2.47063234545917137508e-01) (259, 2.10980676212043388729e-01) (260, 1.73112352284844894790e-01) (261, 3.07987657281812376997e-01) (262, 1.57267973664458771133e-01) (263, 2.11514499875958938979e-01) (264, 1.32832434865888138198e-01) (265, 1.23412151727136210067e-01) (266, 1.96735282334741135024e-01) (267, 1.38532494100984115981e-01) (268, 1.24332805070336893660e-01) (269, 2.70154458376821227095e-01) (270, 2.94709336850103198469e-01) (271, 1.88459676596578140639e-01) (272, 2.50448700878079966170e-01) (273, 3.00036636087354369185e-01) (274, 1.24446866008695200545e-01) (275, 1.87222045752461929702e-01) (276, 2.49607440921720047378e-01) (277, 1.61010284814294357680e-01) (278, 3.08533337804731078169e-01) (279, 1.28287297579701947692e-01) (280, 1.33346100243981857680e-01) (281, 1.56554859969075699233e-01) (282, 2.26231393310483475112e-01) (283, 2.79760685655530638716e-01) (284, 1.46455456408914108657e-01) (285, 2.85468024107869922101e-01) (286, 2.70100868749078459885e-01) (287, 1.48946054952114159686e-01) (288, 2.53549001826654130110e-01) (289, 2.94870123364658176524e-01) (290, 3.02872863504346556685e-01) (291, 1.92867872211392898940e-01) (292, 1.38973650428708572768e-01) (293, 1.38573295650418759628e-01) (294, 2.39150008721995460670e-01) (295, 1.99093389484210042673e-01) (296, 1.30978688629074385696e-01) (297, 2.99109972394059786538e-01) (298, 1.71981933740314008041e-01) (299, 1.49457995685990829848e-01) (300, 1.49186377319749374770e-01) (301, 1.84116844925340195083e-01) (302, 2.61353273113983319842e-01) (303, 2.63912040909546063983e-01) (304, 2.68141013476308531782e-01) (305, 2.52591885986537645348e-01) (306, 2.05862385185218405015e-01) (307, 1.92953911617227108488e-01) (308, 2.83582118246015368879e-01) (309, 1.73413903358634491347e-01) (310, 1.76184733304437179946e-01) (311, 1.45498608145173569106e-01) (312, 2.03819428476747055434e-01) (313, 2.01803368422444839858e-01) (314, 1.17908631357606485945e-01) (315, 2.99033951851781554243e-01) (316, 2.72282821032460875532e-01) (317, 2.66136509272512145063e-01) (318, 1.64927569124158401870e-01) (319, 1.46385540160592575454e-01) (320, 3.10399738046582884810e-01) (321, 2.96905917021688281476e-01) (322, 3.06485948059018797895e-01) (323, 1.17953394445832804305e-01) (324, 2.51459521147664899487e-01) (325, 2.88927343580182849347e-01) (326, 2.10691270324643631362e-01) (327, 2.96880674454625903547e-01) (328, 2.82036897632535643599e-01) (329, 2.02781473192628403091e-01) (330, 1.57199859129842328676e-01) (331, 2.24892720090802716859e-01) (332, 1.37148852162093770612e-01) (333, 2.37834304668635948543e-01) (334, 3.01956814619954772017e-01) (335, 1.96818609628137131118e-01) (336, 1.39062841329034347915e-01) (337, 2.37828587088044662856e-01) (338, 1.93682324978765030288e-01) (339, 2.27547054085191269301e-01) (340, 1.92148034367021103286e-01) (341, 2.40633946749623794936e-01) (342, 1.43517141136582870864e-01) (343, 3.01303398701604552290e-01) (344, 2.14905788096841354751e-01) (345, 1.30274635645803021911e-01) (346, 1.34477508160527725600e-01) (347, 1.72198158595021744155e-01) (348, 1.43167179915364761733e-01) (349, 2.17737011708945854549e-01) (350, 1.25665642519694947810e-01) (351, 1.82068764674123334535e-01) (352, 1.96654115304248811036e-01) (353, 1.39100506006973295703e-01) (354, 1.93236675545471192628e-01) (355, 3.01573258730825133345e-01) (356, 1.50518436822350998305e-01) (357, 1.72405057087438584595e-01) (358, 1.84989992961185456544e-01) (359, 3.00074633642929244903e-01) (360, 1.27157752308305310729e-01) (361, 1.46054887843534347835e-01) (362, 2.72316110042043313388e-01) (363, 1.76597343661544448068e-01) (364, 1.65245555249236786288e-01) (365, 1.35543699765162672932e-01) (366, 1.95176603540684973082e-01) (367, 2.62208864190311141673e-01) (368, 1.65164795610364456557e-01) (369, 1.33407262060102005385e-01) (370, 1.84579764398988266372e-01) (371, 2.40855154487546463393e-01) (372, 2.61252296063359923384e-01) (373, 2.75884118768628783247e-01) (374, 1.93171058687623520278e-01) (375, 2.34761808905061264419e-01) (376, 2.50410255882199839217e-01) (377, 2.53810194227155394575e-01) (378, 1.96664770039971847915e-01) (379, 1.53526266011651535415e-01) (380, 1.24754470679219797713e-01) (381, 1.57110267224963684463e-01) (382, 1.60934538486655731582e-01) (383, 2.35508625301774521255e-01) (384, 2.02128392550405044936e-01) (385, 1.80606369766648788833e-01) (386, 2.59936404320653624556e-01) (387, 1.59821511152442474746e-01) (388, 1.28847253415044354918e-01) (389, 1.44453388544972916030e-01) (390, 2.36805771383698959731e-01) (391, 2.03301732334550400161e-01) (392, 3.00946918222364134810e-01) (393, 2.23469500336106796645e-01) (394, 2.60558140370305724165e-01) (395, 2.06162858173621982294e-01) (396, 1.39222442367288840037e-01) (397, 1.45493517824623358470e-01) (398, 1.43471299865457785350e-01) (399, 1.56065005072567236644e-01) (400, 2.18704344504091541257e-01) (401, 1.55961865358564655271e-01) (402, 2.43170724981043112622e-01) (403, 1.62479778551075260129e-01) (404, 1.92357003909479490344e-01) (405, 1.47518107509704121671e-01) (406, 2.77584507318571149792e-01) (407, 3.38559540095055289122e-01) (408, 2.60771416843525505325e-01) (409, -1.40435361067052288941e-01) (410, 1.29640743436257449561e-01) (0, 2.02398523425393189745e-01) (1, 1.26161281542303282954e+00) (2, 7.97892524902278910126e-02) (3, 1.26917147414209563472e+00) (4, 1.58277013908688424237e-01) (5, 4.10351158422139927762e-01) (6, 2.34741703439230647854e-01) (7, 1.85288117007632313626e-01) (8, 2.07723601525131085221e-01) (9, 9.55333869278448266638e-02) (10, 4.82913570582038931267e-02) (11, -1.72424596761483273077e+00) (12, 1.31276181400892172357e-01) (13, 3.58370949160096763375e-01) (14, 1.57935624391184664672e-01) (15, 1.87242121249756199308e-01) (16, 1.08781985536993308639e-01) (17, 9.55693185717255366818e-01) (18, 1.37410658448430061940e-01) (19, 3.47345002708388028712e-01) (20, 1.93471658229876830593e-01) (21, 3.29478579151580130979e-01) (22, 9.82847830517104559256e-02) (23, -8.02455247095935741974e-01) (24, 6.88537337310960312342e-02) (25, 1.12692565182246240418e-01) (26, 1.91382276425460462477e-01) (27, 1.93096292997949753323e-01) (28, 1.16663695717904858373e-01) (29, 2.17946671948684084219e-01) (30, 4.52945873200798140856e-02) (31, 1.41453941466607030497e-01) (32, 1.30979789407593943951e-01) (33, 5.20973966159461787662e-01) (34, 9.76629607344006028802e-02) (35, -2.15737476514029058450e+00) (36, 6.70546244008795172542e-02) (37, 2.49394725582724824386e-01) (38, 9.69211434119031517431e-02) (39, 2.05412318749518540972e-01) (40, 1.10048410642780217228e-01) (41, 1.03592103741643981607e+00) (42, 4.94809509221605589580e-02) (43, 6.77301542205239859307e-01) (44, 1.86861718397521359147e-01) (45, 2.18801392014068035730e-01) (46, 9.72967036169666149581e-02) (47, -1.30711711931786744856e+00) (48, 3.94676113256658522843e-01) (49, 3.26047934411217155137e-01) (50, 1.07281948672056515193e+00) (51, 5.69686485585679913690e-01) (52, -4.56716201503657576177e-02) (53, 6.60597124547494751745e-01) (54, 2.62474636241558867411e-01) (55, 5.24553655168895516248e-01) (56, 6.77515206337703568273e-01) (57, 2.71920183266152803991e-01) (58, 3.41967753948187902502e-01) (59, 6.82207764975576509414e+01) (60, 3.92269993554431539717e-01) (61, 3.47952786676989866965e-01) (62, 4.72664194535094728256e-01) (63, 5.33074859373675602470e-01) (64, 4.24557912938700987571e-01) (65, 3.80285288982497526877e-01) (66, 4.90298811190234384849e-01) (67, 4.87486023299800119712e-01) (68, 4.12961494021521879905e-01) (69, 4.79164454929934702232e-01) (70, 3.52413486533271147483e-01) (71, 4.48870997719870878928e-01) (72, 4.10284180038081480735e-01) (73, 4.81632847182856760337e-01) (74, 4.38545923524009062522e-01) (75, 4.70730303671943794974e-01) (76, 5.34013319604502934013e-01) (77, 3.97224582575665785544e-01) (78, 3.89022011153804136985e-01) (79, 5.28404060595141666923e-01) (80, 5.22494468681918511344e-01) (81, 3.99825040094958616965e-01) (82, 4.88826542046653877982e-01) (83, 4.77723482840167246177e-01) (84, 5.13672135912625615894e-01) (85, 4.83076544832068910384e-01) (86, 5.20179884086421906453e-01) (87, 4.15559306397222549823e-01) (88, 3.27252837132463170189e-01) (89, 3.84063064076938631697e-01) (90, 3.60411111102550529850e-01) (91, 4.57609798757627861399e-01) (92, 4.02744930235937603769e-01) (93, 4.93036704372415146569e-01) (94, 3.13859464835176182884e-01) (95, 4.87185482867304953114e-01) (96, 4.11186101268607717696e-01) (97, 5.21958159436682223031e-01) (98, 5.02635955662499633867e-01) (99, 4.64151280234670504665e-01) (100, 4.34888047166411662037e-01) (101, 2.58527238258223657219e-01) (102, 2.11257663311152477092e-01) (103, 2.05640886665968913860e-01) (104, 2.04483595432429332561e-01) (105, 1.53856952430396098919e-01) (106, 2.72884812805037679784e-01) (107, 1.94410737940173133920e-01) (108, 2.11013891964436844928e-01) (109, 3.37871582477571041903e-01) (110, -6.56706500846818697070e-01) (111, -1.06577305717578307842e+00) (112, -4.30454065087094786546e-02) (113, 2.08211779159702068398e+01) (114, 5.25807558724389245697e+00) (115, 8.58562000477827957923e+00) (116, 5.03149148025430426046e-01) (117, 4.12413335862947683097e+00) (118, -9.05024558859155092705e+00) (119, 1.35099892216446471060e+00) (120, 4.03725492894416859713e+01) (121, -1.11914191338050167390e-01) (122, 4.75826134456197535894e-01) (123, 3.58654569475631790354e-01) (124, 4.71860844020347558470e-01) (125, 4.55594840769271813841e-01) (126, 4.69478182846563785180e-01) (127, 3.48443348312634071373e-01) (128, 3.19436195616226270566e-01) (129, 4.54562354211311303587e-01) (130, 3.16503204757231315636e-01) (131, 4.97986980134504764184e-01) (132, 4.99068009976844750852e-01) (133, 3.26265800122718885312e-01) (134, 4.39753520612220838437e-01) (135, 4.27939991776447370420e-01) (136, 4.77807361011009179563e-01) (137, 3.95199619585531791710e-01) (138, 3.48653514290112098717e-01) (139, 4.51756823186378442259e-01) (140, 3.67404184613924100766e-01) (141, 4.52539730195503198118e-01) (142, 3.22198741489904960655e-01) (143, 4.22919832521933158898e-01) (144, 4.45794540767173730345e-01) (145, 3.59248384211759641538e-01) (146, 3.79383146131907822429e-01) (147, 4.64572745685081445188e-01) (148, 3.64602766309480741391e-01) (149, 3.69058440749149396787e-01) (150, 4.55577212695579492063e-01) (151, 3.76664086554746702085e-01) (152, 4.83702334885101281614e-01) (153, 4.75480246667365991087e-01) (154, 4.86898291234474145384e-01) (155, 3.89976549272041395078e-01) (156, 4.26280538861255720029e-01) (157, 3.87485507254104688535e-01) (158, 3.59316977982025220761e-01) (159, 3.30873455230693891416e-01) (160, 4.80609837297897302122e-01) (161, 4.95874941963690252233e-01) (162, 4.68455151253862001060e-01) (163, 4.82007087659800326218e-01) (164, 4.86249806237665171960e-01) (165, 2.99314357691958965457e-01) (166, 4.21634760185755352868e-01) (167, 4.24816989023226343480e-01) (168, 4.01922263556974967980e-01) (169, 3.34028830042166435810e-01) (170, 3.19001273484874336983e-01) (171, 5.03169079384459760895e-01) (172, 3.30668799931067070030e-01) (173, 3.79146732741850456261e-01) (174, 3.51201321308116987119e-01) (175, 3.27544123286264976525e-01) (176, 5.44536926549502142691e-01) (177, 4.80717616177569639913e-01) (178, 4.51554076767932188741e-01) (179, 4.99972032404910282644e-01) (180, 4.59704986048011798871e-01) (181, 5.03456104099922030493e-01) (182, 3.70934783790807798276e-01) (183, 3.91279424850444867978e-01) (184, 3.23735441390972211728e-01) (185, 5.12003350381355137877e-01) (186, 3.30644782011013105283e-01) (187, 4.37263029937248304257e-01) (188, 3.71616268552314166218e-01) (189, 3.85322639740477923542e-01) (190, 3.48315829432975176960e-01) (191, 3.79957795862025216049e-01) (192, 4.03206320501338366658e-01) (193, 3.15359383835714934818e-01) (194, 4.53311534620295775166e-01) (195, 4.64444451759406073954e-01) (196, 3.31746736563216571003e-01) (197, 4.98093487716685545674e-01) (198, 4.88014997936259520284e-01) (199, 4.98768301702510130635e-01) (200, 4.29640272654067401081e-01) (201, 3.94760029412280444294e-01) (202, 3.62567944473992709309e-01) (203, 5.10147603250514114492e-01) (204, 4.80080056313972436399e-01) (205, 3.95867753152351453672e-01) (206, 4.39708206181030347715e-01) (207, 4.66186943773727380247e-01) (208, 4.94426924113731347532e-01) (209, 3.23681230966548993955e-01) (210, 4.00932575885753705869e-01) (211, 3.64111922059755399594e-01) (212, 3.19464172546367719541e-01) (213, 3.21312815302866539025e-01) (214, 3.29965204845898252284e-01) (215, 4.16865505630034050011e-01) (216, 4.90723985557060204954e-01) (217, 4.88442975406150781126e-01) (218, 3.51459960762958600888e-01) (219, 4.77891075734596215696e-01) (220, 4.54145832826372664037e-01) (221, 4.64107753730784666768e-01) (222, 4.88239589457015954466e-01) (223, 3.33743232786827215275e-01) (224, 4.06921300415496900449e-01) (225, 4.16727225605945661435e-01) (226, 4.24973029021720960507e-01) (227, 4.12105012063484266172e-01) (228, 3.39350159589748456845e-01) (229, 3.48473619048099592099e-01) (230, 4.86586737756233178587e-01) (231, 3.53553234909277036557e-01) (232, 4.60071730911903398198e-01) (233, 4.09901055817108228574e-01) (234, 4.97490379337768517942e-01) (235, 4.11162252847652509580e-01) (236, 4.94392874960403405638e-01) (237, 3.51495380823116376767e-01) (238, 4.73711836636238114995e-01) (239, 4.60533054567347777120e-01) (240, 4.09846069313060168415e-01) (241, 5.18687416586941396623e-01) (242, 4.31996146238814715534e-01) (243, 3.84974070245283683800e-01) (244, 4.92800565458308470479e-01) (245, 3.29739073313247088581e-01) (246, 3.60480156514710381455e-01) (247, 4.42532615757953051716e-01) (248, 4.72385287299078471257e-01) (249, 3.86126662914257123838e-01) (250, 3.21238930646877363095e-01) (251, 3.53134728346567228208e-01) (252, 4.25786572818260267148e-01) (253, 4.85257345561485253782e-01) (254, 4.10579133157234266172e-01) (255, 4.93878322963218652220e-01) (256, 5.03365177039604039244e-01) (257, 3.48881016795139387021e-01) (258, 3.30126680785673698448e-01) (259, 4.67734597975271670922e-01) (260, 4.44012411290663211449e-01) (261, 3.45076606029528221153e-01) (262, 3.30573678631323419896e-01) (263, 4.54539604836958377465e-01) (264, 4.75599833184736697778e-01) (265, 4.34528627116221033422e-01) (266, 4.24894206840532862035e-01) (267, 4.99101773519056768347e-01) (268, 5.05650476235883439280e-01) (269, 3.69690824914711557714e-01) (270, 4.95884791631239385534e-01) (271, 4.37864035982626520482e-01) (272, 4.83014003057020635534e-01) (273, 3.18526626247900568334e-01) (274, 3.79222445804613672582e-01) (275, 4.93762031812208623816e-01) (276, 3.60603731740254007665e-01) (277, 3.69213041532772623388e-01) (278, 4.65826437491911382605e-01) (279, 4.51234030847053491087e-01) (280, 3.76703523714083277074e-01) (281, 3.58269736785429560033e-01) (282, 3.41689378637808405248e-01) (283, 4.75650564450758428503e-01) (284, 3.65195027862291410337e-01) (285, 3.23210883264045789609e-01) (286, 5.24363437382348474003e-01) (287, 5.92053412157257707982e-01) (288, 5.02414498501552730936e-01) (289, 4.61357021201110051312e-01) (290, 4.94938473789672817027e-01) (291, 3.91374514121550165502e-01) (292, 3.33649457115667902318e-01) (293, 3.48656606543797098485e-01) (294, 3.75349096968096374027e-01) (295, 5.27211249600001541360e-01) (296, 4.89442699018274252065e-01) (297, 3.84625626981840662566e-01) (298, 4.27578047269838890099e-01) (299, 3.32930118197458824181e-01) (300, 3.85213636213797172569e-01) (301, 3.15281793489378570072e-01) (302, 3.44311341995256980919e-01) (303, 4.68838975448149175573e-01) (304, 4.79187049323576419457e-01) (305, 3.30412665403853778034e-01) (306, 4.75751697191583944324e-01) (307, 3.55005874870996551707e-01) (308, 3.47721028714160995676e-01) (309, 5.11838051800231785826e-01) (310, 3.48506067562836252538e-01) (311, 4.43697557467955083776e-01) (312, 3.26945476848620020238e-01) (313, 4.74799156803625554968e-01) (314, 4.51682285089033574987e-01) (315, 3.26287709791201196996e-01) (316, 4.19731699544924341527e-01) (317, 3.32880743462580286351e-01) (318, 4.28869009632605158178e-01) (319, 5.03734425324933732249e-01) (320, 3.66579320896404825536e-01) (321, 4.00853947419661127416e-01) (322, 4.54502195734518499304e-01) (323, 3.20549429077642999975e-01) (324, 3.76457088310259424535e-01) (325, 4.16577041763800226537e-01) (326, 3.12509820479887567846e-01) (327, 4.54839856047171087194e-01) (328, 3.95614132899778925267e-01) (329, 3.88933256883162103978e-01) (330, 5.07399800543289036803e-01) (331, 3.69311801843593412453e-01) (332, 3.70258777974824981882e-01) (333, 5.03222908465842944103e-01) (334, 4.31546691446285324290e-01) (335, 3.69232069342117386057e-01) (336, 4.43916947264212102819e-01) (337, 4.14196909088629328100e-01) (338, 5.09695068616407120921e-01) (339, 3.47217605132597528783e-01) (340, 3.88511039931315027562e-01) (341, 4.07274716217058740941e-01) (342, 3.68462034184473596898e-01) (343, 4.43586454410093755651e-01) (344, 4.59749088305967779089e-01) (345, 5.05522661263006045651e-01) (346, 3.47893759960192283653e-01) (347, 4.78573725242155523230e-01) (348, 4.91399281078833072289e-01) (349, 3.79859207229213791113e-01) (350, 4.41179306302361795566e-01) (351, 3.92318669347744064524e-01) (352, 4.59488562512240461544e-01) (353, 4.08292833190367188134e-01) (354, 4.43955577171038839879e-01) (355, 4.06128924223732312715e-01) (356, 4.58498433846968145300e-01) (357, 4.85420466084021062780e-01) (358, 3.63928825277823053685e-01) (359, 4.52866369001040436348e-01) (360, 3.86319511253374658910e-01) (361, 3.84609246692627859687e-01) (362, 3.50073531995364173319e-01) (363, 7.60653995760185441810e-01) (364, 9.83627233056583283322e-01) (365, 4.11866698499198102823e-01) (366, 4.91742085750575208536e-01) (367, 4.69011103809869323022e-01) (368, 3.81967316691379621396e-01) (369, 4.15056842689018323789e-01) (370, 3.50761245314579084287e-01) (371, 3.30597855765360437719e-01) (372, 4.60351989287870855261e-01) (373, 4.38109562415617548314e-01) (374, 4.09493797142046533910e-01) (375, 4.64553580302732915808e-01) (376, 4.54407856483000249792e-01) (377, 3.35229114312666498510e-01) (378, 4.97937903422850103308e-01) (379, 3.44665758926409326879e-01) (380, 4.99677226562040721625e-01) (381, 3.77355509120958887426e-01) (382, 3.16288650650518976537e-01) (383, 3.65610387790936075536e-01) (384, 3.15952972192305170385e-01) (385, 3.23839054126280390111e-01) (386, 4.65227574724691839148e-01) (387, 3.82044286150473200170e-01) (388, 3.20578314978617273656e-01) (389, 4.62440692240255801782e-01) (390, 4.68807548899191350866e-01) (391, 3.50556001681822382299e-01) (392, 4.96952817458647222448e-01) (393, 3.88369784373777948705e-01) (394, 4.33134653288858972875e-01) (395, 4.00263275329570844541e-01) (396, 3.31667708076256451122e-01) (397, 5.20536476589458452224e-01) (398, 4.27705224337161016290e-01) (399, 3.81703965099633169000e-01) (400, 4.59759828999453723508e-01) (401, 3.32778337512307453849e-01) (402, 2.91599000329164970147e-01) (403, 2.69208773583531846274e-01) (404, 3.28596108248095097881e-01) (405, 2.05576349648814188376e-01) (406, -1.22949352464706906929e+00) (407, -8.93832158568319812275e+00) (408, -8.43294741957239324393e+00) (409, -1.05087691387418438183e+01) (410, 2.12641626309851804189e-02) (0, 3.22067345813102312579e-01) (1, 2.51808811351303452053e-01) (2, 3.25646875974687055599e-01) (3, 1.26191830590458520245e-01) (4, 1.58636793275143822557e-01) (5, 7.32893554415739861829e-02) (6, 6.35552389158146185943e-02) (7, 1.08193918843533784524e-01) (8, 1.23659847451581192401e-01) (9, 5.30634192423497241808e-02) (10, 5.71424496902363104889e-02) (11, 4.97072507946797248479e-01) (12, 2.09574328115596592026e-01) (13, 1.08048759802825203313e-01) (14, 8.82643958140342799190e-02) (15, 6.26616742359006606566e-02) (16, 5.86393777575561631066e-02) (17, 5.26235930756435849043e-02) (18, -2.19708290855445209991e-03) (19, 1.57955441918442192339e-02) (20, -6.12102408742213992265e-03) (21, 3.78291202382718336206e-02) (22, 2.61437332764519136941e-01) (23, 1.42287771985308703071e-01) (24, 1.10547177182665906647e-01) (25, -5.33914793094047296362e-02) (26, 2.40565949413148079394e-02) (27, 1.07405725989040481960e-01) (28, 9.75624417781875835631e-02) (29, 9.58574313656436055586e-02) (30, 1.02948816329025121669e-02) (31, -6.58552916757057377195e-02) (32, 4.77650959030734637012e-02) (33, 2.90435435337006650491e-02) (34, 3.96631540817200881066e-02) (35, -3.12944379447048504073e-01) (36, 4.80968106524097063770e-02) (37, 4.28134520472885429787e-03) (38, -1.43637102466845356652e-01) (39, -8.66922108369886784685e-02) (40, -1.36125337702059590050e-01) (41, -4.71150033596874559527e-02) (42, -1.13409308386218654618e-01) (43, -1.21716146958243967569e-01) (44, -1.34709825408828420823e-01) (45, -1.19534084242952018395e-01) (46, -6.08381085518719319505e-02) (47, 4.86408299823401016337e-02) (48, -7.52885394219280773553e-02) (49, -2.59784736160160560636e-02) (50, -3.92406732094194091176e-02) (51, -8.46417732787038273878e-02) (52, 5.91206624853704079681e-02) (53, 7.43530615913961107077e-02) (54, -5.37747480646886960587e-02) (55, -8.78592394542600102492e-02) (56, -1.68756395828630299805e-02) (57, 6.54235518797120635393e-02) (58, 2.78449382722828421739e-04) (59, 1.59594836299618569875e-01) (60, -8.73303084846267785313e-02) (61, -5.27976018813919034667e-02) (62, -9.30395101634334531493e-02) (63, -2.38793388034026082822e-01) (64, 1.45288022729087706181e-02) (65, 6.18450256558586222710e-02) (66, -9.42755018798183408446e-02) (67, -1.20691073564361556897e-02) (68, 3.08277817937065087839e-02) (69, -1.36099136150590310085e-03) (70, 2.00346731864699213396e-03) (71, -5.14909488586257901854e-02) (72, -8.95374221686135174370e-02) (73, -1.21836931767828365869e-01) (74, -3.70433641103576627440e-02) (75, -6.89647896174202801323e-02) (76, 4.23546942444969140573e-02) (77, -1.64310063181412530087e-01) (78, -1.12209181247246533863e-01) (79, -5.28332469444397073710e-02) (80, -7.88670150475563880299e-02) (81, -1.71040598853117425948e-01) (82, -1.32503469093328996031e-01) (83, -3.90149472193779614515e-02) (84, -1.70603893325007222037e-01) (85, -1.10548853501951926948e-01) (86, -1.65537908301031849723e-01) (87, -1.73377361698633630782e-01) (88, -1.53898840145593497619e-02) (89, -6.76359713164069065172e-01) (90, -3.10406519786513512837e-01) (91, -2.58218887017167220144e-01) (92, -3.57137527517240649377e-01) (93, -1.83644611588876821573e-01) (94, -2.88150456003110955194e-01) (95, -3.17964434824150210535e-01) (96, -1.85053105221188701757e-01) (97, -3.02350329762863578864e-01) (98, -2.32617769590776513056e-01) (99, -1.80250603906076528604e-01) (100, -2.45135296336572744424e-01) (101, -3.62358715585630486444e-01) (102, -6.21524456258341739812e-01) (103, -6.20733025785014103093e-01) (104, -5.19173576797768765445e-01) (105, -6.09510525430962735172e-01) (106, -5.02561508979127102847e-01) (107, -6.10586746897027188297e-01) (108, -6.40091585203278468086e-01) (109, -7.93836466326780954006e-01) (110, -7.56357573677225003550e-01) (111, -1.00267375754005086397e-01) (112, 3.01490431759596534678e-02) (113, -9.59672231606054498831e-02) (114, 1.33154442828948255118e-01) (115, -9.78594242881995713887e-05) (116, 1.49453456924594357824e-01) (117, -2.64935610729276870001e-02) (118, 1.68140701528666433595e-02) (119, -2.48930454504396221627e-02) (120, -8.24341125251155382170e-02) (121, 1.85771111740412775415e-01) (122, 2.61576021924441792788e-01) (123, 9.35188630383513574973e-02) (124, 2.81870386431178933384e-02) (125, 4.29151973555049956466e-02) (126, -2.08742522766628274544e-02) (127, 6.98828569481334538338e-02) (128, 2.32647462528960333183e-02) (129, 1.00892925901170688041e-01) (130, 1.06423891017398703635e-02) (131, -3.00082170536556114282e-02) (132, -4.46929686834850112276e-02) (133, -5.13293796350993911104e-02) (134, 1.05242266187629569113e-02) (135, -1.71010465580208603775e-02) (136, 7.17578782480971233415e-02) (137, 1.23879979435803061483e-01) (138, 1.41069287700410717079e-01) (139, 5.36883502048270400131e-02) (140, 2.92312233489768202865e-02) (141, -2.16702939230187206776e-02) (142, 1.59411156543817156273e-01) (143, 5.13300551813857253158e-02) (144, -5.39865504408263991581e-03) (145, -3.30233694273216887849e-02) (146, 6.53117327731864011353e-02) (147, -1.66122884708626572525e-02) (148, 8.63119317930952922868e-02) (149, 2.15396488815517733739e-01) (150, -1.61861450630410019791e-02) (151, 4.98843512365779936935e-02) (152, 1.08512143675686512090e-01) (153, 5.27159972828643019760e-02) (154, 1.68582821994991638448e-01) (155, 6.83057147860244850968e-02) (156, 2.92596845668570693100e-02) (157, 5.78681698868236601974e-02) (158, 1.74140806108684847997e-01) (159, -2.56315733788771405420e-04) (160, -1.87946678358300034439e-02) (161, 7.08070683896704165111e-03) (162, 1.76268498212070773290e-01) (163, 8.34394297483617153333e-02) (164, 1.85444311009052675843e-01) (165, 2.53663873672146544802e-01) (166, 9.88415500517194345331e-02) (167, 5.84972497960100576431e-02) (168, 1.42245406551118724892e-01) (169, 2.20526552627048379185e-02) (170, 2.24081883200730885841e-01) (171, 5.53211662856003885680e-02) (172, 1.22055730650386714403e-02) (173, 4.24528441259822905685e-02) (174, 8.31431735848997370553e-03) (175, 1.67554805163025372083e-01) (176, 3.56672083363762590369e-02) (177, 3.45259628126583090202e-02) (178, -1.98940457063896923573e-02) (179, 1.29946406070591546911e-01) (180, 9.82249333304182625781e-02) (181, -4.45347995716316724657e-02) (182, -7.17583384692504610419e-03) (183, 8.48878278177992717790e-02) (184, -1.18428927242593255188e-03) (185, -1.52459413963539937298e-02) (186, 5.05666984957473114592e-02) (187, -3.63408969002945586579e-02) (188, 1.07641558234097156621e-01) (189, 2.07269965451972112969e-02) (190, 4.76958333295600250823e-02) (191, 1.13003189746739063359e-01) (192, 1.33678819124104120153e-01) (193, 2.91337623041884596908e-02) (194, 1.40289406363369562047e-01) (195, 1.11879553133313630608e-01) (196, 7.08474098485724346208e-02) (197, 2.15608804267661199883e-02) (198, 6.28276272457854445541e-02) (199, 3.31153153222815688217e-02) (200, 5.81211029332892731292e-02) (201, 1.30346710864903070348e-01) (202, 2.62696995180861578301e-02) (203, 3.95639899790449500738e-03) (204, 6.59780677258686165665e-02) (205, 1.90134162813396762060e-01) (206, 9.15071707980182421803e-05) (207, 1.08822489887447720891e-01) (208, 7.63988185524658303116e-02) (209, 5.00751017373816803557e-02) (210, 1.01350124065281543828e-01) (211, 8.05459125679747478532e-02) (212, 2.42382465642706976250e-02) (213, 6.25032654831371298210e-02) (214, 7.74787831989190156623e-02) (215, 9.70151517477890745766e-02) (216, 4.36302225887493649870e-02) (217, 1.08280922357441578008e-01) (218, -4.01934919849177632600e-02) (219, 1.53729180604191162374e-01) (220, 2.12145021049411769409e-01) (221, 1.28537439030984274035e-01) (222, -5.71304576968532165648e-02) (223, 1.14332857340546018010e-01) (224, 8.57311700081442307209e-03) (225, -8.22530101442718077076e-03) (226, 5.95769165796057875717e-02) (227, -1.67905997812585494090e-03) (228, 6.91537662190215007829e-02) (229, -4.24467676451244155245e-02) (230, 9.94104697150007821094e-02) (231, 8.07814850252882854509e-02) (232, -1.63561524111016098892e-02) (233, -8.74513846218421576906e-03) (234, 1.09602357332111988164e-01) (235, -2.39597604829056565201e-02) (236, -2.60953691184358238520e-03) (237, 3.06075765532271559799e-02) (238, 1.10702718679310474492e-01) (239, 6.97116656941191570329e-02) (240, 1.33083830658794977087e-01) (241, 2.89278282564894850815e-02) (242, 1.60883719831676819112e-01) (243, -1.21195660191757929175e-02) (244, -4.41883217871025160001e-03) (245, 2.18195794862525091484e-02) (246, 1.08234240454451648844e-02) (247, -1.60968017160730025340e-03) (248, 3.52248652619139984710e-02) (249, 1.13417740051151905156e-01) (250, 1.00938151661755237676e-01) (251, -4.35728923636658216356e-02) (252, -3.92700933983364044999e-02) (253, 8.97197826546446697282e-02) (254, 9.28816485822363431535e-03) (255, -4.74528681814506605313e-03) (256, 1.35066713277699090856e-01) (257, -4.46246684747917676805e-02) (258, 1.64029891401501037862e-01) (259, 1.48354390629853838401e-01) (260, 2.17002055475673562290e-02) (261, 1.87520033547840005161e-02) (262, 1.50078454979982012230e-01) (263, 7.97917004612347380288e-02) (264, 1.70188987621392839866e-01) (265, 8.07239708443651671210e-02) (266, 1.88395837315644826271e-01) (267, -1.66277002001191773380e-03) (268, -4.27879297306575576143e-02) (269, -3.33694272806682526444e-02) (270, 6.34858555028400411979e-02) (271, 1.10100696129556613334e-01) (272, -3.42193075587787567948e-02) (273, 6.11929092493912960005e-02) (274, 1.80356601246919240333e-01) (275, 8.28261173198184819100e-02) (276, -3.79685291221179901933e-02) (277, -3.36736195852794586991e-02) (278, -4.91086521317996779756e-02) (279, 1.34305486721750133583e-01) (280, -2.43959852626361890782e-02) (281, 8.00570494363269657967e-02) (282, 2.21791735718212014439e-02) (283, 6.88552430698833317635e-02) (284, -4.64177259376086989717e-02) (285, -3.92431670000591217851e-02) (286, 1.42278011028172113317e-01) (287, -6.41561852477235405878e-02) (288, 1.03342603743603073108e-01) (289, 8.84043670127353520272e-02) (290, 1.15514437002893405326e-01) (291, -4.53198828866519728975e-02) (292, 1.21815151402912043993e-02) (293, 1.19876729318227459586e-01) (294, 7.80675809681133370255e-02) (295, 1.14350453653631663892e-02) (296, 1.64937336142159135521e-01) (297, 1.18020543822374035514e-01) 