FANN_FLO_2.1
num_layers=3
learning_rate=0.700000
connection_rate=1.000000
network_type=0
learning_momentum=0.000000
training_algorithm=2
train_error_function=1
train_stop_function=0
cascade_output_change_fraction=0.010000
quickprop_decay=-0.000100
quickprop_mu=1.750000
rprop_increase_factor=1.200000
rprop_decrease_factor=0.500000
rprop_delta_min=0.000000
rprop_delta_max=50.000000
rprop_delta_zero=0.100000
cascade_output_stagnation_epochs=12
cascade_candidate_change_fraction=0.010000
cascade_candidate_stagnation_epochs=12
cascade_max_out_epochs=150
cascade_max_cand_epochs=150
cascade_num_candidate_groups=2
bit_fail_limit=3.49999999999999977796e-01
cascade_candidate_limit=1.00000000000000000000e+03
cascade_weight_multiplier=4.00000000000000022204e-01
cascade_activation_functions_count=10
cascade_activation_functions=3 5 7 8 10 11 14 15 16 17 
cascade_activation_steepnesses_count=4
cascade_activation_steepnesses=2.50000000000000000000e-01 5.00000000000000000000e-01 7.50000000000000000000e-01 1.00000000000000000000e+00 
layer_sizes=350 129 4 
scale_included=0
neurons (num_inputs, activation_function, activation_steepness)=(0, 0, 0.00000000000000000000e+00) (0, 0, 0.00000000000000000000e+00) (0, 0, 0.00000000000000000000e+00) (0, 0, 0.00000000000000000000e+00) (0, 0, 0.00000000000000000000e+00) (0, 0, 0.00000000000000000000e+00) (0, 0, 0.00000000000000000000e+00) (0, 0, 0.00000000000000000000e+00) (0, 0, 0.00000000000000000000e+00) (0, 0, 0.00000000000000000000e+00) (0, 0, 0.00000000000000000000e+00) (0, 0, 0.00000000000000000000e+00) (0, 0, 0.00000000000000000000e+00) (0, 0, 0.00000000000000000000e+00) (0, 0, 0.00000000000000000000e+00) (0, 0, 0.00000000000000000000e+00) (0, 0, 0.00000000000000000000e+00) (0, 0, 0.00000000000000000000e+00) (0, 0, 0.00000000000000000000e+00) (0, 0, 0.00000000000000000000e+00) (0, 0, 0.00000000000000000000e+00) (0, 0, 0.00000000000000000000e+00) (0, 0, 0.00000000000000000000e+00) (0, 0, 0.00000000000000000000e+00) (0, 0, 0.00000000000000000000e+00) (0, 0, 0.00000000000000000000e+00) (0, 0, 0.00000000000000000000e+00) (0, 0, 0.00000000000000000000e+00) (0, 0, 0.00000000000000000000e+00) (0, 0, 0.00000000000000000000e+00) (0, 0, 0.00000000000000000000e+00) (0, 0, 0.00000000000000000000e+00) (0, 0, 0.00000000000000000000e+00) (0, 0, 0.00000000000000000000e+00) (0, 0, 0.00000000000000000000e+00) (0, 0, 0.00000000000000000000e+00) (0, 0, 0.00000000000000000000e+00) (0, 0, 0.00000000000000000000e+00) (0, 0, 0.00000000000000000000e+00) (0, 0, 0.00000000000000000000e+00) (0, 0, 0.00000000000000000000e+00) (0, 0, 0.00000000000000000000e+00) (0, 0, 0.00000000000000000000e+00) (0, 0, 0.00000000000000000000e+00) (0, 0, 0.00000000000000000000e+00) (0, 0, 0.00000000000000000000e+00) (0, 0, 0.00000000000000000000e+00) (0, 0, 0.00000000000000000000e+00) (0, 0, 0.00000000000000000000e+00) (0, 0, 0.00000000000000000000e+00) (0, 0, 0.00000000000000000000e+00) (0, 0, 0.00000000000000000000e+00) (0, 0, 0.00000000000000000000e+00) (0, 0, 0.00000000000000000000e+00) (0, 0, 0.00000000000000000000e+00) (0, 0, 0.00000000000000000000e+00) (0, 0, 0.00000000000000000000e+00) (0, 0, 0.00000000000000000000e+00) (0, 0, 0.00000000000000000000e+00) (0, 0, 0.00000000000000000000e+00) (0, 0, 0.00000000000000000000e+00) (0, 0, 0.00000000000000000000e+00) (0, 0, 0.00000000000000000000e+00) (0, 0, 0.00000000000000000000e+00) (0, 0, 0.00000000000000000000e+00) (0, 0, 0.00000000000000000000e+00) (0, 0, 0.00000000000000000000e+00) (0, 0, 0.00000000000000000000e+00) (0, 0, 0.00000000000000000000e+00) (0, 0, 0.00000000000000000000e+00) (0, 0, 0.00000000000000000000e+00) (0, 0, 0.00000000000000000000e+00) (0, 0, 0.00000000000000000000e+00) (0, 0, 0.00000000000000000000e+00) (0, 0, 0.00000000000000000000e+00) (0, 0, 0.00000000000000000000e+00) (0, 0, 0.00000000000000000000e+00) (0, 0, 0.00000000000000000000e+00) (0, 0, 0.00000000000000000000e+00) (0, 0, 0.00000000000000000000e+00) (0, 0, 0.00000000000000000000e+00) (0, 0, 0.00000000000000000000e+00) (0, 0, 0.00000000000000000000e+00) (0, 0, 0.00000000000000000000e+00) (0, 0, 0.00000000000000000000e+00) (0, 0, 0.00000000000000000000e+00) (0, 0, 0.00000000000000000000e+00) (0, 0, 0.00000000000000000000e+00) (0, 0, 0.00000000000000000000e+00) (0, 0, 0.00000000000000000000e+00) (0, 0, 0.00000000000000000000e+00) (0, 0, 0.00000000000000000000e+00) (0, 0, 0.00000000000000000000e+00) (0, 0, 0.00000000000000000000e+00) (0, 0, 0.00000000000000000000e+00) (0, 0, 0.00000000000000000000e+00) (0, 0, 0.00000000000000000000e+00) (0, 0, 0.00000000000000000000e+00) (0, 0, 0.00000000000000000000e+00) (0, 0, 0.00000000000000000000e+00) (0, 0, 0.00000000000000000000e+00) (0, 0, 0.00000000000000000000e+00) (0, 0, 0.00000000000000000000e+00) (0, 0, 0.00000000000000000000e+00) (0, 0, 0.00000000000000000000e+00) (0, 0, 0.00000000000000000000e+00) (0, 0, 0.00000000000000000000e+00) (0, 0, 0.00000000000000000000e+00) (0, 0, 0.00000000000000000000e+00) (0, 0, 0.00000000000000000000e+00) (0, 0, 0.00000000000000000000e+00) (0, 0, 0.00000000000000000000e+00) (0, 0, 0.00000000000000000000e+00) (0, 0, 0.00000000000000000000e+00) (0, 0, 0.00000000000000000000e+00) (0, 0, 0.00000000000000000000e+00) (0, 0, 0.00000000000000000000e+00) (0, 0, 0.00000000000000000000e+00) (0, 0, 0.00000000000000000000e+00) (0, 0, 0.00000000000000000000e+00) (0, 0, 0.00000000000000000000e+00) (0, 0, 0.00000000000000000000e+00) (0, 0, 0.00000000000000000000e+00) (0, 0, 0.00000000000000000000e+00) (0, 0, 0.00000000000000000000e+00) (0, 0, 0.00000000000000000000e+00) (0, 0, 0.00000000000000000000e+00) (0, 0, 0.00000000000000000000e+00) (0, 0, 0.00000000000000000000e+00) (0, 0, 0.00000000000000000000e+00) (0, 0, 0.00000000000000000000e+00) (0, 0, 0.00000000000000000000e+00) (0, 0, 0.00000000000000000000e+00) (0, 0, 0.00000000000000000000e+00) (0, 0, 0.00000000000000000000e+00) (0, 0, 0.00000000000000000000e+00) (0, 0, 0.00000000000000000000e+00) (0, 0, 0.00000000000000000000e+00) (0, 0, 0.00000000000000000000e+00) (0, 0, 0.00000000000000000000e+00) (0, 0, 0.00000000000000000000e+00) (0, 0, 0.00000000000000000000e+00) (0, 0, 0.00000000000000000000e+00) (0, 0, 0.00000000000000000000e+00) (0, 0, 0.00000000000000000000e+00) (0, 0, 0.00000000000000000000e+00) (0, 0, 0.00000000000000000000e+00) (0, 0, 0.00000000000000000000e+00) (0, 0, 0.00000000000000000000e+00) (0, 0, 0.00000000000000000000e+00) (0, 0, 0.00000000000000000000e+00) (0, 0, 0.00000000000000000000e+00) (0, 0, 0.00000000000000000000e+00) (0, 0, 0.00000000000000000000e+00) (0, 0, 0.00000000000000000000e+00) (0, 0, 0.00000000000000000000e+00) (0, 0, 0.00000000000000000000e+00) (0, 0, 0.00000000000000000000e+00) (0, 0, 0.00000000000000000000e+00) (0, 0, 0.00000000000000000000e+00) (0, 0, 0.00000000000000000000e+00) (0, 0, 0.00000000000000000000e+00) (0, 0, 0.00000000000000000000e+00) (0, 0, 0.00000000000000000000e+00) (0, 0, 0.00000000000000000000e+00) (0, 0, 0.00000000000000000000e+00) (0, 0, 0.00000000000000000000e+00) (0, 0, 0.00000000000000000000e+00) (0, 0, 0.00000000000000000000e+00) (0, 0, 0.00000000000000000000e+00) (0, 0, 0.00000000000000000000e+00) (0, 0, 0.00000000000000000000e+00) (0, 0, 0.00000000000000000000e+00) (0, 0, 0.00000000000000000000e+00) (0, 0, 0.00000000000000000000e+00) (0, 0, 0.00000000000000000000e+00) (0, 0, 0.00000000000000000000e+00) (0, 0, 0.00000000000000000000e+00) (0, 0, 0.00000000000000000000e+00) (0, 0, 0.00000000000000000000e+00) (0, 0, 0.00000000000000000000e+00) (0, 0, 0.00000000000000000000e+00) (0, 0, 0.00000000000000000000e+00) (0, 0, 0.00000000000000000000e+00) (0, 0, 0.00000000000000000000e+00) (0, 0, 0.00000000000000000000e+00) (0, 0, 0.00000000000000000000e+00) (0, 0, 0.00000000000000000000e+00) (0, 0, 0.00000000000000000000e+00) (0, 0, 0.00000000000000000000e+00) (0, 0, 0.00000000000000000000e+00) (0, 0, 0.00000000000000000000e+00) (0, 0, 0.00000000000000000000e+00) (0, 0, 0.00000000000000000000e+00) (0, 0, 0.00000000000000000000e+00) (0, 0, 0.00000000000000000000e+00) (0, 0, 0.00000000000000000000e+00) (0, 0, 0.00000000000000000000e+00) (0, 0, 0.00000000000000000000e+00) (0, 0, 0.00000000000000000000e+00) (0, 0, 0.00000000000000000000e+00) (0, 0, 0.00000000000000000000e+00) (0, 0, 0.00000000000000000000e+00) (0, 0, 0.00000000000000000000e+00) (0, 0, 0.00000000000000000000e+00) (0, 0, 0.00000000000000000000e+00) (0, 0, 0.00000000000000000000e+00) (0, 0, 0.00000000000000000000e+00) (0, 0, 0.00000000000000000000e+00) (0, 0, 0.00000000000000000000e+00) (0, 0, 0.00000000000000000000e+00) (0, 0, 0.00000000000000000000e+00) (0, 0, 0.00000000000000000000e+00) (0, 0, 0.00000000000000000000e+00) (0, 0, 0.00000000000000000000e+00) (0, 0, 0.00000000000000000000e+00) (0, 0, 0.00000000000000000000e+00) (0, 0, 0.00000000000000000000e+00) (0, 0, 0.00000000000000000000e+00) (0, 0, 0.00000000000000000000e+00) (0, 0, 0.00000000000000000000e+00) (0, 0, 0.00000000000000000000e+00) (0, 0, 0.00000000000000000000e+00) (0, 0, 0.00000000000000000000e+00) (0, 0, 0.00000000000000000000e+00) (0, 0, 0.00000000000000000000e+00) (0, 0, 0.00000000000000000000e+00) (0, 0, 0.00000000000000000000e+00) (0, 0, 0.00000000000000000000e+00) (0, 0, 0.00000000000000000000e+00) (0, 0, 0.00000000000000000000e+00) (0, 0, 0.00000000000000000000e+00) (0, 0, 0.00000000000000000000e+00) (0, 0, 0.00000000000000000000e+00) (0, 0, 0.00000000000000000000e+00) (0, 0, 0.00000000000000000000e+00) (0, 0, 0.00000000000000000000e+00) (0, 0, 0.00000000000000000000e+00) (0, 0, 0.00000000000000000000e+00) (0, 0, 0.00000000000000000000e+00) (0, 0, 0.00000000000000000000e+00) (0, 0, 0.00000000000000000000e+00) (0, 0, 0.00000000000000000000e+00) (0, 0, 0.00000000000000000000e+00) (0, 0, 0.00000000000000000000e+00) (0, 0, 0.00000000000000000000e+00) (0, 0, 0.00000000000000000000e+00) (0, 0, 0.00000000000000000000e+00) (0, 0, 0.00000000000000000000e+00) (0, 0, 0.00000000000000000000e+00) (0, 0, 0.00000000000000000000e+00) (0, 0, 0.00000000000000000000e+00) (0, 0, 0.00000000000000000000e+00) (0, 0, 0.00000000000000000000e+00) (0, 0, 0.00000000000000000000e+00) (0, 0, 0.00000000000000000000e+00) (0, 0, 0.00000000000000000000e+00) (0, 0, 0.00000000000000000000e+00) (0, 0, 0.00000000000000000000e+00) (0, 0, 0.00000000000000000000e+00) (0, 0, 0.00000000000000000000e+00) (0, 0, 0.00000000000000000000e+00) (0, 0, 0.00000000000000000000e+00) (0, 0, 0.00000000000000000000e+00) (0, 0, 0.00000000000000000000e+00) (0, 0, 0.00000000000000000000e+00) (0, 0, 0.00000000000000000000e+00) (0, 0, 0.00000000000000000000e+00) (0, 0, 0.00000000000000000000e+00) (0, 0, 0.00000000000000000000e+00) (0, 0, 0.00000000000000000000e+00) (0, 0, 0.00000000000000000000e+00) (0, 0, 0.00000000000000000000e+00) (0, 0, 0.00000000000000000000e+00) (0, 0, 0.00000000000000000000e+00) (0, 0, 0.00000000000000000000e+00) (0, 0, 0.00000000000000000000e+00) (0, 0, 0.00000000000000000000e+00) (0, 0, 0.00000000000000000000e+00) (0, 0, 0.00000000000000000000e+00) (0, 0, 0.00000000000000000000e+00) (0, 0, 0.00000000000000000000e+00) (0, 0, 0.00000000000000000000e+00) (0, 0, 0.00000000000000000000e+00) (0, 0, 0.00000000000000000000e+00) (0, 0, 0.00000000000000000000e+00) (0, 0, 0.00000000000000000000e+00) (0, 0, 0.00000000000000000000e+00) (0, 0, 0.00000000000000000000e+00) (0, 0, 0.00000000000000000000e+00) (0, 0, 0.00000000000000000000e+00) (0, 0, 0.00000000000000000000e+00) (0, 0, 0.00000000000000000000e+00) (0, 0, 0.00000000000000000000e+00) (0, 0, 0.00000000000000000000e+00) (0, 0, 0.00000000000000000000e+00) (0, 0, 0.00000000000000000000e+00) (0, 0, 0.00000000000000000000e+00) (0, 0, 0.00000000000000000000e+00) (0, 0, 0.00000000000000000000e+00) (0, 0, 0.00000000000000000000e+00) (0, 0, 0.00000000000000000000e+00) (0, 0, 0.00000000000000000000e+00) (0, 0, 0.00000000000000000000e+00) (0, 0, 0.00000000000000000000e+00) (0, 0, 0.00000000000000000000e+00) (0, 0, 0.00000000000000000000e+00) (0, 0, 0.00000000000000000000e+00) (0, 0, 0.00000000000000000000e+00) (0, 0, 0.00000000000000000000e+00) (0, 0, 0.00000000000000000000e+00) (0, 0, 0.00000000000000000000e+00) (0, 0, 0.00000000000000000000e+00) (0, 0, 0.00000000000000000000e+00) (0, 0, 0.00000000000000000000e+00) (0, 0, 0.00000000000000000000e+00) (0, 0, 0.00000000000000000000e+00) (0, 0, 0.00000000000000000000e+00) (0, 0, 0.00000000000000000000e+00) (0, 0, 0.00000000000000000000e+00) (0, 0, 0.00000000000000000000e+00) (0, 0, 0.00000000000000000000e+00) (0, 0, 0.00000000000000000000e+00) (0, 0, 0.00000000000000000000e+00) (0, 0, 0.00000000000000000000e+00) (0, 0, 0.00000000000000000000e+00) (0, 0, 0.00000000000000000000e+00) (0, 0, 0.00000000000000000000e+00) (0, 0, 0.00000000000000000000e+00) (0, 0, 0.00000000000000000000e+00) (0, 0, 0.00000000000000000000e+00) (0, 0, 0.00000000000000000000e+00) (0, 0, 0.00000000000000000000e+00) (0, 0, 0.00000000000000000000e+00) (0, 0, 0.00000000000000000000e+00) (0, 0, 0.00000000000000000000e+00) (0, 0, 0.00000000000000000000e+00) (0, 0, 0.00000000000000000000e+00) (0, 0, 0.00000000000000000000e+00) (0, 0, 0.00000000000000000000e+00) (0, 0, 0.00000000000000000000e+00) (0, 0, 0.00000000000000000000e+00) (0, 0, 0.00000000000000000000e+00) (0, 0, 0.00000000000000000000e+00) (0, 0, 0.00000000000000000000e+00) (0, 0, 0.00000000000000000000e+00) (0, 0, 0.00000000000000000000e+00) (0, 0, 0.00000000000000000000e+00) (0, 0, 0.00000000000000000000e+00) (0, 0, 0.00000000000000000000e+00) (350, 5, 5.00000000000000000000e-01) (350, 5, 5.00000000000000000000e-01) (350, 5, 5.00000000000000000000e-01) (350, 5, 5.00000000000000000000e-01) (350, 5, 5.00000000000000000000e-01) (350, 5, 5.00000000000000000000e-01) (350, 5, 5.00000000000000000000e-01) (350, 5, 5.00000000000000000000e-01) (350, 5, 5.00000000000000000000e-01) (350, 5, 5.00000000000000000000e-01) (350, 5, 5.00000000000000000000e-01) (350, 5, 5.00000000000000000000e-01) (350, 5, 5.00000000000000000000e-01) (350, 5, 5.00000000000000000000e-01) (350, 5, 5.00000000000000000000e-01) (350, 5, 5.00000000000000000000e-01) (350, 5, 5.00000000000000000000e-01) (350, 5, 5.00000000000000000000e-01) (350, 5, 5.00000000000000000000e-01) (350, 5, 5.00000000000000000000e-01) (350, 5, 5.00000000000000000000e-01) (350, 5, 5.00000000000000000000e-01) (350, 5, 5.00000000000000000000e-01) (350, 5, 5.00000000000000000000e-01) (350, 5, 5.00000000000000000000e-01) (350, 5, 5.00000000000000000000e-01) (350, 5, 5.00000000000000000000e-01) (350, 5, 5.00000000000000000000e-01) (350, 5, 5.00000000000000000000e-01) (350, 5, 5.00000000000000000000e-01) (350, 5, 5.00000000000000000000e-01) (350, 5, 5.00000000000000000000e-01) (350, 5, 5.00000000000000000000e-01) (350, 5, 5.00000000000000000000e-01) (350, 5, 5.00000000000000000000e-01) (350, 5, 5.00000000000000000000e-01) (350, 5, 5.00000000000000000000e-01) (350, 5, 5.00000000000000000000e-01) (350, 5, 5.00000000000000000000e-01) (350, 5, 5.00000000000000000000e-01) (350, 5, 5.00000000000000000000e-01) (350, 5, 5.00000000000000000000e-01) (350, 5, 5.00000000000000000000e-01) (350, 5, 5.00000000000000000000e-01) (350, 5, 5.00000000000000000000e-01) (350, 5, 5.00000000000000000000e-01) (350, 5, 5.00000000000000000000e-01) (350, 5, 5.00000000000000000000e-01) (350, 5, 5.00000000000000000000e-01) (350, 5, 5.00000000000000000000e-01) (350, 5, 5.00000000000000000000e-01) (350, 5, 5.00000000000000000000e-01) (350, 5, 5.00000000000000000000e-01) (350, 5, 5.00000000000000000000e-01) (350, 5, 5.00000000000000000000e-01) (350, 5, 5.00000000000000000000e-01) (350, 5, 5.00000000000000000000e-01) (350, 5, 5.00000000000000000000e-01) (350, 5, 5.00000000000000000000e-01) (350, 5, 5.00000000000000000000e-01) (350, 5, 5.00000000000000000000e-01) (350, 5, 5.00000000000000000000e-01) (350, 5, 5.00000000000000000000e-01) (350, 5, 5.00000000000000000000e-01) (350, 5, 5.00000000000000000000e-01) (350, 5, 5.00000000000000000000e-01) (350, 5, 5.00000000000000000000e-01) (350, 5, 5.00000000000000000000e-01) (350, 5, 5.00000000000000000000e-01) (350, 5, 5.00000000000000000000e-01) (350, 5, 5.00000000000000000000e-01) (350, 5, 5.00000000000000000000e-01) (350, 5, 5.00000000000000000000e-01) (350, 5, 5.00000000000000000000e-01) (350, 5, 5.00000000000000000000e-01) (350, 5, 5.00000000000000000000e-01) (350, 5, 5.00000000000000000000e-01) (350, 5, 5.00000000000000000000e-01) (350, 5, 5.00000000000000000000e-01) (350, 5, 5.00000000000000000000e-01) (350, 5, 5.00000000000000000000e-01) (350, 5, 5.00000000000000000000e-01) (350, 5, 5.00000000000000000000e-01) (350, 5, 5.00000000000000000000e-01) (350, 5, 5.00000000000000000000e-01) (350, 5, 5.00000000000000000000e-01) (350, 5, 5.00000000000000000000e-01) (350, 5, 5.00000000000000000000e-01) (350, 5, 5.00000000000000000000e-01) (350, 5, 5.00000000000000000000e-01) (350, 5, 5.00000000000000000000e-01) (350, 5, 5.00000000000000000000e-01) (350, 5, 5.00000000000000000000e-01) (350, 5, 5.00000000000000000000e-01) (350, 5, 5.00000000000000000000e-01) (350, 5, 5.00000000000000000000e-01) (350, 5, 5.00000000000000000000e-01) (350, 5, 5.00000000000000000000e-01) (350, 5, 5.00000000000000000000e-01) (350, 5, 5.00000000000000000000e-01) (350, 5, 5.00000000000000000000e-01) (350, 5, 5.00000000000000000000e-01) (350, 5, 5.00000000000000000000e-01) (350, 5, 5.00000000000000000000e-01) (350, 5, 5.00000000000000000000e-01) (350, 5, 5.00000000000000000000e-01) (350, 5, 5.00000000000000000000e-01) (350, 5, 5.00000000000000000000e-01) (350, 5, 5.00000000000000000000e-01) (350, 5, 5.00000000000000000000e-01) (350, 5, 5.00000000000000000000e-01) (350, 5, 5.00000000000000000000e-01) (350, 5, 5.00000000000000000000e-01) (350, 5, 5.00000000000000000000e-01) (350, 5, 5.00000000000000000000e-01) (350, 5, 5.00000000000000000000e-01) (350, 5, 5.00000000000000000000e-01) (350, 5, 5.00000000000000000000e-01) (350, 5, 5.00000000000000000000e-01) (350, 5, 5.00000000000000000000e-01) (350, 5, 5.00000000000000000000e-01) (350, 5, 5.00000000000000000000e-01) (350, 5, 5.00000000000000000000e-01) (350, 5, 5.00000000000000000000e-01) (350, 5, 5.00000000000000000000e-01) (350, 5, 5.00000000000000000000e-01) (350, 5, 5.00000000000000000000e-01) (350, 5, 5.00000000000000000000e-01) (0, 5, 0.00000000000000000000e+00) (129, 3, 5.00000000000000000000e-01) (129, 3, 5.00000000000000000000e-01) (129, 3, 5.00000000000000000000e-01) (0, 3, 0.00000000000000000000e+00) 
connections (connected_to_neuron, weight)=(0, 3.07278149178202356073e-02) (1, 1.55676015336950884782e-02) (2, -7.88314169637347773867e-03) (3, -5.47099525648980164472e-02) (4, 1.05873349634034510935e-02) (5, 3.58854931968849225066e-02) (6, 1.80069293627142454350e-02) (7, -6.00305201376623645548e-02) (8, -8.39685684493178680077e-02) (9, 3.06315972858800487921e-02) (10, -1.87925439121432794054e-02) (11, -2.02900832441484268998e-01) (12, -1.43678378000393659752e-02) (13, -3.55161083883015742807e-03) (14, -1.42115986131488819533e-01) (15, -7.31554310357461906600e-02) (16, -1.56301331133560900133e-01) (17, -4.01413742897468520110e-02) (18, -1.45608496003392567930e-01) (19, -1.02064143459617520659e-01) (20, -6.35245252059096349173e-02) (21, -1.27771021955072422438e-01) (22, 5.34881032527664140863e-02) (23, -1.71006583885225632580e-01) (24, -7.62113325051129303356e-02) (25, 1.80101204803422322576e-02) (26, 4.59251883850511632978e-02) (27, -1.38049683039638521054e-01) (28, -1.55420978803741810514e-01) (29, -1.52325413206887087109e-02) (30, -7.39794748998834073017e-02) (31, -1.88829614423764099995e-02) (32, -1.70063035061265355186e-01) (33, -5.31089369556820636853e-02) (34, 3.92138339103439287348e-02) (35, -2.32853636054580315218e-01) (36, -4.50309230588925302197e-02) (37, -3.88149930738461435009e-02) (38, -1.29959423894272924072e-01) (39, -2.93434707916168449615e-02) (40, -2.42473702245901388819e-02) (41, 5.40427770067979443280e-02) (42, -5.90189685936861468951e-03) (43, -3.46102641767792318372e-02) (44, -8.89995558761609295573e-02) (45, 1.48992124102454923107e-02) (46, -1.00316684214702217526e-01) (47, -3.53647398928327694190e-01) (48, 9.08320480909153953053e-03) (49, -1.42388810249239661232e-01) (50, -3.28896397099068329983e-02) (51, -5.86068108523644867858e-02) (52, 6.38679689902360136350e-03) (53, -3.03981805370794715138e-02) (54, -1.20652351573314359223e-01) (55, -3.85962218641282897580e-02) (56, -1.37403515780382210615e-02) (57, -1.38868169546032232953e-01) (58, -1.30841709200762018606e-01) (59, -2.60770347335472274519e-01) (60, 8.15522496783728338687e-03) (61, -2.43925320616961184561e-02) (62, -1.27594691254407643921e-02) (63, 9.76227594263251452489e-03) (64, -2.17873566066534019026e-02) (65, -7.63742029880792733243e-02) (66, -1.17518980077436621667e-01) (67, -3.78003604923993763443e-02) (68, -7.03864174239938328315e-03) (69, 5.28917086965735323140e-03) (70, -1.40835719459359519877e-03) (71, 3.34502942646235229551e-02) (72, -9.72366221462995644620e-02) (73, 4.77911121929376903061e-02) (74, -7.11581111168176766446e-02) (75, -5.06925992881566700454e-02) (76, -8.68163518821508523038e-02) (77, -1.87202207958013511213e-02) (78, 7.29554779613702658603e-02) (79, 6.64659030521600469044e-02) (80, -3.79772858970467853262e-03) (81, -1.24728854767015603922e-01) (82, -1.41064115082532651191e-02) (83, 1.71949900472849054323e-02) (84, -9.87215551947294572832e-02) (85, 3.88202406252115828078e-02) (86, -8.65238563561572249228e-02) (87, -2.72648595487386680158e-02) (88, 6.31461478555887245623e-02) (89, -4.04147712875605122362e-02) (90, -9.43094250404399314647e-02) (91, 2.70021973705159117063e-02) (92, 5.23683799154456026265e-03) (93, -8.07322487448961373380e-02) (94, 3.68012524927347761672e-02) (95, 2.23934836471765541521e-02) (96, 7.08689875686853293368e-02) (97, -1.35031717174355857768e-03) (98, 8.88669861204321835657e-03) (99, 6.23734928453653636460e-02) (100, 1.48807503069132117390e-02) (101, 4.57410884744818488357e-03) (102, -1.94807525891340406476e-02) (103, 3.75401904041511996768e-02) (104, 2.56804615137408735401e-03) (105, -9.42795198895246544524e-02) (106, -9.77112092291624184659e-02) (107, 7.14106894815652731845e-02) (108, -9.67017300640852089932e-02) (109, -1.53836650551697788278e-03) (110, 5.07215745533197703843e-02) (111, -1.88787691509038901838e-02) (112, 8.31936670190985654016e-03) (113, -7.27254078006059762052e-02) (114, 7.44372343835469820611e-03) (115, -7.37725659822804497034e-02) (116, 5.82026642360857146552e-02) (117, 1.98504699117834802410e-03) (118, 6.65165520990579350880e-02) (119, 4.75328154648035350327e-02) (120, -1.24404393350392994400e-02) (121, 1.71470530117242975221e-02) (122, -1.05674747399023258310e-01) (123, 2.82919145906656566147e-02) (124, 6.02329147703345186421e-03) (125, -6.28147684251577492764e-02) (126, -2.41851322566778159651e-02) (127, 2.41431332910745644060e-02) (128, -1.22846137753656617364e-01) (129, 2.86323614204614940171e-02) (130, -7.23278857981474038175e-02) (131, -1.11116025618246266893e-01) (132, -2.20084798265677630824e-02) (133, 4.51614930168326017546e-02) (134, -7.12389101006740965705e-02) (135, 2.14466309455125861416e-02) (136, -5.56974990655184284960e-02) (137, -1.51676310448765755412e-01) (138, -6.76758049417734985909e-02) (139, -5.69997820040799088592e-02) (140, 3.53133149128618609169e-02) (141, -3.21074591846598408895e-02) (142, -1.20386634501270115005e-01) (143, 3.32860536659449340879e-02) (144, -9.90665762115717773995e-02) (145, -5.64784960293902224548e-02) (146, -9.63318257023096924385e-02) (147, -9.29499848176241760811e-02) (148, -1.30142489167958917695e-02) (149, 1.76391375906164858851e-03) (150, -5.02762906467229542251e-02) (151, -8.98982323920042153409e-02) (152, -1.58249251758367515119e-02) (153, -6.58642351841241951993e-02) (154, -7.64321014498979683927e-02) (155, -9.06340815340788003018e-02) (156, 1.66974998796671075807e-02) (157, -6.17937290760785865040e-02) (158, -3.50179368349820829831e-02) (159, -1.33101466498204909494e-02) (160, -1.13859374097517201951e-01) (161, 6.92724920595376852939e-02) (162, -3.33748646294385609146e-02) (163, -2.76670269881994224104e-02) (164, -9.59880911027700539639e-02) (165, 3.16687232163637630289e-02) (166, -1.15904100453168602824e-02) (167, -9.62494351183683510831e-02) (168, 3.93871404016703230422e-02) (169, -1.16575893036058600427e-01) (170, 1.26322395885675731186e-02) (171, 1.37761868322580638413e-02) (172, 4.01178784454554182570e-02) (173, -3.52290757214338001724e-02) (174, 8.69165731317694811864e-03) (175, -1.55337937390119511932e-02) (176, 2.72256620014398875718e-02) (177, -1.14673379830053503992e-01) (178, -1.18079371964246483684e-02) (179, 4.76167686069696727280e-02) (180, -1.26310067527596629408e-03) (181, -1.25882973633363814958e-01) (182, -5.71993642669469531947e-02) (183, -9.12308879410535927823e-02) (184, -1.37385688936025388007e-02) (185, -5.52441946199581012875e-04) (186, 1.87912769401758286691e-02) (187, -7.19723195951730843056e-02) (188, 1.96681059683054063059e-02) (189, 6.55151940668313725880e-02) (190, 1.73655487383096857057e-02) (191, -3.34186293398648914810e-02) (192, 3.67857552850931746047e-02) (193, -3.82387079512387928482e-02) (194, 2.57557965601175331560e-02) (195, -1.86689980541974998030e-02) (196, -6.60765916322977181485e-02) (197, -4.56133671318799671646e-02) (198, -1.20150502792528340867e-01) (199, -6.58261403655321236661e-02) (200, -3.61928306733876881118e-02) (201, 1.07400901401727977280e-02) (202, 1.23217887962549510483e-02) (203, -4.08767538421456622794e-03) (204, 1.94545148880179174546e-03) (205, 2.94435328152864786433e-02) (206, -1.04160973521978117429e-02) (207, 6.87778001931398236257e-02) (208, -1.19380838582208811949e-01) (209, -1.01641423413446618795e-01) (210, 4.48617972219675364975e-02) (211, -1.04043718448808872323e-01) (212, 4.09344620788782698195e-02) (213, -1.11122898170641123961e-01) (214, -1.10377385625532328794e-01) (215, 1.94159752038210037250e-02) (216, 5.62524354365556977786e-02) (217, -3.30215282952100452896e-02) (218, -8.92058648382932778409e-02) (219, 2.07480378235071205584e-02) (220, 1.56225716975420241689e-02) (221, -9.90900583779127236417e-02) (222, -1.03118784138849450827e-01) (223, 4.84598469837410478211e-02) (224, 4.26442962988121537782e-02) (225, 1.01345340733454858384e-01) (226, 2.42759437938864092166e-02) (227, -2.32757249566823906650e-02) (228, -6.23437596309487987445e-02) (229, -1.14708905778482611604e-01) (230, -5.42760410997182723980e-02) (231, -8.52407583686620728969e-02) (232, -1.09368839946439921906e-01) (233, -1.52933609490821346977e-02) (234, -1.05595746698863388047e-01) (235, -1.45899238203255413038e-03) (236, 1.01039471900627411682e-01) (237, 6.18775513989403350146e-02) (238, 8.03605419032317885852e-02) (239, 3.73226797956675154788e-02) (240, -5.99249133091718372279e-02) (241, -6.62657107960479968556e-02) (242, 9.02924377668601757518e-02) (243, -3.66827505723731489562e-02) (244, 5.29052541346847829407e-02) (245, 3.19028235758036168845e-02) (246, -7.19172465698021262659e-02) (247, 6.51122730605346727861e-02) (248, -6.25565974872280706337e-03) (249, 4.98337511007483201925e-03) (250, 1.38475304749697027129e-02) (251, 6.75724452641694867117e-02) (252, 2.15958538329088060859e-02) (253, -3.32322227602260128476e-02) (254, -1.03838700822523319345e-01) (255, -1.13304559162786672166e-01) (256, -6.01392614000146284725e-03) (257, 2.75403000200479808335e-02) (258, -2.66273282682210898908e-02) (259, -2.18781344806463218244e-02) (260, -2.09358709209267945459e-03) (261, -8.33703385385782258510e-02) (262, -7.31449978145868318080e-02) (263, -1.58605867716581291904e-02) (264, -3.67793956491262175046e-02) (265, -1.91502788755208916416e-02) (266, 7.34937494900911314488e-02) (267, -2.48238104478614649007e-02) (268, -3.58336935834186048888e-02) (269, -7.89427715436714499964e-02) (270, -4.68949371668607450925e-02) (271, -3.10895064565450442162e-02) (272, 1.03837645429819391135e-02) (273, -2.22362109642774558038e-02) (274, -6.56434850487024323940e-02) (275, 6.21083533671587251224e-02) (276, -1.27611675950795831758e-02) (277, 5.50804740098207734622e-02) (278, 6.95389366057603819371e-02) (279, 7.25863969701974753868e-02) (280, 1.78395962622850540180e-02) (281, -3.78926578834225171594e-03) (282, -3.40470049150245201997e-02) (283, -1.02878638726026285649e-02) (284, -5.00963607054502185756e-02) (285, -7.75190698997276633753e-02) (286, -8.50017997519272178186e-02) (287, -4.72800503567950697326e-02) (288, -9.18857210498602028359e-02) (289, -6.53561444204599495400e-02) (290, 5.12802642687065629579e-02) (291, 4.53318846328957109071e-02) (292, 7.08542507990104625248e-02) (293, 2.58376581480247655143e-02) (294, 4.36251092217653513305e-02) (295, 6.54336102092950566700e-02) (296, 4.57859135050028148717e-02) (297, 1.62813050558311654681e-02) (298, 6.42434353002731967086e-02) (299, 5.65641027488878386786e-02) (300, 6.28042258108347101198e-02) (301, 5.36597019809931102818e-02) (302, -8.36116948347837563027e-02) (303, -2.17001570331868494021e-03) (304, -1.02702919985095272870e-01) (305, 2.95027201960647404710e-02) (306, -8.06337408935339089444e-02) (307, -1.07567895225218007615e-01) (308, 1.00937820757120433335e-02) (309, -5.01262061511785206314e-02) (310, 3.25374491298884155333e-02) (311, -3.95255008432180143796e-02) (312, 2.72370911920755687241e-02) (313, -1.22373227051428085099e-01) (314, -2.31230370914251304182e-02) (315, -1.25132638982465821398e-01) (316, -6.01645580461665973812e-04) (317, -8.11316447608773777533e-03) (318, -5.42911328589231328978e-02) (319, 3.26252020681589774420e-02) (320, 3.54466624344080549758e-02) (321, 5.55760897482126536850e-02) (322, -2.90011503016263938459e-02) (323, -1.18797934958627879332e-01) (324, -1.04537088445356571298e-01) (325, -5.11585585986882862564e-02) (326, -1.18221100441148932458e-01) (327, -3.82762737786084827896e-02) (328, -5.90785534112756114539e-03) (329, 3.90475727403849226516e-02) (330, -2.36504562413007712873e-02) (331, 1.03985673096864995879e-02) (332, -9.88269709264547463468e-02) (333, -8.01634942036932029996e-02) (334, 3.61528608273286380936e-02) (335, -3.57086778621429207226e-02) (336, -6.43470221202129682991e-02) (337, -2.67437071750984065033e-02) (338, 3.90130012084617741608e-02) (339, 1.19330464650764626888e-02) (340, -5.46542497605448304721e-02) (341, 6.23081811228912915701e-02) (342, 8.23010604631526088149e-02) (343, -3.23910394139207899467e-02) (344, -1.26566864256845795778e-01) (345, -3.08128486881127615360e-02) (346, -1.67937232530554342302e-01) (347, 4.42888105963592463438e-03) (348, -1.66568118663316694361e-01) (349, 3.95752831931980963986e-01) (0, 3.15976094370568560965e-01) (1, 4.26896891895778451964e-01) (2, 3.40085728819157939729e-01) (3, 3.28550926747641747205e-01) (4, 3.89879833568218536755e-01) (5, 3.87022203614224069579e-01) (6, 3.92123425841834405414e-01) (7, 4.56490251099529009693e-01) (8, 4.66428122558436575318e-01) (9, 3.53732896331495183517e-01) (10, 3.37290190754619079172e-01) (11, -2.34697525848760513156e+00) (12, 4.24651809896810450429e-01) (13, 3.42546514532856338775e-01) (14, 4.06853551316099404378e-01) (15, 4.15353752933247111212e-01) (16, 4.49018492211807840331e-01) (17, 3.60919179313879234794e-01) (18, 2.72383715445135066169e-01) (19, 3.26819131184117595001e-01) (20, 4.45405969620997932434e-01) (21, 3.36303055558294206051e-01) (22, 3.33892697114081593579e-01) (23, -4.46635210694644346763e-01) (24, 3.97729634964117895191e-01) (25, 3.14977520311966241451e-01) (26, 4.02428346852868934480e-01) (27, 2.48777293632366142129e-01) (28, 4.25433677890909467401e-01) (29, 2.81820177123230597438e-01) (30, 3.50547154497754365199e-01) (31, 3.68427566202328304890e-01) (32, 3.82648436598983621160e-01) (33, 3.65967119775097937673e-01) (34, 3.95436857873460112511e-01) (35, -1.49043759411283588401e-01) (36, 4.46857530990824647343e-01) (37, 3.33285546733467552549e-01) (38, 3.82617811680814101649e-01) (39, 3.12761387690675962681e-01) (40, 2.68213382696391999804e-01) (41, 2.68960922208796859856e-01) (42, 3.03495644775401474114e-01) (43, 3.11816292492080981980e-01) (44, 3.13670551247919038307e-01) (45, 4.13666105617082002777e-01) (46, 2.47021440226725341738e-01) (47, -2.48642612097545345762e+00) (48, 2.69100437898586841712e-01) (49, 3.55631919704711418895e-01) (50, 2.71253339023372008754e-01) (51, 4.08203347586356068977e-01) (52, 3.61410352973048909497e-01) (53, 2.77204820835737331119e-01) (54, 2.56919990928041186429e-01) (55, 3.63823229396490199772e-01) (56, 2.44260497374185869823e-01) (57, 2.49444670989208583389e-01) (58, 5.30497299718183712436e-01) (59, -3.34112119693491804728e-01) (60, 4.07313859232172226221e-01) (61, 4.86278711028799270899e-01) (62, 4.45151405303510050437e-01) (63, 5.23495564131768564842e-01) (64, 4.54538198491642619903e-01) (65, 3.91574049672196056182e-01) (66, 5.53108709236690976319e-01) (67, 4.65904737195084239776e-01) (68, 4.28860212048599864776e-01) (69, 4.21599353035996105010e-01) (70, 3.88341868599960948760e-01) (71, 4.29847652396271373565e-01) (72, 4.17517112871716167266e-01) (73, 3.78090704163620616729e-01) (74, 5.38431423088619687256e-01) (75, 3.84712497076103832061e-01) (76, 4.30997291883537914092e-01) (77, 5.39509551903316952881e-01) (78, 5.03946194319756735069e-01) (79, 4.87328747181924204490e-01) (80, 3.98939358374188091094e-01) (81, 5.41825505277225949463e-01) (82, 4.29202134093353893096e-01) (83, 3.68322292646477478240e-01) (84, 3.59777131943734618247e-01) (85, 4.39013058623383189971e-01) (86, 4.59567082332095311337e-01) (87, 5.06876008888790585694e-01) (88, 4.32890842041084911163e-01) (89, 3.64372620662758606169e-01) (90, 3.78705213150093700225e-01) (91, 4.66498041829178478057e-01) (92, 4.00528071751902248199e-01) (93, 4.43310903688976909454e-01) (94, 4.94372310420582439239e-01) (95, 4.83272852679798747833e-01) (96, 5.34479914191315019778e-01) (97, 4.16993880602667510438e-01) (98, 4.29343832614968001771e-01) (99, 3.94777140215227750897e-01) (100, 4.61512023886749889190e-01) (101, 4.00665348699400569732e-01) (102, 5.48427724696082918854e-01) (103, 5.12210437922509531639e-01) (104, 3.84590001671346048973e-01) (105, 4.68885029038498546416e-01) (106, 5.18567340752193906006e-01) (107, 5.29172869702885129151e-01) (108, 3.76391941985199596221e-01) (109, 3.87682837203190522324e-01) (110, 3.90055567181107065711e-01) (111, 3.77068350395271922881e-01) (112, 3.55256835565159578838e-01) (113, 4.43226600632259992718e-01) (114, 5.49857020234616467036e-01) (115, 3.99917177584953764669e-01) (116, 4.52313525360485524374e-01) (117, 5.11207269808361508545e-01) (118, 4.28155241492340743470e-01) (119, 4.18273782315800368714e-01) (120, 5.40636284235069597415e-01) (121, 4.87186653497765242982e-01) (122, 3.58988339647839327373e-01) (123, 3.58637655720303316631e-01) (124, 4.64666272148678449749e-01) (125, 4.87844629171440780091e-01) (126, 4.17905328753540694642e-01) (127, 5.48268916389057614502e-01) (128, 5.24624591451546273824e-01) (129, 4.44449914377590626913e-01) (130, 5.48562472444435678121e-01) (131, 3.67472963711331146452e-01) (132, 4.86505706563637452255e-01) (133, 5.03583231835396993858e-01) (134, 3.87462679587968261696e-01) (135, 3.84077460025176231628e-01) (136, 5.28625418649634304380e-01) (137, 3.70375724813053752715e-01) (138, 4.56922601484468449140e-01) (139, 3.96743554197957981611e-01) (140, 3.67479685270002354169e-01) (141, 5.28336078913273166080e-01) (142, 5.15782708868572581373e-01) (143, 4.01550720080921796917e-01) (144, 4.86224843065328204972e-01) (145, 4.65261410760572424739e-01) (146, 4.20725066053560248225e-01) (147, 5.14698552271435239014e-01) (148, 5.07335544050213305134e-01) (149, 3.75151144907066969036e-01) (150, 4.06819681272099165081e-01) (151, 4.60015500530789045452e-01) (152, 5.21965498671123850905e-01) (153, 5.15732375863144243411e-01) (154, 5.27373748203823544678e-01) (155, 5.38505762818405564474e-01) (156, 4.45629025444576887249e-01) (157, 5.28550604924747813307e-01) (158, 3.90544438891919476475e-01) (159, 4.18188230960400919578e-01) (160, 5.54432945629665829834e-01) (161, 5.22593112966129758057e-01) (162, 3.90468934854576732452e-01) (163, 3.79458034714768077666e-01) (164, 5.19246774097988583740e-01) (165, 5.48103387102672923170e-01) (166, 4.15362747344324767518e-01) (167, 4.14896538439343154359e-01) (168, 3.79309384110520064759e-01) (169, 4.65959345880100905823e-01) (170, 3.91815831842968642640e-01) (171, 4.62091001054356242950e-01) (172, 5.31102610710213030032e-01) (173, 4.54644856932709395814e-01) (174, 4.29077389285156873822e-01) (175, 5.45549539807388628176e-01) (176, 4.64202138230393079876e-01) (177, 4.87496482512066509063e-01) (178, 5.22312288862129769917e-01) (179, 3.80588772079060222442e-01) (180, 5.23491757294247128662e-01) (181, 4.93848517540047327046e-01) (182, 4.91246233329365400433e-01) (183, 4.17551363190720226104e-01) (184, 5.54782097917458139058e-01) (185, 5.00594692608425928526e-01) (186, 4.62886328181336070831e-01) (187, 4.96939220921095992090e-01) (188, 4.08817896577665984559e-01) (189, 4.15556782814810454774e-01) (190, 4.76010000291416823792e-01) (191, 5.12974689349720347487e-01) (192, 4.07102471783945707440e-01) (193, 4.13006057921002089905e-01) (194, 4.06000168952295958924e-01) (195, 4.57947513046810805726e-01) (196, 5.37054030182907427005e-01) (197, 4.80651291390965129668e-01) (198, 4.73963482263634383607e-01) (199, 5.17750876328060605225e-01) (200, 4.06950770249674464996e-01) (201, 3.89538863977501537139e-01) (202, 5.47385839703628862551e-01) (203, 5.27308242699215390381e-01) (204, 4.37187443122456220745e-01) (205, 4.50965675160477308392e-01) (206, 4.20814551262816582966e-01) (207, 4.54202540068587456989e-01) (208, 4.06202666311225091267e-01) (209, 4.73045828387329725384e-01) (210, 5.22850225314686167799e-01) (211, 3.85363864347527174115e-01) (212, 4.51248571126422082234e-01) (213, 3.59651374265740175762e-01) (214, 5.01394688932856658070e-01) (215, 3.64763259737452771869e-01) (216, 4.00200221537312661457e-01) (217, 3.89979946062157301068e-01) (218, 4.35082385620186473663e-01) (219, 3.97076877400467542767e-01) (220, 5.12670050010273326002e-01) (221, 4.87090135559628156781e-01) (222, 3.65491243645737429180e-01) (223, 4.50752773368377546159e-01) (224, 4.48307979683455593012e-01) (225, 5.01237597837698389824e-01) (226, 5.33591339802382824686e-01) (227, 4.74609516001624931469e-01) (228, 4.82021934332717172378e-01) (229, 3.60751980439719455163e-01) (230, 5.09547794804165232740e-01) (231, 4.11387561455557493328e-01) (232, 4.32995999513519913560e-01) (233, 5.45540964782021853274e-01) (234, 3.70924731474777669149e-01) (235, 4.11948930014281733403e-01) (236, 4.81369844792422507673e-01) (237, 5.44621462159594393881e-01) (238, 5.17302468268832082998e-01) (239, 5.25926847700079580505e-01) (240, 3.78270023789752218857e-01) (241, 4.42104728248465750351e-01) (242, 5.12057057953757999158e-01) (243, 4.64298021289036411119e-01) (244, 4.26425164419647728664e-01) (245, 4.50155441282962753835e-01) (246, 4.76939376275189730325e-01) (247, 3.82526272655887455976e-01) (248, 4.78726844656963190783e-01) (249, 4.48817070405062801264e-01) (250, 4.59966363951752332806e-01) (251, 4.96120745882580427288e-01) (252, 5.42564470561668676929e-01) (253, 4.49291469832966472442e-01) (254, 4.09749092837879802520e-01) (255, 4.21051496943543102081e-01) (256, 3.80041914627144483685e-01) (257, 4.06034933969566969036e-01) (258, 4.70673652932236341595e-01) (259, 4.53723947152683881878e-01) (260, 3.79931124493668226361e-01) (261, 5.43922538504192698561e-01) (262, 5.47816331133434641920e-01) (263, 3.90624719307015089154e-01) (264, 4.70558442025145684529e-01) (265, 4.99875157921275237172e-01) (266, 4.25747267751654778767e-01) (267, 3.58064854041632907311e-01) (268, 5.46203404514750356924e-01) (269, 4.64627258329352532673e-01) (270, 4.14401855169495736408e-01) (271, 4.75071511603278984204e-01) (272, 4.46761659326422921890e-01) (273, 5.41428634420927812343e-01) (274, 5.41288286297282095205e-01) (275, 4.56197768299540673542e-01) (276, 5.40030181257685537588e-01) (277, 5.11102706043681020986e-01) (278, 5.28023833975384104811e-01) (279, 5.36916175381239701991e-01) (280, 5.00141858904322833546e-01) (281, 5.08171915857752676260e-01) (282, 4.69332925825080071736e-01) (283, 5.02234527365263749843e-01) (284, 4.05495447562035704614e-01) (285, 5.11918181077536393886e-01) (286, 3.59139405040702131000e-01) (287, 4.79706355825957442285e-01) (288, 3.75418003889248508287e-01) (289, 4.16941346124705458642e-01) (290, 4.83055585519370223047e-01) (291, 4.64449271000308860913e-01) (292, 5.18418178939838103503e-01) (293, 5.02706008335659704223e-01) (294, 5.47879355331966855225e-01) (295, 3.76155177434990550811e-01) (296, 4.07277044149563449693e-01) (297, 4.72496526210339884422e-01) (298, 5.13777898928234555420e-01) (299, 4.34461586332317850623e-01) (300, 5.08420253156241397363e-01) (301, 4.03911327467259551049e-01) (302, 4.87235148195227785184e-01) (303, 4.86993843890987210266e-01) (304, 4.58579088060974027208e-01) (305, 4.92604227311153330948e-01) (306, 4.81492185859711985252e-01) (307, 5.04045697232792355713e-01) (308, 4.64091690560887004668e-01) (309, 3.57126290282318847868e-01) (310, 3.89069574520180372357e-01) (311, 5.34007186636516917311e-01) (312, 5.00179658279011341016e-01) (313, 3.61141952321121950664e-01) (314, 5.54369861826488841139e-01) (315, 5.36010796770641673170e-01) (316, 3.74999205216953901409e-01) (317, 4.53236619577000288128e-01) (318, 3.89422813996861127972e-01) (319, 4.70802890703270582318e-01) (320, 4.25674463257382063031e-01) (321, 5.52283252224514353834e-01) (322, 4.66122152850220350384e-01) (323, 3.56477330073902864971e-01) (324, 3.56049636945317049541e-01) (325, 3.67855052098820467510e-01) (326, 3.80633145420512353230e-01) (327, 5.26162798151562083326e-01) (328, 4.59836604640076307415e-01) (329, 5.14606207458933706533e-01) (330, 4.11450403377602247357e-01) (331, 4.88513434872219709515e-01) (332, 4.86842105731556562542e-01) (333, 3.97658855423376755844e-01) (334, 4.54932544671662719704e-01) (335, 5.51038957073255009078e-01) (336, 4.19828026876289228664e-01) (337, 5.17498229650336982743e-01) (338, 4.55083839639561671397e-01) (339, 3.67702659961216926643e-01) (340, 3.75165154900925668091e-01) (341, 3.86400586076395935464e-01) (342, 5.23007504868033601397e-01) (343, 3.97268200481179001304e-01) (344, 3.82384481946471010971e-01) (345, 4.82395298843377950959e-01) (346, 5.11192118333579248457e-01) (347, 7.79878787735106882018e-01) (348, -3.40679410156592865633e-01) (349, -3.97043226501498855430e-02) (0, 1.89542751107459356286e-01) (1, 6.68624598696204941461e-01) (2, -1.06955562623028882507e-01) (3, 1.95473560948780725188e-02) (4, 1.34178875243996742483e-01) (5, 9.08376819752708952738e-02) (6, -1.24712571064950344946e-01) (7, -1.79083131794877586929e-01) (8, -2.36722560442679141879e-01) (9, 5.09677514966756617376e-01) (10, 4.03160803595730921067e-01) (11, -1.14801267561828623798e+00) (12, 1.45010148894413343906e-02) (13, 4.76651156926547636683e-01) (14, 2.71101928178410778170e-01) (15, 4.04918480452012896631e-01) (16, 4.21061730850237736501e-01) (17, 5.65144138446867783099e-02) (18, 3.58420256722470298438e-01) (19, -4.87176976503162773025e-02) (20, 4.38198202780976237003e-02) (21, 4.48649123976907426847e-01) (22, 2.25403638569914605005e-01) (23, 3.65920335535409035899e-01) (24, -1.26563504851700831672e-03) (25, 5.92538845038015571376e-01) (26, 2.96524278106907457353e-01) (27, 4.48570976097115159398e-01) (28, 2.93321964435336202115e-01) (29, 3.10173787692677060956e-01) (30, 3.95539946057570535043e-01) (31, 4.50423958936714330381e-01) (32, 4.88071622521957348972e-01) (33, 4.36078759433904783460e-01) (34, 4.09968213543009218913e-01) (35, -1.02631208246892924318e-01) (36, -7.27308236517909822982e-02) (37, 4.17422492560899527358e-01) (38, 3.11397105725329415016e-01) (39, 3.56102159999556688863e-01) (40, 3.30046867525667864118e-01) (41, -1.78862428387213612258e-01) (42, 2.44490706223114695472e-01) (43, -1.75369011873376362542e-01) (44, 3.92824190150993179937e-01) (45, 3.03093763555141559873e-01) (46, 3.52506381395297274661e-01) (47, -2.51755336462806189601e+00) (48, 3.35300740171497579922e-01) (49, 3.72142728439659453699e-01) (50, 2.57349379123596844199e-01) (51, 2.90068349929865909598e-01) (52, 2.68222848187239570894e-01) (53, -1.99790574316813851485e-01) (54, 4.25576003425319815410e-01) (55, 3.99183993624809330125e-01) (56, 3.47300133974278335547e-01) (57, 4.02811716373264017133e-01) (58, 5.51575666077794291020e-01) (59, 4.53153328957855594528e-01) (60, -9.65884459771150505336e-03) (61, 8.87742809877458240522e-04) (62, 5.74543835445500070125e-02) (63, -2.69517278448485851639e-02) (64, -4.05886037424945181340e-02) (65, -3.55227938071631735295e-02) (66, 1.05602747373209057691e-01) (67, 2.51811610899931471313e-03) (68, 5.91947944685078317195e-02) (69, 2.39671977087116717942e-02) (70, -4.61610382572554892033e-02) (71, 1.08648544721231518628e-01) (72, -6.84565437592500516256e-03) (73, 8.21961672826863193331e-02) (74, 8.20618735991484118952e-03) (75, 5.84925176426029855281e-02) (76, 2.08882378264523098366e-02) (77, 5.70541488371855299438e-03) (78, 2.80767964049435138352e-02) (79, 2.33701538732434578594e-02) (80, 6.04570728233243398497e-02) (81, -1.92095352486514638068e-02) (82, 8.24299068971730136690e-02) (83, -6.35481191948794738034e-02) (84, 8.38836045785999878666e-02) (85, -3.16404368290518350770e-02) (86, 9.72574873915366400201e-02) (87, 1.04054561428651867749e-01) (88, -1.78994102553271840217e-02) (89, 1.01731977038011608960e-01) (90, -5.35142360404872105550e-02) (91, -7.66484080032252684811e-02) (92, 1.06836794256804576420e-01) (93, -6.59735514000796691159e-02) (94, -8.02318317965411559323e-02) (95, 8.07492496296025180635e-02) (96, 8.98877890630817993900e-02) (97, 8.11933340355015659151e-02) (98, -4.65483902171992605656e-02) (99, -1.60090012110704360028e-03) (100, 3.08467136546230723260e-02) (101, -2.21130004302405973327e-02) (102, 8.39876146837330445072e-02) (103, -8.29936875180148497799e-02) (104, 6.23371811433888201037e-02) (105, 3.79677178188419992000e-02) (106, 6.05477006956196481258e-02) (107, -3.77300059572600668401e-02) (108, 8.93176960192686164586e-03) (109, 5.42093078476697867729e-02) (110, 6.06874735876179391414e-02) (111, 1.11575430802927075269e-01) (112, -1.45914269760989666336e-02) (113, 9.89881964250660523197e-02) (114, 3.17180143519497359517e-02) (115, 2.43655875324104778668e-02) (116, -4.01660030857467001408e-02) (117, 6.72031553312397861299e-02) (118, 2.04710649176693577911e-02) (119, -5.70871067799562283834e-03) (120, -9.10969210423463737758e-03) (121, 3.05203111692524363396e-02) (122, 9.20889587923145874759e-02) (123, 7.61496784015751743135e-02) (124, -1.52013613060855423686e-02) (125, 4.78970469757176095515e-02) (126, -5.73360486105823005665e-02) (127, 9.01930989547825440189e-02) (128, 1.18843078013640482404e-02) (129, 7.04600291955093660512e-02) (130, -7.24535939983879800907e-02) (131, 8.08712559051955742762e-02) (132, 1.18891909476836234172e-02) (133, 1.53784210542899212742e-02) (134, 7.82498571553373045706e-02) (135, -6.50944394571023182694e-02) (136, -5.79933169182233823613e-02) (137, 7.16580809875584229252e-02) (138, 9.44566937013722046634e-02) (139, 7.01697751280051656986e-02) (140, 7.09711297746879049564e-02) (141, -6.12734786151571814150e-02) (142, -6.96712807739645056948e-02) (143, -6.20130462721728906161e-02) (144, 8.32597597833853869664e-02) (145, 7.51444162651157959720e-02) (146, 8.92311097904301270267e-02) (147, 4.45460142418003732234e-02) (148, 2.19882489963627338059e-02) (149, 9.36667235418415650150e-02) (150, -6.20007646836274930319e-03) (151, -6.74444450215243712643e-02) (152, -1.68651474274629530926e-03) (153, -8.01718366898531049902e-03) (154, -7.69510252036088773092e-03) (155, 5.59163706742292921509e-03) (156, -8.41775698737048522213e-02) (157, -3.52800315395736044377e-02) (158, -1.43121717647456646316e-02) (159, -7.46303183592790433248e-03) (160, 1.06030246786699353101e-01) (161, -1.25477625206851482742e-02) (162, 4.69897599741078073055e-02) (163, 9.40447063966847046634e-02) (164, -5.34797920063876316976e-02) (165, 1.02263426951990185620e-01) (166, 7.86975236459828281221e-02) (167, 6.34602325402266066040e-03) (168, -5.16353679455751248678e-03) (169, -4.63597117141627615422e-02) (170, -3.04750366286181788300e-02) (171, -5.67720545605563398084e-02) (172, -3.07604720965766291474e-02) (173, -5.40390102342509434652e-02) (174, 1.03543719820604382398e-01) (175, -3.54232025898927518209e-03) (176, 1.37965994320875706865e-03) (177, -7.49209610895060912350e-02) (178, -5.93903822974109277255e-02) (179, -3.42974623036762515937e-02) (180, 6.83687495298827413448e-02) (181, 7.89260997768622823978e-02) (182, 3.91468988581753427058e-02) (183, 7.90982158704853915987e-02) (184, -5.67684529118096317668e-02) (185, 1.01282052944860839760e-01) (186, -4.67815903715645686756e-02) (187, -5.21256787852191275090e-02) (188, 6.09711469932652169734e-02) (189, 7.91115822120762729464e-02) (190, -3.46452159956836050481e-02) (191, 5.49935461803532296687e-02) (192, 1.37609304710484166290e-02) (193, 1.71179460211849758522e-02) (194, 3.84470136686421090633e-02) (195, -8.38408632353686705807e-02) (196, 2.37656595035648822434e-02) (197, -3.33807816878699606389e-02) (198, 1.06398886613473950269e-01) (199, -1.67493162826442311408e-02) (200, 3.14302580281353369229e-02) (201, -1.45234031752490520828e-02) (202, 4.22783108278370553523e-02) (203, 1.08577987722978649976e-01) (204, 7.47661905728346561778e-03) (205, -3.32439077652925581152e-03) (206, 6.42253370805836582003e-02) (207, -2.74635976330184390648e-02) (208, -4.34917895273112600774e-02) (209, -2.93130813316249232148e-02) (210, 7.22184540554142578861e-02) (211, 1.12775197796449719312e-01) (212, -5.00668598488711660832e-02) (213, 6.33797855897999529162e-02) (214, -3.86052442864322012395e-02) (215, 9.87996073289967163822e-02) (216, 6.20713444276905709773e-02) (217, -2.98184877411269526337e-02) (218, -2.21126353517913480651e-02) (219, 9.01047052665806397220e-02) (220, -7.30584724024676696041e-02) (221, 4.34569926782704049617e-02) (222, -8.10891775564097777584e-02) (223, 7.09122341564084324173e-02) (224, 1.00770017675981579663e-01) (225, -2.09961919263743947150e-02) (226, 9.40717627974842068861e-02) (227, -2.56325115451064202560e-03) (228, 6.70346837928678107588e-02) (229, -6.93676633910083190182e-02) (230, 7.48245926424122437259e-02) (231, 1.14232546262369213941e-01) (232, 4.34823842569447213680e-02) (233, -5.45520497635745213461e-02) (234, 1.17013842485867394783e-01) (235, -2.58096173057829978564e-03) (236, 1.28778096271096945125e-02) (237, 6.78394212475470909096e-02) (238, 7.38186969753486105228e-02) (239, -1.38163599463449150370e-03) (240, 5.71934503009702138732e-02) (241, -7.17808307060547601264e-02) (242, 7.70613165422535800753e-02) (243, 1.06197349398412826949e-01) (244, -6.22743455842875923145e-02) (245, 9.22373743578053101322e-02) (246, -2.91465981081866602753e-02) (247, 6.97953474214459690383e-02) (248, -7.06245825613409095034e-02) (249, -8.32162218984060370053e-02) (250, -4.97249080017947500676e-02) (251, 1.06677995844936951420e-02) (252, 3.03792428663159606861e-02) (253, 6.26692684217549089709e-02) (254, 1.95292221232510228301e-02) (255, -3.52386510149382894963e-02) (256, 8.12000544591999912081e-02) (257, 6.63861246629811191378e-02) (258, 8.86820169015980347416e-02) (259, 1.56459869667149170658e-02) (260, 9.92906601949787720462e-02) (261, 1.15223473481760083081e-01) (262, 9.80650396867848023197e-02) (263, -8.38508544639491454342e-02) (264, 5.58321239276982003719e-02) (265, 1.07683918051347790601e-01) (266, -1.92415801957988331916e-02) (267, -5.60900507644557164144e-02) (268, 3.17102061434841597798e-02) (269, 9.06318785472965821048e-02) (270, -1.41911860276147435561e-02) (271, 3.75502939206869001953e-02) (272, 7.27780224605656250736e-02) (273, -8.26697437242411986569e-02) (274, 1.06747827105150280835e-01) (275, 4.76743938251591378719e-02) (276, 6.90540842638076839827e-04) (277, -5.69175122455500837049e-02) (278, -7.54693461731814757565e-02) (279, -7.61532722190760985592e-02) (280, 2.91392342969036578781e-02) (281, 8.03189935012913608370e-02) (282, 5.84102483316517526180e-02) (283, 3.81722735091305429012e-02) (284, 9.85230119749165161869e-02) (285, 1.33833126946545262481e-02) (286, 7.04709352775669678470e-02) (287, -5.79372657612704788921e-02) (288, -1.44948674515628338211e-02) (289, -7.80951840952777281979e-02) (290, -8.53611660756105339320e-03) (291, 7.06788213773823364994e-02) (292, 3.61703323050594910404e-02) (293, 5.19425632282353097469e-02) (294, -6.40641762093448058346e-02) (295, 1.05415271445370335723e-02) (296, 1.08676648311243115308e-01) (297, 6.55759038253880405245e-02) (298, 7.24588783976213707261e-02) (299, 6.11487837358570748836e-02) (300, 6.46757842823124790010e-02) (301, -5.66375852549939676206e-02) (302, -5.23031535836206065010e-03) (303, -2.68184287027221843203e-02) (304, -1.25631635523971540817e-03) (305, 9.49899387661523736393e-02) (306, 6.11295612379170114070e-02) (307, -5.83670003489398653285e-02) (308, -3.69642576352500265569e-02) (309, 7.88779171033955478487e-02) (310, 3.82611291333294564754e-02) (311, -8.03512466706270307715e-03) (312, 9.08848108574009522220e-02) (313, 3.81417633815861398250e-02) (314, -1.41933946088695049637e-02) (315, -1.12708522156619514454e-02) (316, 1.07966488771066723706e-01) (317, -7.01897604540728942135e-02) (318, 5.79081388040638619930e-02) (319, -9.34393532648026105616e-04) (320, 3.27932150884724105122e-02) (321, 9.26661701723194702884e-02) (322, -2.23909890428924222838e-02) (323, 1.17594288512325867435e-02) (324, -2.20634466186904569518e-02) (325, -8.31755636409663573483e-02) (326, 5.50134348116880934204e-03) (327, -1.78570432223314223309e-03) (328, -7.51637606099986449459e-02) (329, 5.99031211658573800594e-02) (330, -7.10842548087977782467e-02) (331, 2.41305516882992267258e-02) (332, 9.92150368019199951908e-02) (333, 4.70823883768637582725e-02) (334, 1.07748208880065074466e-01) (335, 5.30248883643292603929e-02) (336, -2.47350801802158383469e-02) (337, -5.58311161837789088347e-02) (338, -1.78452214071446353671e-02) (339, 3.37436339643788982268e-02) (340, 8.66103421282319735353e-02) (341, 4.20080268910235574142e-02) (342, -1.25959151598619908952e-02) (343, 5.55633313831758804402e-02) (344, 4.31346337366334431351e-01) (345, 3.35879234515729985233e-01) (346, 9.54138077106526760751e-01) (347, 1.36882316217191490892e+00) (348, -9.50167657826599953985e-02) (349, 4.93225158996380086407e-01) (0, 3.62811160363073204049e-01) (1, 3.64905606430975970600e-01) (2, 3.06407022446354815326e-01) (3, 3.39546749847849826942e-01) (4, 4.93822260272840263262e-01) (5, 4.51460956408227365166e-01) (6, 4.87932941475378634255e-01) (7, 3.77896156940680905123e-01) (8, 4.06007950041514797945e-01) (9, 3.61110570081244822149e-02) (10, -6.22635253921812042988e-02) (11, -5.08547533729778322709e+00) (12, 4.62669231730652164014e-01) (13, 3.06941495355554261337e-01) (14, 3.41632303411212034927e-01) (15, 3.55318104891825636837e-01) (16, 4.18556382316149222511e-01) (17, 3.83953240159211173221e-01) (18, 4.06418575801357484512e-01) (19, 2.99847190429836985004e-01) (20, 4.32442343583426869191e-01) (21, -1.43656438505802869221e-01) (22, -2.56468499928779146424e-02) (23, -7.55034162971650602003e-01) (24, 4.75274766611547938577e-01) (25, -1.91396443698797352750e-01) (26, 4.10190739599075260280e-01) (27, 3.39665483061965645106e-01) (28, 3.68297244732078254970e-01) (29, 3.87383345697115522022e-01) (30, 4.16169287998748194113e-01) (31, 3.15007369343932808192e-01) (32, 3.39365712676938713344e-01) (33, 2.92310068004866030478e-01) (34, -2.89092945462062246575e-02) (35, -4.18471848386455180790e-01) (36, 4.63739343777077483999e-01) (37, 2.65370001891046702891e-01) (38, 2.60491641145476626740e-01) (39, 3.30086326864487078492e-01) (40, 2.63271103977602005664e-01) (41, 2.73897707515099009257e-01) (42, -9.76510638059122360044e-02) (43, 3.19159548630497669208e-01) (44, 4.61002741051313946752e-01) (45, -8.57284307478212680154e-03) (46, -1.97741673293799768985e-01) (47, -5.41825170307131620540e-01) (48, 2.68564815648919485991e-01) (49, 3.67733412178492924394e-01) (50, 2.77692220209813545040e-01) (51, 2.92971344105674769143e-01) (52, 3.18900311954106563395e-01) (53, 3.20748817542657549406e-01) (54, -1.59429468689044534502e-01) (55, 2.80720020949565052248e-01) (56, 2.58599553630933454151e-01) (57, 4.11270710463586208760e-01) (58, -1.94503903834569780162e-01) (59, -4.76657202372006316704e-01) (60, 5.26779465124088241978e-01) (61, 4.22463871975097882139e-01) (62, 4.53633401570720573570e-01) (63, 5.14047343720873683992e-01) (64, 3.94317701895913308441e-01) (65, 4.98259488930186456024e-01) (66, 4.47782632400473779022e-01) (67, 4.83320285071810906707e-01) (68, 3.64630219032248792388e-01) (69, 5.40825549950083583894e-01) (70, 4.55367048751315284250e-01) (71, 3.89998343278845971405e-01) (72, 5.02805445780238002840e-01) (73, 4.51568309654673760711e-01) (74, 5.09243313660105556551e-01) (75, 4.53061130334815209686e-01) (76, 3.99078932096442406952e-01) (77, 5.20844438060339864904e-01) (78, 4.36036880791828840298e-01) (79, 4.92020059109375684780e-01) (80, 4.00532864912566399784e-01) (81, 3.58088706125697431304e-01) (82, 3.97889273231562812239e-01) (83, 3.63129154726085034977e-01) (84, 5.15268642187759806639e-01) (85, 5.39540850504454549963e-01) (86, 4.49387093715252428083e-01) (87, 3.95752800177535224435e-01) (88, 4.53102966319522071359e-01) (89, 5.21473048938812522302e-01) (90, 3.63858311189713012901e-01) (91, 5.32928420914711264977e-01) (92, 5.10169488858183695079e-01) (93, 4.54201122294863868234e-01) (94, 3.94001597087582755563e-01) (95, 4.20607579421004462716e-01) (96, 3.87309034835299659250e-01) (97, 5.38720009397467447521e-01) (98, 5.02997261952360830151e-01) (99, 5.10923129986723734142e-01) (100, 5.19662265736980155673e-01) (101, 4.94296637266849470116e-01) (102, 4.81763602282680392097e-01) (103, 4.04741763515872821078e-01) (104, 4.49706896886306883854e-01) (105, 4.81986914832515600526e-01) (106, 4.85653077323360327089e-01) (107, 5.03784445594748220287e-01) (108, 5.39875020344180778231e-01) (109, 3.93710561818081006269e-01) (110, 3.87169469175739189293e-01) (111, 4.54406355987986732003e-01) (112, 4.43461326431235480783e-01) (113, 4.90271223257979560373e-01) (114, 4.23068833608550909364e-01) (115, 4.51944862772805378004e-01) (116, 4.13467245376106740107e-01) (117, 4.23558119416878431363e-01) (118, 3.60575744872626613446e-01) (119, 4.34488693242606360823e-01) (120, 4.89365564649638373762e-01) (121, 4.04995394861039359480e-01) (122, 3.94846325289210486886e-01) (123, 4.17938818704089332101e-01) (124, 5.33436698388060404064e-01) (125, 5.06184039186438394786e-01) (126, 4.71011420260867286203e-01) (127, 5.25528215137550658298e-01) (128, 4.07769908901823741054e-01) (129, 4.20669967508312703242e-01) (130, 4.81074640727039815058e-01) (131, 5.00321143253859679234e-01) (132, 5.00952983916484684279e-01) (133, 4.26007156277929344146e-01) (134, 5.29749731845788218720e-01) (135, 4.19654630740222189811e-01) (136, 4.48160473142582505002e-01) (137, 4.35368246069498143758e-01) (138, 4.53067621818132482137e-01) (139, 5.26998987888235292942e-01) (140, 4.30160274438442735701e-01) (141, 4.34664173735680114952e-01) (142, 3.82961673211058784005e-01) (143, 4.72658549915751624582e-01) (144, 3.92172964973749649253e-01) (145, 4.17346096350254547325e-01) (146, 5.02168475402893221826e-01) (147, 5.11782734407486228356e-01) (148, 5.15431171180486313865e-01) (149, 4.10936252694329429147e-01) (150, 4.41377011608084846017e-01) (151, 4.59242058466872382638e-01) (152, 5.17001790474852396251e-01) (153, 4.83854700882358434999e-01) (154, 4.77497224767131689394e-01) (155, 4.29023580616053779035e-01) (156, 4.37216052775916297346e-01) (157, 5.27970479791697422378e-01) (158, 4.37167023788890052316e-01) (159, 5.03879121318504763494e-01) (160, 4.66432644799397166935e-01) (161, 5.03036621690437724119e-01) (162, 3.55253395130118665435e-01) (163, 5.44524226774653286043e-01) (164, 4.19496473361930077850e-01) (165, 4.77666666280230689523e-01) (166, 3.79446496736010718820e-01) (167, 3.93107855241498160836e-01) (168, 3.99511841606101203439e-01) (169, 4.31290378343066382882e-01) (170, 5.33068341683348490001e-01) (171, 5.15347523163756204845e-01) (172, 4.81528607677420783517e-01) (173, 4.87086204360922980783e-01) (174, 4.93565184544524360177e-01) (175, 3.85775779854258704660e-01) (176, 3.69411533247431922433e-01) (177, 5.36251418558189696384e-01) (178, 4.32834589627159815883e-01) (179, 4.82135733347794026571e-01) (180, 5.32784789091656052484e-01) (181, 5.31732784574564854019e-01) (182, 4.70142146121462989328e-01) (183, 5.15816181189129197016e-01) (184, 5.42600745534893680322e-01) (185, 3.69949961384842540557e-01) (186, 5.16246112053927341812e-01) (187, 3.86083463197287757307e-01) (188, 5.42150003384550882579e-01) (189, 5.51034597228964639903e-01) (190, 4.74163909923037696359e-01) (191, 5.08740899633368326427e-01) (192, 4.44144626628359961984e-01) (193, 3.74486675034960914132e-01) (194, 4.33359441827735114572e-01) (195, 5.07938874434431864024e-01) (196, 3.64330222379168788827e-01) (197, 5.33853319953879190685e-01) (198, 5.08471054505308939220e-01) (199, 5.08829382728537393810e-01) (200, 5.31175134252508951427e-01) (201, 4.96232134770354438302e-01) (202, 4.09150337349375892160e-01) (203, 4.25494661103686500070e-01) (204, 5.24633360575636698009e-01) (205, 5.48549545477827860118e-01) (206, 5.07867810796698404552e-01) (207, 3.70082621942958045480e-01) (208, 4.14454744677743125436e-01) (209, 3.76662415932616401193e-01) (210, 4.00978812496861625192e-01) (211, 4.86670149039229560373e-01) (212, 5.00904602478942084787e-01) (213, 5.39437246989210916759e-01) (214, 3.57526523541411678231e-01) (215, 3.84036806892356086252e-01) (216, 5.42417821954687906505e-01) (217, 4.52057821225127387521e-01) (218, 3.71502933572730231759e-01) (219, 4.85588488649329352853e-01) (220, 5.21515113781889749767e-01) (221, 5.40394795607527567149e-01) (222, 4.51008593212565589425e-01) (223, 5.37169975708922220470e-01) (224, 4.51360367094954639811e-01) (225, 4.90116852494204779944e-01) (226, 5.41343117703357412651e-01) (227, 3.88614570270976233957e-01) (228, 4.80651583262217796388e-01) (229, 3.76190008119639540674e-01) (230, 3.75635785531005073068e-01) (231, 5.46425131629904581310e-01) (232, 4.03606731710264843294e-01) (233, 4.72805196209866718249e-01) (234, 4.14188643675705403524e-01) (235, 5.47996411299702335107e-01) (236, 3.38641483730035719457e-01) (237, 5.34900042991217405941e-01) (238, 4.55296456670245319742e-01) (239, 4.43335539463957928330e-01) (240, 4.32603164555896035903e-01) (241, 3.78602071299803943916e-01) (242, 3.65486964030666328096e-01) (243, 5.12905524916028587867e-01) (244, 4.85810358016897037015e-01) (245, 4.42448025972235980952e-01) (246, 4.94833173220690925032e-01) (247, 4.98411399792632270334e-01) (248, 4.36082630231341528138e-01) (249, 4.81833000173052972137e-01) (250, 3.67487003575763027108e-01) (251, 3.89813860427340674875e-01) (252, 4.37438023756941962716e-01) (253, 4.56591819893321204660e-01) (254, 3.74683108617743676483e-01) (255, 4.99409062336882758615e-01) (256, 4.03836147408684897897e-01) (257, 5.09932470988234354259e-01) (258, 4.70740390490492988107e-01) (259, 3.69515155922373939035e-01) (260, 4.77079940508803534982e-01) (261, 5.18352729748686624767e-01) (262, 3.89882301460704017160e-01) (263, 3.87715508710345435617e-01) (264, 3.70389041971167731759e-01) (265, 3.64418593715628902352e-01) (266, 4.19088458191355872628e-01) (267, 4.55447909902533698556e-01) (268, 5.48759368728598428966e-01) (269, 4.34390669237574744699e-01) (270, 4.40290192132529456526e-01) (271, 3.94609214287003684518e-01) (272, 4.32072102072108499282e-01) (273, 4.54320547651251960275e-01) (274, 4.01233652155598807809e-01) (275, 3.69747770499190497873e-01) (276, 3.86534517179927039621e-01) (277, 5.21514473031958414317e-01) (278, 5.29483271311720682384e-01) (279, 4.61024364005526710031e-01) (280, 4.72229776452979255197e-01) (281, 4.01346433764180332560e-01) (282, 5.05731610130270792247e-01) (283, 4.66713206366595412256e-01) (284, 3.98765848473605299951e-01) (285, 4.07726877849301505563e-01) (286, 5.01385790776213813302e-01) (287, 4.26555471018847609521e-01) (288, 4.69098422453054275660e-01) (289, 4.33075601225432593733e-01) (290, 5.38940650891264749767e-01) (291, 4.10274067033452871645e-01) (292, 4.07999552814168831016e-01) (293, 5.44887360213203164605e-01) (294, 4.18184425709648033287e-01) (295, 5.22773248623808695079e-01) (296, 4.85643250416716742990e-01) (297, 4.40910828370971563661e-01) (298, 5.20186894989890902252e-01) (299, 4.69459731160220328228e-01) (300, 3.61936115606841413150e-01) (301, 3.49356329762544659534e-01) (302, 4.03917408048238779639e-01) (303, 4.57802084770885853171e-01) (304, 4.81069151062262834184e-01) (305, 5.44000599299010456633e-01) (306, 4.96088870748099541874e-01) (307, 3.68371427937564110966e-01) (308, 4.20763995935401147186e-01) (309, 3.81183091988047784149e-01) (310, 5.44628051589926553966e-01) (311, 3.99406099240979362008e-01) (312, 4.54045569073161292550e-01) (313, 3.79678075682124305246e-01) (314, 4.85241112779578376291e-01) (315, 4.83240885209044623849e-01) (316, 4.65192248593768287179e-01) (317, 5.21905226181944681407e-01) (318, 4.96738416623076606271e-01) (319, 5.18273276757201029064e-01) (320, 4.54584752689799476144e-01) (321, 4.41683908473452735421e-01) (322, 4.17221670519313025949e-01) (323, 4.80430451702078986642e-01) (324, 4.30323933731517005441e-01) (325, 4.90080697010955024240e-01) (326, 4.22155005406340766427e-01) (327, 3.94949236433705497262e-01) (328, 5.47589895795782877208e-01) (329, 3.79229692291220832345e-01) (330, 5.49205107163389993907e-01) (331, 5.26116890381773782970e-01) (332, 4.82513619135817695138e-01) (333, 4.43282903831061558808e-01) (334, 4.20569370210849613478e-01) (335, 4.23941817257128650276e-01) (336, 4.45857540994562207004e-01) (337, 4.36212801664747296115e-01) (338, 5.22706212259594904523e-01) (339, 4.88324882246319369461e-01) (340, 4.47722646914558541908e-01) (341, -5.23028339075412088133e-02) (342, -1.76853747142985753826e-02) (343, -5.14379780872843000994e-02) (344, -8.88509447870902413502e-02) (345, -9.30855803102764028933e-02) (346, -6.41172137206414693988e-02) (347, 3.46803594194771344639e-02) (348, -4.65125254252147068978e-01) (349, -8.59681342214825838788e-02) (0, -1.45752657249411415874e-01) (1, -1.81184290968253697285e-01) (2, -2.98746461236052765487e-02) (3, -2.24642868850822768900e-01) (4, -9.24796328976979914449e-02) (5, 1.56059379113473884609e-02) (6, -1.98122409652804920555e-01) (7, 6.28788535343962479152e-02) (8, -3.73331979531560595453e-02) (9, -2.09286397370617854863e-02) (10, 1.89996518120731407164e-02) (11, 4.47258018003699753251e+00) (12, -1.26536237415769053927e-01) (13, -1.79249428227803042635e-01) (14, -2.92732272838872042975e-02) (15, -1.31001805435216722717e-01) (16, -5.06456845434075514367e-02) (17, -5.55718278559964168339e-02) (18, -7.23123846630668171143e-02) (19, -8.46776262613866959050e-02) (20, -1.87396549479124374660e-01) (21, -7.35701624845784829532e-02) (22, 4.92951536536492471163e-02) (23, 2.79786587922003260331e+00) (24, -1.69475487027471838353e-01) (25, -4.74988130622156015659e-02) (26, -9.25014898160694820639e-02) (27, -4.80183823244613797177e-02) (28, -1.29468384333345700593e-02) (29, -9.87574088399501837099e-02) (30, -9.56444990005227424490e-02) (31, -4.27672308942094528406e-02) (32, -1.54855162397261408858e-01) (33, -8.48617154356196279341e-02) (34, -1.73691344297583830092e-02) (35, 2.30929258641374390848e+00) (36, -1.14555874622796441398e-01) (37, -1.23888236079808700119e-01) (38, -1.38886685639934726044e-01) (39, -1.13354281235559711805e-01) (40, -1.22422570146058465324e-01) (41, 3.74363430411535844100e-02) (42, -6.23450201841903792199e-02) (43, 1.95486868637671298843e-02) (44, -4.23563164198420133433e-02) (45, 7.08090865830904823974e-03) (46, -5.29938342049150606927e-02) (47, 4.86336140335637434617e+00) (48, -1.90563261699421976347e-02) (49, -9.39953183489339455514e-02) (50, -8.39841097298434646756e-02) (51, -1.31446779923078044261e-01) (52, -3.42326234163577852732e-02) (53, -6.93728865749250883654e-02) (54, -1.43743612200158826786e-02) (55, -5.61975925969968662099e-02) (56, -6.01633637971800139255e-02) (57, 2.92061894493682756846e-02) (58, 2.22290899016912880948e-02) (59, 4.03502708550800903708e+00) (60, 6.21194776068912692113e-03) (61, 4.37958252918500268169e-02) (62, 4.24963334789078620024e-02) (63, 4.99934839298527625151e-02) (64, 5.39462323041578969973e-02) (65, 7.98192265184542587564e-02) (66, 1.27452847751917563990e-01) (67, 7.69906167119166207069e-02) (68, 1.58307564648928422724e-01) (69, 5.23163575857302429184e-02) (70, 5.80498922794481994614e-02) (71, 2.15863187044283942606e-02) (72, 1.78289306554140825067e-01) (73, 8.53838447659632515663e-02) (74, 2.32743222444674567606e-02) (75, 1.48517859372439164911e-01) (76, 1.16664563509764354632e-01) (77, 1.58386496099772233759e-01) (78, 1.79551112545184493596e-01) (79, 4.59115676883976794875e-02) (80, 1.36703250202479142938e-01) (81, 1.48559463414492387567e-01) (82, 1.58614415853640562670e-02) (83, 1.61147108704261188272e-01) (84, 1.01392558247260358706e-01) (85, 5.66661098891706876968e-03) (86, 1.58195171683451658862e-02) (87, 5.57231541901251556381e-02) (88, 1.16011579725088756487e-01) (89, 1.83620718511881608759e-01) (90, 9.03542239397188973182e-02) (91, 1.60419923457445878778e-01) (92, 1.54519555363001603876e-01) (93, 1.87220779451670427118e-01) (94, 1.96681780013384599481e-01) (95, 7.57427999669523389220e-03) (96, 7.79828105300089668983e-02) (97, 3.41122050016543429396e-02) (98, 1.00883883628191645121e-01) (99, 1.32399422320666093622e-01) (100, 1.41383011072298992589e-02) (101, 1.98976659597506239097e-01) (102, 9.05445064809939220707e-02) (103, 1.47673508555106525186e-01) (104, 4.65154090143321263806e-02) (105, 2.47256925719433508226e-02) (106, 1.79298693195166364278e-01) (107, 7.87843141883036446327e-02) (108, 1.04735542793383276661e-01) (109, 1.49471034964392318622e-01) (110, 4.66573761023162114636e-02) (111, 1.22681606739184403260e-02) (112, 1.68049481901469011103e-01) (113, 1.84572559985461015497e-01) (114, 8.92785155236046484850e-02) (115, 1.59366851611065951655e-01) (116, 1.73283973934000162798e-01) (117, 1.98502701911272727564e-01) (118, 1.20105493991992020447e-02) (119, 3.93335953656952994062e-02) (120, 1.80640978011431474481e-01) (121, 1.08515531126778617260e-02) (122, 8.29706985681673836464e-02) (123, 6.55026782482287239784e-02) (124, 8.04912869065424751991e-02) (125, 1.94012087973894853388e-01) (126, 1.37983453664126176630e-01) (127, 6.49531345992705178016e-02) (128, 4.38788583592078021423e-02) (129, 1.60592402056234512253e-01) (130, 5.94081981517606463189e-03) (131, 1.77702572901358379909e-01) (132, 1.08031821210493705898e-01) (133, 1.52730989349536300237e-01) (134, 8.03387299482147959617e-02) (135, 1.56596314068086273075e-01) (136, 3.83291006390374180968e-02) (137, 9.91128295962136057762e-02) (138, 9.02202028959414314979e-02) (139, 1.30271706770574480228e-01) (140, 8.08670813128107290879e-02) (141, 1.08795441119348385017e-01) (142, 7.81632859438082527870e-02) (143, 6.81972116534035610602e-02) (144, 9.23640936915200022606e-02) (145, 6.42533648937365364784e-02) (146, 8.42369705740731028465e-02) (147, 7.17248071163317374443e-02) (148, 5.45386426046543595914e-02) (149, 1.70789335101267890360e-02) (150, 2.26647455423495368387e-02) (151, 1.03384134563746149515e-01) (152, 1.54174831899943132196e-01) (153, 1.93115648586859478542e-01) (154, 1.55645084340681805202e-01) (155, 1.88001197966875810419e-01) (156, 1.14091871709040892924e-01) (157, 4.34851139691492735717e-02) (158, 1.87410682880572693199e-01) (159, 2.71341978437226356846e-02) (160, 1.74739944828204513128e-01) (161, 1.84638681901149154241e-01) (162, 1.51831579598727006708e-01) (163, 1.03056479423663163025e-02) (164, 1.83890858546080365743e-01) (165, 5.91884490280768157944e-02) (166, 1.57228213939013261591e-01) (167, 1.11515571567358653948e-01) (168, 1.92256543963572577860e-02) (169, 1.02670003864111597514e-01) (170, 1.51762944850268144403e-01) (171, 5.67551713615080596909e-02) (172, 6.11946221619269134506e-02) (173, 7.50552166431567024940e-02) (174, 3.00636414616724974291e-02) (175, 5.66451300113817932114e-02) (176, 1.16670403807780289490e-02) (177, 6.49612222045084786171e-02) (178, 1.79804110349764595389e-01) (179, 5.72649779470583639163e-02) (180, 5.79177978189608297366e-02) (181, 2.97337665749690220618e-02) (182, 1.96618703398051042353e-01) (183, 1.47374654069723859395e-01) (184, 1.30307267144697286332e-01) (185, 4.67543478328199743621e-03) (186, 1.85351905186285748073e-01) (187, 7.02171593500277024802e-02) (188, 2.00901207718195640162e-01) (189, 1.23719585332216885920e-01) (190, 1.32072580251040211374e-01) (191, 1.20842588338198358988e-01) (192, 1.78456080350222368036e-01) (193, 8.83541602819582772010e-02) (194, 1.45486188325228471552e-01) (195, 1.63272199425043840204e-01) (196, 9.29722089498659920448e-02) (197, 1.60969135555567521845e-01) (198, 1.85246256384196061884e-01) (199, 1.08381260364672684510e-02) (200, 1.33407217654528398310e-01) (201, 1.52249974402727861200e-01) (202, 4.22624286442419769272e-02) (203, 8.16676590769907784217e-02) (204, 1.65396196040453691278e-01) (205, 1.90656420548071636745e-01) (206, 2.36107121478220972899e-02) (207, 4.06147881938120694501e-02) (208, 7.36190870000025393560e-02) (209, 1.76777031977286114284e-01) (210, 1.52321514446844830104e-01) (211, 1.28295731504072862972e-01) (212, 1.27255891223063188900e-01) (213, 5.07369868053099484784e-02) (214, 1.97372090776076092311e-01) (215, 9.36298563672205569342e-02) (216, 9.78108092738291384771e-02) (217, 1.67098876793494000026e-01) (218, 9.14608135415217043951e-02) (219, 4.27064530147215695721e-02) (220, 2.82250538064143206840e-02) (221, 3.92404391957423340220e-02) (222, 1.75517515828909648201e-01) (223, 5.75189058445621098636e-02) (224, 4.79457738583525139298e-01) (225, 5.67459996697347923700e-01) (226, 6.01216101565935745477e-01) (227, 5.53954007809599469070e-01) (228, 6.25699377829507685789e-01) (229, 1.11994871487917591057e-01) (230, 2.97001540568492018723e-02) (231, 1.02097422934641524073e-01) (232, 1.66099684275453712834e-01) (233, 1.73552954593539560113e-01) (234, 1.67383362926377426971e-01) (235, 6.03759331445522962056e-01) (236, 6.15877823369825438959e-01) (237, 5.96889854915708450989e-01) (238, 5.22271706691089243613e-01) (239, 5.44692733472055268251e-01) (240, 5.54582557677034237997e-01) (241, 1.60390684481675704909e-01) (242, 1.85245583582095502129e-01) (243, 7.96586305133752115015e-02) (244, 3.55321966007404940746e-02) (245, 1.78391518039910906834e-01) (246, 5.52604660558872473608e-01) (247, 4.75671793108423668350e-01) (248, 6.83545041087699062343e-02) (249, 3.93512585836343561918e-02) (250, 1.79605917623343241951e-01) (251, 1.68379338076414836189e-01) (252, 8.37259573199412160394e-02) (253, 1.90662679035773052760e-01) (254, 1.28323906482805921714e-01) (255, 2.92519524289271380668e-02) (256, 9.83866422964235903814e-02) (257, 4.51010025633475156170e-02) (258, 7.36773807733675789589e-02) (259, 7.24742903901239993170e-02) (260, 1.36210140545477642604e-01) (261, 1.44584712345709576198e-01) (262, 9.61413800312182070806e-02) (263, 1.09001566429247520595e-01) (264, 5.02468131078383298260e-02) (265, 1.59054067690481915065e-01) (266, 8.24699818683764102056e-02) (267, 1.36167086392362218783e-01) (268, 1.29121862083394572940e-01) (269, 1.19109770747273371883e-01) (270, 1.23779392183988118381e-01) (271, 1.73881865769345861361e-01) (272, 2.00809399631970336708e-01) (273, 1.24063292136492420159e-01) (274, 6.35083481577059655310e-02) (275, 1.16677114358248401604e-01) (276, 1.23952844298948886004e-01) (277, 9.12250812421938617192e-02) (278, 3.52384268833300720591e-02) (279, 1.13684022417368579827e-01) (280, 2.00144709072999707478e-02) (281, 2.73737744413308850544e-02) (282, 1.14471265664400745354e-01) (283, 5.04492722359320341918e-02) (284, 3.28240036872050264249e-02) (285, 2.05641476901619851825e-01) (286, 5.96774756816050230834e-02) (287, 1.31917311342804849383e-01) (288, 1.77491949058642156656e-01) (289, 1.24966248601396129336e-01) (290, 7.60679569126885279928e-02) (291, 1.31608828633744762149e-01) (292, 1.17181902871336618421e-01) (293, 8.35009461658649670968e-02) (294, 1.37528574484043642628e-02) (295, 1.58588120164026985526e-01) (296, 8.05189698842188744665e-02) (297, 1.48419425193589190476e-02) (298, 1.45114124219246160008e-01) (299, 1.70680851142235051610e-01) (300, 7.55538741340439495842e-02) (301, 5.17565426044887422208e-01) (302, 6.30707679258036835179e-02) (303, 5.60835313068080709709e-02) (304, 1.56614940462606044846e-01) (305, 1.05592987994916454042e-01) (306, 2.68894681920807850084e-02) (307, 1.45472663103560800879e-01) (308, 1.72182866753687630057e-01) (309, 1.66704708160509834647e-01) (310, 9.53907414866587283209e-02) (311, 9.30868506027361514166e-02) (312, 1.71589609940161480495e-01) (313, 1.67566594441046490260e-01) (314, 1.52602624852766766139e-01) (315, 5.32423413885733456952e-02) (316, 1.04866598506083166797e-01) (317, 1.53700020868887676784e-01) (318, 9.71271067453524233892e-02) (319, 7.60744630886217715338e-02) (320, 4.43236648632189603192e-02) (321, 8.66234000455350962311e-03) (322, 4.87391583217284055096e-02) (323, 2.01675046413561827319e-02) (324, 1.32246894034685869013e-01) (325, 5.03655232084891171795e-02) (326, 1.54521298798861284052e-01) (327, 1.61879553986689593559e-02) (328, 1.32162329944910783563e-01) (329, 2.93267417877337531473e-02) (330, 7.15863902300020865654e-02) (331, 1.29778267433943467202e-01) (332, 1.14469204802622459560e-01) (333, 1.44812133867850079127e-01) (334, 1.19196405606250041553e-01) (335, 1.19094814923403985452e-01) (336, 1.52902303398801703294e-01) (337, 1.82817127184583289035e-01) (338, 2.19045301922056706578e-01) (339, 2.24167507030603868623e-01) (340, 1.51791263260481368302e-01) (341, -5.18331930130918674959e-02) (342, -2.76573463573721312070e-02) (343, 4.07709478820261414511e-02) (344, -9.93518156675038260905e-02) (345, -2.74707523767312097873e-02) (346, -3.25650192301833507624e-01) (347, -3.65010268902052792406e-01) (348, 7.46922817080739931406e-01) (349, 3.23817292963220038082e-01) (0, 5.87190951184302645238e-02) (1, -3.28048595599925371658e-02) (2, -2.63512145331796614200e-02) (3, -3.60807437142725673240e-01) (4, 9.93969971143926905865e-02) (5, -3.35265065916800941714e-01) (6, 5.37480868086485860657e-02) (7, 3.95690327197108573931e-03) (8, 8.89009431627522939134e-03) (9, 5.98160247411005790985e-02) (10, 1.71990032905501577520e-02) (11, 1.17687900216575114243e+00) (12, -3.05444277607913351746e-02) (13, 3.19804296279511887646e-02) (14, -5.13505734906127483952e-02) (15, -7.86332929352959869584e-02) (16, 1.06320805371081100743e-01) (17, -8.99205193716526435255e-02) (18, 7.92512725127659800606e-02) (19, 1.11301775688094316263e-02) (20, -4.92584084822424161931e-02) (21, -3.08128487308074183737e-02) (22, -8.76485398326069808927e-02) (23, 5.19626629184595234534e-01) (24, 5.73548242372466827999e-03) (25, 1.16921749995330725991e-01) (26, -2.09878814510797047366e-02) (27, -1.85821805113341002869e-02) (28, 1.30803233385753643961e-03) (29, -1.63559428407337378863e-02) (30, -1.35671063595664276313e-02) (31, -8.77521139191991539352e-02) (32, -5.07976437698067218030e-02) (33, -5.66228714103819280590e-02) (34, -1.52553734360330334879e-03) (35, 5.18656428236006106225e-01) (36, 1.16932766345736446900e-01) (37, -5.31450422780036027537e-02) (38, 3.96195927770535555323e-02) (39, -6.59799020632265836861e-02) (40, 6.02758866253167782667e-02) (41, -4.63546678698061390134e-02) (42, -2.10401731089044363721e-01) (43, -1.23515132340024629681e-02) (44, -4.30973171355249415337e-02) (45, 6.81973777898195188119e-02) (46, -1.46708969861350322500e-02) (47, 9.87950548697415276145e-01) (48, -6.47156657109131949746e-02) (49, 6.44707653114489753071e-03) (50, 2.74019437891043805833e-02) (51, -3.29488099222700003832e-01) (52, 5.60636920522130655087e-02) (53, -2.53972783155001040345e-02) (54, 1.02421382325857424078e+00) (55, 7.80966913371110710296e-02) (56, -8.08956764353740143125e-02) (57, -5.79787792722165698511e-02) (58, -4.75720548577687266101e-02) (59, -6.36564209540902092854e-01) (60, 3.49710666658041346988e-01) (61, 1.67293329416358549366e+00) (62, 3.87346638823887687297e-02) (63, 4.19104124674012576413e-02) (64, -1.29480604105045027374e-02) (65, 7.42357950634907060028e-02) (66, -2.75458354961933653271e-02) (67, -1.04624019937996970420e-01) (68, 7.57486562716899458625e-02) (69, -3.49162776482166634096e-02) (70, 1.96511636960445094935e-02) (71, -6.53554793906273162607e-02) (72, 2.80655066955028294207e-02) (73, -4.55301885020794189218e-02) (74, 3.17343215930400851521e-02) (75, 1.62402729976115732524e-02) (76, 7.62609052538258582604e-03) (77, 2.92036424863277230268e-02) (78, -1.29965235281229191111e-01) (79, -1.85500531220468903304e-03) (80, -5.32502204062941797424e-02) (81, -3.93533219111027038339e-02) (82, 4.63108162867961609122e-02) (83, -9.86877529644998412184e-03) (84, 5.92299506185051602425e-02) (85, 1.39170439219441985368e-03) (86, -7.24648867261471207879e-02) (87, -5.98297302138866560206e-02) (88, -1.00724387587314972992e-01) (89, -1.72640566241802559388e-02) (90, -9.94308177840770857081e-02) (91, -7.61768814635338242791e-02) (92, -4.73049615037502563242e-02) (93, 3.05560636400563313472e-03) (94, 1.29088352906642587353e-02) (95, 2.98939199423757257651e-03) (96, -3.33660364034179188208e-02) (97, -4.59477562916340148691e-02) (98, 1.35378580081401481139e-02) (99, -2.48426467063430321536e-02) (100, -6.55338614010843832636e-03) (101, -1.91262259962562061744e-02) (102, -1.17444742144352354263e-01) (103, -3.62679247272075927500e-02) (104, -4.21219839430450604389e-02) (105, -7.22554585341075306104e-02) (106, -1.09461311816697257071e-01) (107, -8.69854424607815202020e-02) (108, -1.17407850320521381371e-01) (109, 2.55535070835455513372e-01) (110, 4.40262023985675196580e-02) (111, 3.18532145069207600629e-02) (112, 4.91091415402886283248e-02) (113, -9.87241014721397108778e-02) (114, -1.18889968515640653823e-01) (115, 1.23194842347710581398e-01) (116, 8.48124796937076430581e-02) (117, -1.31107752013445100214e-01) (118, -4.11494522118601400995e-03) (119, -3.61291587235930897193e-02) (120, -9.89468738319877333387e-02) (121, -7.62570172431472625973e-02) (122, -1.27838712918996982859e-01) (123, -6.14546954514983423401e-02) (124, 5.48103705165383231490e-02) (125, -7.84050084533694929823e-02) (126, -2.91583061101439895701e-02) (127, 6.01542696473595234208e-02) (128, -4.50195618322271756684e-02) (129, -1.56539775779623614727e-02) (130, -6.57435017043764696743e-02) (131, -6.67164691041130381022e-02) (132, -1.00421411745787156344e-01) (133, -2.26146995904448998294e-02) (134, 3.85365888593193761658e-02) (135, 8.10585470175712030638e-03) (136, -4.10899713518622644592e-02) (137, -7.53623217227462616208e-02) (138, -9.07036185147765822157e-02) (139, -1.31893013406038456248e-01) (140, -1.99065058255228468156e-03) (141, -1.33174893248319797801e-01) (142, 6.66617791640697066047e-02) (143, 4.19651459443507873770e-02) (144, -3.42306081664623534921e-02) (145, -6.95557638885978407606e-02) (146, -9.98469263198379225477e-02) (147, 5.62623798031033073297e-02) (148, -1.01442585956440234352e-01) (149, -1.23706367600202857271e-01) (150, -9.04705076241525511793e-03) (151, -1.30080249893903904246e-01) (152, -1.34905603516340427683e-01) (153, 1.52354779598781794187e-02) (154, -7.04229569905258923068e-02) (155, -8.03224377217296309217e-02) (156, -5.53716838243010767151e-02) (157, -1.08119611430406895036e-01) (158, -2.92071287047924559033e-02) (159, -2.54457635874797763464e-02) (160, -5.09493395569327600647e-02) (161, 1.82721868274208672223e-02) (162, 2.43633642909523544240e-02) (163, 1.19993727195201582009e-02) (164, -8.21930810692313856824e-02) (165, -9.52775709214214033826e-02) (166, -6.35654180073771078729e-03) (167, -1.10492621350527134294e-01) (168, -1.25682611751795014765e-01) (169, -2.37746953847411644778e-02) (170, -5.76082289102080591370e-02) (171, -9.76405374588969893201e-02) (172, -1.20645929861307441011e-01) (173, 2.76752516744133529591e-02) (174, 6.19012817857262226395e-02) (175, -1.01399776327848759050e-01) (176, -1.02137629676103916521e-01) (177, -1.03303034591913547868e-01) (178, -7.19989374628443312698e-02) (179, -7.42327137435696005063e-02) (180, -1.14001906062385777174e-02) (181, 4.14041809489112885845e-02) (182, 7.65099493449513806675e-02) (183, -3.97201305772087176482e-02) (184, 5.78023470589738436187e-02) (185, -1.06060531723738041276e-01) (186, -3.30369615508948055727e-02) (187, 6.85202561070304416724e-02) (188, -4.53384666466745932245e-03) (189, -7.63944133999351349118e-02) (190, -3.70355740072730449386e-02) (191, -1.33074817049741916941e-01) (192, -6.45613789441589064344e-02) (193, 4.07605275628563634704e-02) (194, -1.39653727295401958175e-02) (195, 7.76694269156424921263e-03) (196, 6.27297863481041106937e-02) (197, 2.32091054437157280621e-02) (198, -6.98287773371069351094e-04) (199, -1.22594058396819499679e-02) (200, -1.19956743705511403864e-01) (201, 1.07909843442436925720e-02) (202, -1.12116050708532644098e-01) (203, -1.06504455091956488910e-02) (204, -6.50302093935073988185e-02) (205, -1.03292996685583310379e-01) (206, 1.67100106667687729745e-02) (207, -9.28149173665830939939e-02) (208, -7.82655800391028055873e-02) (209, 5.24751668166329662824e-02) (210, 1.22899984311272934823e-02) (211, 2.00002764653375124382e-02) (212, 1.61990418321034217175e-02) (213, -1.05715761582929806961e-01) (214, -1.02765383820612149490e-01) (215, -1.15697438519079431885e-01) (216, -6.47220710922071923443e-02) (217, 7.82364134978463521275e-02) (218, -1.85902367044279773212e-02) (219, 1.60743718337228135018e-02) (220, 2.40611260127236784023e-02) (221, 5.73917155455758373761e-02) (222, 4.46305995177438061261e-02) (223, -1.75908280921812210096e-01) (224, -1.21711415929717139961e-01) (225, -2.06687518055570618181e-01) (226, -5.26653901073214983364e-02) (227, -1.50824714514530389131e-01) (228, -5.08609786960360979458e-02) (229, 1.45723115193782462584e-02) (230, -2.55160440218510191357e-02) (231, 1.12252359580209092049e-02) (232, -6.58129111641505559760e-02) (233, 7.59912362004956376538e-01) (234, 5.75533924279912068034e-02) (235, -9.68985098704513991841e-02) (236, 1.90403305178233561712e-01) (237, -4.58611505699733079666e-02) (238, -6.05158850433829553772e-02) (239, 3.73376990460282873197e-02) (240, -6.07232526275393938442e-02) (241, 5.76759440215540361563e-02) (242, -9.31887410464290327772e-02) (243, -9.95707821368786299976e-02) (244, -1.05565577778506031192e-01) (245, -6.41710778387381552967e-02) (246, -1.14682804964596318786e-01) (247, -1.55934363486770095897e-02) (248, -2.92313924385434360798e-02) (249, -9.84675930580619501731e-02) (250, -1.15479682548952411469e-01) (251, -3.71740057947638827263e-02) (252, -5.54801202035528004397e-02) (253, -3.53880555146792730170e-02) (254, 7.98226987186809872066e-02) (255, -4.22970288837592328646e-02) (256, -3.11877454329321616988e-02) (257, -1.10427106421072201980e-01) (258, -8.62911591935942023923e-02) (259, -3.33695660043547420726e-02) (260, 2.93908610230824325626e-02) (261, 1.85778036004444827012e-02) (262, 8.34558650142094293756e-02) (263, -1.20375672977049097412e-01) (264, -9.18274248648474067380e-02) (265, -7.18841657751658758002e-02) (266, -1.20313497881967768066e-01) (267, -5.03861221162366298976e-02) (268, -7.93841703207077420412e-02) (269, -4.74006370434331344987e-02) (270, -9.58161676803106175659e-03) (271, -7.81845560640873349367e-02) (272, -9.15242129613215299466e-02) (273, 1.74980055081782916171e-02) (274, -5.33990670454563415293e-02) (275, -1.87116364646742541766e-02) (276, -2.43759254623244041305e-02) (277, -2.40670690942595237594e-02) (278, -3.30632949877569942698e-02) (279, -3.37509939777205086875e-02) (280, 6.25591167836604677976e-02) (281, -5.78988700814860729471e-03) (282, 5.25357314973293049176e-02) (283, -6.71449479229757895116e-02) (284, 6.06519320636211348163e-02) (285, -5.97260928124965784214e-02) (286, -5.15125297455618427755e-02) (287, 3.84531357913432819684e-02) (288, 3.49351799746995053675e-02) (289, 6.01843011887980214314e-02) (290, -1.22508916851955806937e-01) (291, -4.41872513265194194476e-02) (292, -8.21698717751720431046e-02) (293, -9.33671204649226121886e-02) (294, 4.77626321374914758477e-02) (295, 7.10566368311460472285e-03) (296, 6.52575963520425766928e-02) (297, -6.19554023035265299946e-03) (298, 3.55983740499916934130e-02) (299, 3.70739255968576680855e-02) (300, -5.71810998834886216602e-02) (301, 3.84728704754254413611e-02) (302, -2.33661688505203222338e-03) (303, -4.03483771707239327609e-02) (304, 2.85145375142051814288e-02) (305, -5.76710484742230730659e-02) (306, 3.83938600532316310493e-03) (307, -9.39274827726579997211e-03) (308, -1.83304647691942480987e-03) (309, 6.37280239945789972467e-02) (310, -8.62921948242971748044e-02) (311, -5.08208001662085254169e-02) (312, -8.31499869633505472866e-02) (313, -3.97504816461394031024e-02) (314, -2.41891394067595237594e-02) (315, -8.47616593051741251674e-02) (316, 7.29789112996270528111e-02) (317, 1.84497659396340753235e-02) (318, -5.28591672588179309344e-02) (319, 5.80283527564217846417e-02) (320, -5.52888239432165681797e-02) (321, 2.27367853116204714226e-02) (322, -6.67842726785911056098e-04) (323, 3.76013939570596297801e-02) (324, 2.87111674737145876335e-02) (325, 1.05884944390466050057e-02) (326, 2.24573485107591036547e-02) (327, 5.23917501162698071027e-02) (328, 9.71167008592389337240e-03) (329, 3.57148771475961288036e-02) (330, -7.78845163691828379360e-02) (331, 5.69903676699807446027e-02) (332, -1.00920195381719784988e-01) (333, -9.40125764125445129160e-02) (334, -2.92916455710570539095e-02) (335, -5.99622924584012825799e-02) (336, -1.16364001373022302177e-01) (337, -1.54267183581560329841e-01) (338, 3.08018089854551826989e-02) (339, 1.13891369944398510028e-02) (340, -7.72612071013616258375e-02) (341, 7.68893571262758424023e-02) (342, -1.05455564858182755661e-02) (343, -1.25611313042242184190e-02) (344, 1.27262353707235348343e-01) (345, 5.60909116573150012819e-01) (346, 5.79509895907444616547e-01) (347, 6.89387604946012033658e-01) (348, 2.92845756243067967262e+00) (349, 4.50243660894402375483e-01) (0, 3.08878055242873428288e-01) (1, 3.29545329731909808491e-01) (2, 4.05313818066241615679e-01) (3, 4.54275118045259274080e-01) (4, 3.80299447869915874243e-01) (5, 4.26605269573433421026e-01) (6, 3.50374448188386145020e-01) (7, 4.95018331927372601253e-01) (8, 3.00558263898398736469e-01) (9, 2.64089428482737920145e-01) (10, 2.53229350219124627053e-01) (11, -1.10523762824515681125e+00) (12, 4.87939634690967738440e-01) (13, 3.32289086455640148010e-01) (14, 3.44471202006421284292e-01) (15, 4.91357816961899174224e-01) (16, 3.16081723978031747802e-01) (17, 2.92707646184663994315e-01) (18, 2.41263273591134863594e-01) (19, 4.86355616965539860885e-01) (20, 3.21649468410435401822e-01) (21, 4.29589849311856286640e-01) (22, 3.21298927579543980304e-01) (23, 5.41378567731276294506e-02) (24, 4.36497006345159810348e-01) (25, 3.97301422855307839743e-01) (26, 3.71717401110883916004e-01) (27, 3.75496232801180107597e-01) (28, 2.68435441777289895970e-01) (29, 3.44568232154972342585e-01) (30, 3.24969723295478407632e-01) (31, 3.69258350007739877263e-01) (32, 3.71649249034610607012e-01) (33, 3.85726415054022941931e-01) (34, 4.29403001349696500366e-01) (35, 2.25891926025713979387e-01) (36, 3.56477445237842416326e-01) (37, 3.14581043888590039526e-01) (38, 4.01517807093680900721e-01) (39, 4.14752162293033133089e-01) (40, 3.99756865746996092881e-01) (41, 3.39674919713995160375e-01) (42, 3.45378533543219179425e-01) (43, 4.11008985503202639578e-01) (44, 4.20985426414827279551e-01) (45, 2.83664883878013862617e-01) (46, 2.63071311484863123997e-01) (47, -2.36196137931129396259e-01) (48, 3.36206033257970993144e-01) (49, 3.03700654451577678472e-01) (50, 2.41135518366918571997e-01) (51, 3.60629597848662719617e-01) (52, 4.22548011043135163245e-01) (53, 3.58806081130199627793e-01) (54, 2.39604618649508521733e-01) (55, 3.19000724952246683674e-01) (56, 3.43563842471451663663e-01) (57, 3.10844301451339843911e-01) (58, 2.94575810021829531671e-01) (59, -2.50785075442956119363e-02) (60, 4.96326618827241383691e-01) (61, 4.80874993837731745661e-01) (62, 4.01482110737593989036e-01) (63, 3.73237264822991743340e-01) (64, 5.07595723043950286524e-01) (65, 4.70233832966359510674e-01) (66, 5.30001191380569780520e-01) (67, 5.43229488614151323489e-01) (68, 4.71114752772400557923e-01) (69, 4.38842816236565291810e-01) (70, 4.44342588964054763245e-01) (71, 4.79123039129326522279e-01) (72, 4.34171160641262710023e-01) (73, 5.27819139841148698977e-01) (74, 4.69445412936756789613e-01) (75, 3.82287314119885146546e-01) (76, 5.16072867396423662356e-01) (77, 4.49719129088471114564e-01) (78, 4.41462939154179945245e-01) (79, 3.76572047840627088799e-01) (80, 3.56357505503247073975e-01) (81, 4.97864260500124056197e-01) (82, 3.48318389778783932265e-01) (83, 5.30974446957757750809e-01) (84, 4.28815120099134083897e-01) (85, 3.51688577955415859755e-01) (86, 3.73669243579557441848e-01) (87, 4.02719698076894783156e-01) (88, 4.53591264014890693801e-01) (89, 4.52044203108003639358e-01) (90, 4.50702666466882728713e-01) (91, 5.03444670861413756668e-01) (92, 5.38375555699518004715e-01) (93, 4.37590887728283584046e-01) (94, 4.02208918254645719781e-01) (95, 4.19359772628000282424e-01) (96, 5.23479326790025512040e-01) (97, 4.76754447403500258851e-01) (98, 4.25209311726639449525e-01) (99, 5.05978969815323198489e-01) (100, 4.00659696679385557427e-01) (101, 3.97476421627352416444e-01) (102, 3.97277844209594610536e-01) (103, 3.81334146033795728936e-01) (104, 3.74932610974616609134e-01) (105, 5.19124758710248435101e-01) (106, 5.03142257701428508021e-01) (107, 4.21814581337521254945e-01) (108, 4.51854192995926384757e-01) (109, 4.21541745390893785039e-01) (110, 5.21899116505963767132e-01) (111, 5.32721487763473833255e-01) (112, 4.63346300604889571595e-01) (113, 4.74348222795078933167e-01) (114, 3.82554975818665876641e-01) (115, 5.13061507856160448071e-01) (116, 3.65636398774048410054e-01) (117, 5.28491182210991228274e-01) (118, 3.64408312323639682617e-01) (119, 4.23678575041840255189e-01) (120, 3.78948545041630446839e-01) (121, 4.01290150317499816346e-01) (122, 4.96708122971604049134e-01) (123, 3.86387420776436507630e-01) (124, 4.26574861589024245667e-01) (125, 4.56839686217854201722e-01) (126, 5.17877383115837419680e-01) (127, 3.78355709794113814759e-01) (128, 4.38627996826073174308e-01) (129, 5.44749425136944243064e-01) (130, 5.27537958109280058494e-01) (131, 4.53413730445454299378e-01) (132, 5.37619559052536333255e-01) (133, 3.84270207850964884422e-01) (134, 4.94325695862157132865e-01) (135, 4.72448543698849199313e-01) (136, 3.98318595414808296340e-01) (137, 4.84379320567300819533e-01) (138, 5.04329861341065943670e-01) (139, 5.28836550738813304662e-01) (140, 4.09409134810617469924e-01) (141, 4.82321937013687640494e-01) (142, 5.27656419160911882571e-01) (143, 5.34675640943596208743e-01) (144, 4.88327802358216878087e-01) (145, 3.81346034979274772780e-01) (146, 4.26519937043836616652e-01) (147, 4.64298545544794105666e-01) (148, 4.25354138882977683700e-01) (149, 5.46704752328941667727e-01) (150, 4.79947177651474654603e-01) (151, 4.85238773706505477357e-01) (152, 4.21278422656605422425e-01) (153, 4.39518516841480910706e-01) (154, 3.99755609702142133965e-01) (155, 4.02455283287117659974e-01) (156, 4.79094808879444777894e-01) (157, 3.59636476221630863037e-01) (158, 4.22389072846444502130e-01) (159, 4.02360686926873545310e-01) (160, 5.39539297591717925684e-01) (161, 5.45691152583630767481e-01) (162, 5.41166333439895952395e-01) (163, 3.95686073186943709779e-01) (164, 5.08996261241981828860e-01) (165, 5.13241691473076189212e-01) (166, 4.66314410749027907777e-01) (167, 3.59425520482609561768e-01) (168, 4.77841278496334731507e-01) (169, 4.91518450859139144349e-01) (170, 3.63696536007473758545e-01) (171, 4.60915071847984969544e-01) (172, 4.12708392324993789124e-01) (173, 4.03087535831282317567e-01) (174, 5.05330456379005643619e-01) (175, 5.02104727509567805299e-01) (176, 4.87296817782471358704e-01) (177, 4.10654606255839049744e-01) (178, 4.86129419290920739005e-01) (179, 5.01299591147800871482e-01) (180, 4.65333400252411544251e-01) (181, 4.71511660101959884095e-01) (182, 5.09568823459694231204e-01) (183, 5.37433521234890410057e-01) (184, 3.69374239230057355154e-01) (185, 3.95884765270302474427e-01) (186, 4.48401575866291701722e-01) (187, 4.97540071456393395710e-01) (188, 3.81062647286007583070e-01) (189, 5.33075464847633684329e-01) (190, 4.12410626146147429871e-01) (191, 3.98479709359953582215e-01) (192, 4.61628479841301619935e-01) (193, 4.03042631182024657654e-01) (194, 5.50647763493606889895e-01) (195, 5.49962101462433183841e-01) (196, 4.26167128565857589173e-01) (197, 4.04003465506384551453e-01) (198, 4.99354256275246322083e-01) (199, 4.60035962942192733216e-01) (200, 4.37672143760273635316e-01) (201, 3.68820531251976668763e-01) (202, 3.79887526813099563050e-01) (203, 3.82872624280998885560e-01) (204, 5.53293092134544695071e-01) (205, 4.09871718481371549725e-01) (206, 3.55609590754101534404e-01) (207, 3.72140100184033095765e-01) (208, 3.71826244476387679505e-01) (209, 4.96892495039055526185e-01) (210, 4.85372943761894881654e-01) (211, 4.76240104022572219300e-01) (212, 3.80574358585426986146e-01) (213, 5.26394752743789995364e-01) (214, 5.29605535748550737551e-01) (215, 4.93500066879341781068e-01) (216, 4.68654399695942580628e-01) (217, 4.87602559807846724915e-01) (218, 5.49202917101929033450e-01) (219, 4.66485140803406417298e-01) (220, 4.28793197455952346253e-01) (221, 5.40340198162147844485e-01) (222, 5.10705230715820635012e-01) (223, 4.35005009024104272175e-01) (224, 5.52910069160899020346e-01) (225, 4.24076929538211022663e-01) (226, 4.85440429532218054032e-01) (227, 4.53735004352053827859e-01) (228, 5.19325891033705522304e-01) (229, 4.60299998371562157917e-01) (230, 4.87020967486450850892e-01) (231, 3.74618684831211745667e-01) (232, 4.29378011198861320175e-01) (233, 3.59369051223963786867e-01) (234, 4.15913631897827595907e-01) (235, 5.39043502294918486228e-01) (236, 4.24987933663806105589e-01) (237, 5.39199168019732333335e-01) (238, 3.84784467368086968708e-01) (239, 4.95367037346137295550e-01) (240, 4.28551988200244093896e-01) (241, 4.22588541785491211833e-01) (242, 3.78254959517033917393e-01) (243, 4.69159731513833389016e-01) (244, 4.45827586395985131507e-01) (245, 4.10863260189253065580e-01) (246, 5.25200272545406687819e-01) (247, 4.80927730674190423432e-01) (248, 4.44017139031848140363e-01) (249, 4.70880891369303888894e-01) (250, 4.91508392575333297181e-01) (251, 3.94687661859343230653e-01) (252, 5.28154883774444861011e-01) (253, 4.66896651270935714173e-01) (254, 5.45218674424240434817e-01) (255, 5.03391994121620500735e-01) (256, 5.22267816546509111575e-01) (257, 3.68218583944390109863e-01) (258, 4.62866781237671554017e-01) (259, 4.15052117738077819276e-01) (260, 3.94097788217613875794e-01) (261, 4.14670417043516814637e-01) (262, 3.78840124192784011292e-01) (263, 3.79112599375794112611e-01) (264, 3.58568562152931979981e-01) (265, 4.75005244794438064027e-01) (266, 4.26149731460163772034e-01) (267, 5.10897922502478452067e-01) (268, 4.56952477978190607644e-01) (269, 3.96563726112435011029e-01) (270, 4.87715181195426061844e-01) (271, 4.86289409878800094056e-01) (272, 4.78122427909335290241e-01) (273, 4.28617315933296827435e-01) (274, 4.12822282508204130291e-01) (275, 5.45880598905632341555e-01) (276, 4.28395880344460189271e-01) (277, 4.62744196835110366273e-01) (278, 3.54796407702515415039e-01) (279, 4.75454538910349999714e-01) (280, 3.88398662059268151570e-01) (281, 4.40413489787539635945e-01) (282, 4.53604742734393273640e-01) (283, 3.58991555719336774555e-01) (284, 3.95988008573839811444e-01) (285, 4.11223452388009225178e-01) (286, 4.57405293926785139202e-01) (287, 4.52263774916718153118e-01) (288, 4.39826628214260550997e-01) (289, 5.17489130243847239576e-01) (290, 4.81161917194912580609e-01) (291, 5.28028658963126895642e-01) (292, 4.98290231000455274835e-01) (293, 4.75128246229549855428e-01) (294, 3.59185976665875039693e-01) (295, 5.16287459018776262454e-01) (296, 4.56394953611443221497e-01) (297, 4.42214799593957319512e-01) (298, 4.13397246866258005760e-01) (299, 4.16465479456594456220e-01) (300, 4.47648848170680901948e-01) (301, 5.25758731941756041195e-01) (302, 4.16000532592124827591e-01) (303, 4.17726162644038945260e-01) (304, 4.57210171105060736441e-01) 