FANN_FLO_2.1
num_layers=3
learning_rate=0.700000
connection_rate=1.000000
network_type=0
learning_momentum=0.000000
training_algorithm=2
train_error_function=1
train_stop_function=0
cascade_output_change_fraction=0.010000
quickprop_decay=-0.000100
quickprop_mu=1.750000
rprop_increase_factor=1.200000
rprop_decrease_factor=0.500000
rprop_delta_min=0.000000
rprop_delta_max=50.000000
rprop_delta_zero=0.100000
cascade_output_stagnation_epochs=12
cascade_candidate_change_fraction=0.010000
cascade_candidate_stagnation_epochs=12
cascade_max_out_epochs=150
cascade_max_cand_epochs=150
cascade_num_candidate_groups=2
bit_fail_limit=3.49999999999999977796e-01
cascade_candidate_limit=1.00000000000000000000e+03
cascade_weight_multiplier=4.00000000000000022204e-01
cascade_activation_functions_count=10
cascade_activation_functions=3 5 7 8 10 11 14 15 16 17 
cascade_activation_steepnesses_count=4
cascade_activation_steepnesses=2.50000000000000000000e-01 5.00000000000000000000e-01 7.50000000000000000000e-01 1.00000000000000000000e+00 
layer_sizes=350 129 4 
scale_included=0
neurons (num_inputs, activation_function, activation_steepness)=(0, 0, 0.00000000000000000000e+00) (0, 0, 0.00000000000000000000e+00) (0, 0, 0.00000000000000000000e+00) (0, 0, 0.00000000000000000000e+00) (0, 0, 0.00000000000000000000e+00) (0, 0, 0.00000000000000000000e+00) (0, 0, 0.00000000000000000000e+00) (0, 0, 0.00000000000000000000e+00) (0, 0, 0.00000000000000000000e+00) (0, 0, 0.00000000000000000000e+00) (0, 0, 0.00000000000000000000e+00) (0, 0, 0.00000000000000000000e+00) (0, 0, 0.00000000000000000000e+00) (0, 0, 0.00000000000000000000e+00) (0, 0, 0.00000000000000000000e+00) (0, 0, 0.00000000000000000000e+00) (0, 0, 0.00000000000000000000e+00) (0, 0, 0.00000000000000000000e+00) (0, 0, 0.00000000000000000000e+00) (0, 0, 0.00000000000000000000e+00) (0, 0, 0.00000000000000000000e+00) (0, 0, 0.00000000000000000000e+00) (0, 0, 0.00000000000000000000e+00) (0, 0, 0.00000000000000000000e+00) (0, 0, 0.00000000000000000000e+00) (0, 0, 0.00000000000000000000e+00) (0, 0, 0.00000000000000000000e+00) (0, 0, 0.00000000000000000000e+00) (0, 0, 0.00000000000000000000e+00) (0, 0, 0.00000000000000000000e+00) (0, 0, 0.00000000000000000000e+00) (0, 0, 0.00000000000000000000e+00) (0, 0, 0.00000000000000000000e+00) (0, 0, 0.00000000000000000000e+00) (0, 0, 0.00000000000000000000e+00) (0, 0, 0.00000000000000000000e+00) (0, 0, 0.00000000000000000000e+00) (0, 0, 0.00000000000000000000e+00) (0, 0, 0.00000000000000000000e+00) (0, 0, 0.00000000000000000000e+00) (0, 0, 0.00000000000000000000e+00) (0, 0, 0.00000000000000000000e+00) (0, 0, 0.00000000000000000000e+00) (0, 0, 0.00000000000000000000e+00) (0, 0, 0.00000000000000000000e+00) (0, 0, 0.00000000000000000000e+00) (0, 0, 0.00000000000000000000e+00) (0, 0, 0.00000000000000000000e+00) (0, 0, 0.00000000000000000000e+00) (0, 0, 0.00000000000000000000e+00) (0, 0, 0.00000000000000000000e+00) (0, 0, 0.00000000000000000000e+00) (0, 0, 0.00000000000000000000e+00) (0, 0, 0.00000000000000000000e+00) (0, 0, 0.00000000000000000000e+00) (0, 0, 0.00000000000000000000e+00) (0, 0, 0.00000000000000000000e+00) (0, 0, 0.00000000000000000000e+00) (0, 0, 0.00000000000000000000e+00) (0, 0, 0.00000000000000000000e+00) (0, 0, 0.00000000000000000000e+00) (0, 0, 0.00000000000000000000e+00) (0, 0, 0.00000000000000000000e+00) (0, 0, 0.00000000000000000000e+00) (0, 0, 0.00000000000000000000e+00) (0, 0, 0.00000000000000000000e+00) (0, 0, 0.00000000000000000000e+00) (0, 0, 0.00000000000000000000e+00) (0, 0, 0.00000000000000000000e+00) (0, 0, 0.00000000000000000000e+00) (0, 0, 0.00000000000000000000e+00) (0, 0, 0.00000000000000000000e+00) (0, 0, 0.00000000000000000000e+00) (0, 0, 0.00000000000000000000e+00) (0, 0, 0.00000000000000000000e+00) (0, 0, 0.00000000000000000000e+00) (0, 0, 0.00000000000000000000e+00) (0, 0, 0.00000000000000000000e+00) (0, 0, 0.00000000000000000000e+00) (0, 0, 0.00000000000000000000e+00) (0, 0, 0.00000000000000000000e+00) (0, 0, 0.00000000000000000000e+00) (0, 0, 0.00000000000000000000e+00) (0, 0, 0.00000000000000000000e+00) (0, 0, 0.00000000000000000000e+00) (0, 0, 0.00000000000000000000e+00) (0, 0, 0.00000000000000000000e+00) (0, 0, 0.00000000000000000000e+00) (0, 0, 0.00000000000000000000e+00) (0, 0, 0.00000000000000000000e+00) (0, 0, 0.00000000000000000000e+00) (0, 0, 0.00000000000000000000e+00) (0, 0, 0.00000000000000000000e+00) (0, 0, 0.00000000000000000000e+00) (0, 0, 0.00000000000000000000e+00) (0, 0, 0.00000000000000000000e+00) (0, 0, 0.00000000000000000000e+00) (0, 0, 0.00000000000000000000e+00) (0, 0, 0.00000000000000000000e+00) (0, 0, 0.00000000000000000000e+00) (0, 0, 0.00000000000000000000e+00) (0, 0, 0.00000000000000000000e+00) (0, 0, 0.00000000000000000000e+00) (0, 0, 0.00000000000000000000e+00) (0, 0, 0.00000000000000000000e+00) (0, 0, 0.00000000000000000000e+00) (0, 0, 0.00000000000000000000e+00) (0, 0, 0.00000000000000000000e+00) (0, 0, 0.00000000000000000000e+00) (0, 0, 0.00000000000000000000e+00) (0, 0, 0.00000000000000000000e+00) (0, 0, 0.00000000000000000000e+00) (0, 0, 0.00000000000000000000e+00) (0, 0, 0.00000000000000000000e+00) (0, 0, 0.00000000000000000000e+00) (0, 0, 0.00000000000000000000e+00) (0, 0, 0.00000000000000000000e+00) (0, 0, 0.00000000000000000000e+00) (0, 0, 0.00000000000000000000e+00) (0, 0, 0.00000000000000000000e+00) (0, 0, 0.00000000000000000000e+00) (0, 0, 0.00000000000000000000e+00) (0, 0, 0.00000000000000000000e+00) (0, 0, 0.00000000000000000000e+00) (0, 0, 0.00000000000000000000e+00) (0, 0, 0.00000000000000000000e+00) (0, 0, 0.00000000000000000000e+00) (0, 0, 0.00000000000000000000e+00) (0, 0, 0.00000000000000000000e+00) (0, 0, 0.00000000000000000000e+00) (0, 0, 0.00000000000000000000e+00) (0, 0, 0.00000000000000000000e+00) (0, 0, 0.00000000000000000000e+00) (0, 0, 0.00000000000000000000e+00) (0, 0, 0.00000000000000000000e+00) (0, 0, 0.00000000000000000000e+00) (0, 0, 0.00000000000000000000e+00) (0, 0, 0.00000000000000000000e+00) (0, 0, 0.00000000000000000000e+00) (0, 0, 0.00000000000000000000e+00) (0, 0, 0.00000000000000000000e+00) (0, 0, 0.00000000000000000000e+00) (0, 0, 0.00000000000000000000e+00) (0, 0, 0.00000000000000000000e+00) (0, 0, 0.00000000000000000000e+00) (0, 0, 0.00000000000000000000e+00) (0, 0, 0.00000000000000000000e+00) (0, 0, 0.00000000000000000000e+00) (0, 0, 0.00000000000000000000e+00) (0, 0, 0.00000000000000000000e+00) (0, 0, 0.00000000000000000000e+00) (0, 0, 0.00000000000000000000e+00) (0, 0, 0.00000000000000000000e+00) (0, 0, 0.00000000000000000000e+00) (0, 0, 0.00000000000000000000e+00) (0, 0, 0.00000000000000000000e+00) (0, 0, 0.00000000000000000000e+00) (0, 0, 0.00000000000000000000e+00) (0, 0, 0.00000000000000000000e+00) (0, 0, 0.00000000000000000000e+00) (0, 0, 0.00000000000000000000e+00) (0, 0, 0.00000000000000000000e+00) (0, 0, 0.00000000000000000000e+00) (0, 0, 0.00000000000000000000e+00) (0, 0, 0.00000000000000000000e+00) (0, 0, 0.00000000000000000000e+00) (0, 0, 0.00000000000000000000e+00) (0, 0, 0.00000000000000000000e+00) (0, 0, 0.00000000000000000000e+00) (0, 0, 0.00000000000000000000e+00) (0, 0, 0.00000000000000000000e+00) (0, 0, 0.00000000000000000000e+00) (0, 0, 0.00000000000000000000e+00) (0, 0, 0.00000000000000000000e+00) (0, 0, 0.00000000000000000000e+00) (0, 0, 0.00000000000000000000e+00) (0, 0, 0.00000000000000000000e+00) (0, 0, 0.00000000000000000000e+00) (0, 0, 0.00000000000000000000e+00) (0, 0, 0.00000000000000000000e+00) (0, 0, 0.00000000000000000000e+00) (0, 0, 0.00000000000000000000e+00) (0, 0, 0.00000000000000000000e+00) (0, 0, 0.00000000000000000000e+00) (0, 0, 0.00000000000000000000e+00) (0, 0, 0.00000000000000000000e+00) (0, 0, 0.00000000000000000000e+00) (0, 0, 0.00000000000000000000e+00) (0, 0, 0.00000000000000000000e+00) (0, 0, 0.00000000000000000000e+00) (0, 0, 0.00000000000000000000e+00) (0, 0, 0.00000000000000000000e+00) (0, 0, 0.00000000000000000000e+00) (0, 0, 0.00000000000000000000e+00) (0, 0, 0.00000000000000000000e+00) (0, 0, 0.00000000000000000000e+00) (0, 0, 0.00000000000000000000e+00) (0, 0, 0.00000000000000000000e+00) (0, 0, 0.00000000000000000000e+00) (0, 0, 0.00000000000000000000e+00) (0, 0, 0.00000000000000000000e+00) (0, 0, 0.00000000000000000000e+00) (0, 0, 0.00000000000000000000e+00) (0, 0, 0.00000000000000000000e+00) (0, 0, 0.00000000000000000000e+00) (0, 0, 0.00000000000000000000e+00) (0, 0, 0.00000000000000000000e+00) (0, 0, 0.00000000000000000000e+00) (0, 0, 0.00000000000000000000e+00) (0, 0, 0.00000000000000000000e+00) (0, 0, 0.00000000000000000000e+00) (0, 0, 0.00000000000000000000e+00) (0, 0, 0.00000000000000000000e+00) (0, 0, 0.00000000000000000000e+00) (0, 0, 0.00000000000000000000e+00) (0, 0, 0.00000000000000000000e+00) (0, 0, 0.00000000000000000000e+00) (0, 0, 0.00000000000000000000e+00) (0, 0, 0.00000000000000000000e+00) (0, 0, 0.00000000000000000000e+00) (0, 0, 0.00000000000000000000e+00) (0, 0, 0.00000000000000000000e+00) (0, 0, 0.00000000000000000000e+00) (0, 0, 0.00000000000000000000e+00) (0, 0, 0.00000000000000000000e+00) (0, 0, 0.00000000000000000000e+00) (0, 0, 0.00000000000000000000e+00) (0, 0, 0.00000000000000000000e+00) (0, 0, 0.00000000000000000000e+00) (0, 0, 0.00000000000000000000e+00) (0, 0, 0.00000000000000000000e+00) (0, 0, 0.00000000000000000000e+00) (0, 0, 0.00000000000000000000e+00) (0, 0, 0.00000000000000000000e+00) (0, 0, 0.00000000000000000000e+00) (0, 0, 0.00000000000000000000e+00) (0, 0, 0.00000000000000000000e+00) (0, 0, 0.00000000000000000000e+00) (0, 0, 0.00000000000000000000e+00) (0, 0, 0.00000000000000000000e+00) (0, 0, 0.00000000000000000000e+00) (0, 0, 0.00000000000000000000e+00) (0, 0, 0.00000000000000000000e+00) (0, 0, 0.00000000000000000000e+00) (0, 0, 0.00000000000000000000e+00) (0, 0, 0.00000000000000000000e+00) (0, 0, 0.00000000000000000000e+00) (0, 0, 0.00000000000000000000e+00) (0, 0, 0.00000000000000000000e+00) (0, 0, 0.00000000000000000000e+00) (0, 0, 0.00000000000000000000e+00) (0, 0, 0.00000000000000000000e+00) (0, 0, 0.00000000000000000000e+00) (0, 0, 0.00000000000000000000e+00) (0, 0, 0.00000000000000000000e+00) (0, 0, 0.00000000000000000000e+00) (0, 0, 0.00000000000000000000e+00) (0, 0, 0.00000000000000000000e+00) (0, 0, 0.00000000000000000000e+00) (0, 0, 0.00000000000000000000e+00) (0, 0, 0.00000000000000000000e+00) (0, 0, 0.00000000000000000000e+00) (0, 0, 0.00000000000000000000e+00) (0, 0, 0.00000000000000000000e+00) (0, 0, 0.00000000000000000000e+00) (0, 0, 0.00000000000000000000e+00) (0, 0, 0.00000000000000000000e+00) (0, 0, 0.00000000000000000000e+00) (0, 0, 0.00000000000000000000e+00) (0, 0, 0.00000000000000000000e+00) (0, 0, 0.00000000000000000000e+00) (0, 0, 0.00000000000000000000e+00) (0, 0, 0.00000000000000000000e+00) (0, 0, 0.00000000000000000000e+00) (0, 0, 0.00000000000000000000e+00) (0, 0, 0.00000000000000000000e+00) (0, 0, 0.00000000000000000000e+00) (0, 0, 0.00000000000000000000e+00) (0, 0, 0.00000000000000000000e+00) (0, 0, 0.00000000000000000000e+00) (0, 0, 0.00000000000000000000e+00) (0, 0, 0.00000000000000000000e+00) (0, 0, 0.00000000000000000000e+00) (0, 0, 0.00000000000000000000e+00) (0, 0, 0.00000000000000000000e+00) (0, 0, 0.00000000000000000000e+00) (0, 0, 0.00000000000000000000e+00) (0, 0, 0.00000000000000000000e+00) (0, 0, 0.00000000000000000000e+00) (0, 0, 0.00000000000000000000e+00) (0, 0, 0.00000000000000000000e+00) (0, 0, 0.00000000000000000000e+00) (0, 0, 0.00000000000000000000e+00) (0, 0, 0.00000000000000000000e+00) (0, 0, 0.00000000000000000000e+00) (0, 0, 0.00000000000000000000e+00) (0, 0, 0.00000000000000000000e+00) (0, 0, 0.00000000000000000000e+00) (0, 0, 0.00000000000000000000e+00) (0, 0, 0.00000000000000000000e+00) (0, 0, 0.00000000000000000000e+00) (0, 0, 0.00000000000000000000e+00) (0, 0, 0.00000000000000000000e+00) (0, 0, 0.00000000000000000000e+00) (0, 0, 0.00000000000000000000e+00) (0, 0, 0.00000000000000000000e+00) (0, 0, 0.00000000000000000000e+00) (0, 0, 0.00000000000000000000e+00) (0, 0, 0.00000000000000000000e+00) (0, 0, 0.00000000000000000000e+00) (0, 0, 0.00000000000000000000e+00) (0, 0, 0.00000000000000000000e+00) (0, 0, 0.00000000000000000000e+00) (0, 0, 0.00000000000000000000e+00) (0, 0, 0.00000000000000000000e+00) (0, 0, 0.00000000000000000000e+00) (0, 0, 0.00000000000000000000e+00) (0, 0, 0.00000000000000000000e+00) (0, 0, 0.00000000000000000000e+00) (0, 0, 0.00000000000000000000e+00) (0, 0, 0.00000000000000000000e+00) (0, 0, 0.00000000000000000000e+00) (0, 0, 0.00000000000000000000e+00) (0, 0, 0.00000000000000000000e+00) (0, 0, 0.00000000000000000000e+00) (0, 0, 0.00000000000000000000e+00) (0, 0, 0.00000000000000000000e+00) (0, 0, 0.00000000000000000000e+00) (0, 0, 0.00000000000000000000e+00) (0, 0, 0.00000000000000000000e+00) (0, 0, 0.00000000000000000000e+00) (0, 0, 0.00000000000000000000e+00) (0, 0, 0.00000000000000000000e+00) (0, 0, 0.00000000000000000000e+00) (0, 0, 0.00000000000000000000e+00) (0, 0, 0.00000000000000000000e+00) (0, 0, 0.00000000000000000000e+00) (0, 0, 0.00000000000000000000e+00) (0, 0, 0.00000000000000000000e+00) (0, 0, 0.00000000000000000000e+00) (0, 0, 0.00000000000000000000e+00) (0, 0, 0.00000000000000000000e+00) (0, 0, 0.00000000000000000000e+00) (0, 0, 0.00000000000000000000e+00) (0, 0, 0.00000000000000000000e+00) (0, 0, 0.00000000000000000000e+00) (0, 0, 0.00000000000000000000e+00) (0, 0, 0.00000000000000000000e+00) (0, 0, 0.00000000000000000000e+00) (0, 0, 0.00000000000000000000e+00) (350, 4, 5.00000000000000000000e-01) (350, 4, 5.00000000000000000000e-01) (350, 4, 5.00000000000000000000e-01) (350, 4, 5.00000000000000000000e-01) (350, 4, 5.00000000000000000000e-01) (350, 4, 5.00000000000000000000e-01) (350, 4, 5.00000000000000000000e-01) (350, 4, 5.00000000000000000000e-01) (350, 4, 5.00000000000000000000e-01) (350, 4, 5.00000000000000000000e-01) (350, 4, 5.00000000000000000000e-01) (350, 4, 5.00000000000000000000e-01) (350, 4, 5.00000000000000000000e-01) (350, 4, 5.00000000000000000000e-01) (350, 4, 5.00000000000000000000e-01) (350, 4, 5.00000000000000000000e-01) (350, 4, 5.00000000000000000000e-01) (350, 4, 5.00000000000000000000e-01) (350, 4, 5.00000000000000000000e-01) (350, 4, 5.00000000000000000000e-01) (350, 4, 5.00000000000000000000e-01) (350, 4, 5.00000000000000000000e-01) (350, 4, 5.00000000000000000000e-01) (350, 4, 5.00000000000000000000e-01) (350, 4, 5.00000000000000000000e-01) (350, 4, 5.00000000000000000000e-01) (350, 4, 5.00000000000000000000e-01) (350, 4, 5.00000000000000000000e-01) (350, 4, 5.00000000000000000000e-01) (350, 4, 5.00000000000000000000e-01) (350, 4, 5.00000000000000000000e-01) (350, 4, 5.00000000000000000000e-01) (350, 4, 5.00000000000000000000e-01) (350, 4, 5.00000000000000000000e-01) (350, 4, 5.00000000000000000000e-01) (350, 4, 5.00000000000000000000e-01) (350, 4, 5.00000000000000000000e-01) (350, 4, 5.00000000000000000000e-01) (350, 4, 5.00000000000000000000e-01) (350, 4, 5.00000000000000000000e-01) (350, 4, 5.00000000000000000000e-01) (350, 4, 5.00000000000000000000e-01) (350, 4, 5.00000000000000000000e-01) (350, 4, 5.00000000000000000000e-01) (350, 4, 5.00000000000000000000e-01) (350, 4, 5.00000000000000000000e-01) (350, 4, 5.00000000000000000000e-01) (350, 4, 5.00000000000000000000e-01) (350, 4, 5.00000000000000000000e-01) (350, 4, 5.00000000000000000000e-01) (350, 4, 5.00000000000000000000e-01) (350, 4, 5.00000000000000000000e-01) (350, 4, 5.00000000000000000000e-01) (350, 4, 5.00000000000000000000e-01) (350, 4, 5.00000000000000000000e-01) (350, 4, 5.00000000000000000000e-01) (350, 4, 5.00000000000000000000e-01) (350, 4, 5.00000000000000000000e-01) (350, 4, 5.00000000000000000000e-01) (350, 4, 5.00000000000000000000e-01) (350, 4, 5.00000000000000000000e-01) (350, 4, 5.00000000000000000000e-01) (350, 4, 5.00000000000000000000e-01) (350, 4, 5.00000000000000000000e-01) (350, 4, 5.00000000000000000000e-01) (350, 4, 5.00000000000000000000e-01) (350, 4, 5.00000000000000000000e-01) (350, 4, 5.00000000000000000000e-01) (350, 4, 5.00000000000000000000e-01) (350, 4, 5.00000000000000000000e-01) (350, 4, 5.00000000000000000000e-01) (350, 4, 5.00000000000000000000e-01) (350, 4, 5.00000000000000000000e-01) (350, 4, 5.00000000000000000000e-01) (350, 4, 5.00000000000000000000e-01) (350, 4, 5.00000000000000000000e-01) (350, 4, 5.00000000000000000000e-01) (350, 4, 5.00000000000000000000e-01) (350, 4, 5.00000000000000000000e-01) (350, 4, 5.00000000000000000000e-01) (350, 4, 5.00000000000000000000e-01) (350, 4, 5.00000000000000000000e-01) (350, 4, 5.00000000000000000000e-01) (350, 4, 5.00000000000000000000e-01) (350, 4, 5.00000000000000000000e-01) (350, 4, 5.00000000000000000000e-01) (350, 4, 5.00000000000000000000e-01) (350, 4, 5.00000000000000000000e-01) (350, 4, 5.00000000000000000000e-01) (350, 4, 5.00000000000000000000e-01) (350, 4, 5.00000000000000000000e-01) (350, 4, 5.00000000000000000000e-01) (350, 4, 5.00000000000000000000e-01) (350, 4, 5.00000000000000000000e-01) (350, 4, 5.00000000000000000000e-01) (350, 4, 5.00000000000000000000e-01) (350, 4, 5.00000000000000000000e-01) (350, 4, 5.00000000000000000000e-01) (350, 4, 5.00000000000000000000e-01) (350, 4, 5.00000000000000000000e-01) (350, 4, 5.00000000000000000000e-01) (350, 4, 5.00000000000000000000e-01) (350, 4, 5.00000000000000000000e-01) (350, 4, 5.00000000000000000000e-01) (350, 4, 5.00000000000000000000e-01) (350, 4, 5.00000000000000000000e-01) (350, 4, 5.00000000000000000000e-01) (350, 4, 5.00000000000000000000e-01) (350, 4, 5.00000000000000000000e-01) (350, 4, 5.00000000000000000000e-01) (350, 4, 5.00000000000000000000e-01) (350, 4, 5.00000000000000000000e-01) (350, 4, 5.00000000000000000000e-01) (350, 4, 5.00000000000000000000e-01) (350, 4, 5.00000000000000000000e-01) (350, 4, 5.00000000000000000000e-01) (350, 4, 5.00000000000000000000e-01) (350, 4, 5.00000000000000000000e-01) (350, 4, 5.00000000000000000000e-01) (350, 4, 5.00000000000000000000e-01) (350, 4, 5.00000000000000000000e-01) (350, 4, 5.00000000000000000000e-01) (350, 4, 5.00000000000000000000e-01) (350, 4, 5.00000000000000000000e-01) (350, 4, 5.00000000000000000000e-01) (350, 4, 5.00000000000000000000e-01) (350, 4, 5.00000000000000000000e-01) (350, 4, 5.00000000000000000000e-01) (0, 0, 0.00000000000000000000e+00) (129, 4, 5.00000000000000000000e-01) (129, 4, 5.00000000000000000000e-01) (129, 4, 5.00000000000000000000e-01) (0, 0, 0.00000000000000000000e+00) 
connections (connected_to_neuron, weight)=(0, 6.01302533788695292571e+00) (1, 2.07215039085795194040e+00) (2, 3.03541588343696417951e+01) (3, 4.86712899541730426023e+00) (4, 1.07315783378438300844e+00) (5, 9.34908510342106069402e+00) (6, 8.64300003396488314422e+00) (7, 2.35566779136666966110e+01) (8, -1.27410691617605937864e+01) (9, 6.22607979578995518466e+00) (10, 1.63440967074842120610e+01) (11, -1.65460025936925035239e+02) (12, 1.32312107300125404663e+02) (13, 9.83108045212447834160e+00) (14, 3.70623799006168042069e+00) (15, 4.34704462407303005023e+00) (16, 1.10498209345660995950e+01) (17, 1.74236347782962375241e+00) (18, 8.90886946771902188402e+00) (19, 4.77632427949096367570e+01) (20, -2.00299558998959703615e+01) (21, 2.20410585779705883169e+01) (22, 5.23320611740635133202e+00) (23, -3.19659476816729238635e+02) (24, 2.55165902968229758585e+01) (25, 2.27123556799589199073e+00) (26, 7.49606543787165735537e-02) (27, 1.95258439853417820053e+00) (28, 2.94577959676006084777e+00) (29, 3.40224222113053968997e+01) (30, 7.99275573879060630134e+00) (31, 6.93530592878241591848e-01) (32, -1.06621978677336759489e+01) (33, 4.32965974193602765041e+00) (34, 4.84317893317230918626e+00) (35, -2.76537940708529447420e+02) (36, 2.01530627707607568055e+00) (37, -7.64403302966517994577e+00) (38, 3.46395722793548754836e+00) (39, -4.76202428395624632884e+00) (40, -9.76569856038234540563e+00) (41, 3.55164826736435257359e+00) (42, 3.49581594374618820353e+00) (43, 6.09038048931486297732e+00) (44, 2.55232650278143946565e+00) (45, 5.61057183010288262892e+00) (46, 4.21420341305728651804e+00) (47, -1.21673173388508331527e+02) (48, 7.81271103654926868387e+00) (49, 8.90408970352968176520e-01) (50, 1.07592811246101693889e+00) (51, -5.02887947229018639206e+00) (52, 2.82844013824426010473e+00) (53, -1.27916486864131144330e+02) (54, 1.59254675161716652276e+00) (55, 2.98274506118939353172e+00) (56, -8.07686860541776070477e+01) (57, 4.96237147849627024954e+00) (58, 5.53355056248578835998e-01) (59, -2.26607045188701006211e+00) (60, 4.44531324731577370812e+00) (61, 1.72892587951376608402e+00) (62, 2.01997766682087753765e+00) (63, 1.89263576175805003921e+00) (64, 2.01455368473837337362e+00) (65, 1.96814741527484415862e+00) (66, 1.92442361916097026686e+00) (67, 3.50861577399437907232e+00) (68, 3.44443771131627141102e+00) (69, 3.47150046979481752274e+00) (70, 3.48371891673527622757e+00) (71, 3.38769086121124463062e+00) (72, 3.36787450729412274342e+00) (73, 3.51597475414004678740e+00) (74, 3.39594609891469012553e+00) (75, 3.44125703783420799908e+00) (76, 3.38297538520483209723e+00) (77, 3.44135227799257581438e+00) (78, 2.03409138433240066490e+00) (79, 1.98832907781326895247e+00) (80, 3.40553097691474704334e+00) (81, 3.50280654066439156580e+00) (82, 3.35068418376218390975e+00) (83, 3.50895868884759654094e+00) (84, 1.93982398077080420151e+00) (85, 3.40636041034521408477e+00) (86, 3.36252434883979933744e+00) (87, 3.37050601533207982996e+00) (88, 3.40695551980464017561e+00) (89, 3.43316904698996339107e+00) (90, 3.42867737137537709202e+00) (91, 3.50328355380157763221e+00) (92, 3.39048518813223109802e+00) (93, 3.51277781184872184284e+00) (94, 1.88750442760833991862e+00) (95, 1.97296332561427978369e+00) (96, 3.50959122747370111384e+00) (97, 3.46425382343137799879e+00) (98, 3.52077016639387219143e+00) (99, 1.96057633157276556268e+00) (100, 3.37938543961886450617e+00) (101, 1.88151580467207835135e+00) (102, 2.06089292106846455610e+00) (103, 3.47321878003067130436e+00) (104, 3.76207587118751085598e+00) (105, 3.42080466962806850617e+00) (106, 2.03844940236231941810e+00) (107, 1.98271782378080674292e+00) (108, 2.00454536843237463017e+00) (109, 8.60472872751476103304e+00) (110, 1.95855669160997791778e+00) (111, 2.06540899350206696994e+00) (112, 2.00953036720341327026e+00) (113, 1.91349669924655452213e+00) (114, 3.35823281473227153171e+00) (115, 4.73994480375379190207e+00) (116, 3.35510194662322058790e+00) (117, 3.52082573054419123437e+00) (118, 1.87859503864167676213e+00) (119, 1.87594820288940344888e+00) (120, 1.93160937834078905162e+00) (121, 1.93795185542383685551e+00) (122, 1.89348729101377410977e+00) (123, 1.91259006518418428477e+00) (124, 1.88032105198779597721e+00) (125, 1.89344644925275340519e+00) (126, 1.89158097017104265269e+00) (127, 3.44725802468632958053e+00) (128, 3.37526451810464411807e+00) (129, 3.55297700859690435138e+00) (130, 4.33870989460652545233e+00) (131, 4.24737850729038513009e+00) (132, 3.62861509681235627767e+00) (133, 1.95817197622141114799e+00) (134, 1.52804361405878230684e+00) (135, 3.34944724355369549684e+00) (136, 3.52185946041765429726e+00) (137, 3.61619696681262636773e+00) (138, 3.57653924352061913794e+00) (139, 2.07099509890585364857e+00) (140, 3.39105288252581837938e+00) (141, 3.47274666799752074198e+00) (142, 3.43333349791081454683e+00) (143, 1.94738478882932675162e+00) (144, 1.92142343400271120579e+00) (145, 2.04810531416962415818e+00) (146, 3.52332970840488801656e+00) (147, 3.53023517053806479282e+00) (148, 2.12329990166979198918e+00) (149, 1.99586980560704740917e+00) (150, 1.96291057706936578064e+00) (151, 1.90897472144230562208e+00) (152, 2.00537252370096119591e+00) (153, 3.51433256933907278707e+00) (154, 1.97168777403173556273e+00) (155, 2.01978287220912600120e+00) (156, 1.99432395210234769678e+00) (157, 1.91261227062621608219e+00) (158, 2.01467948220337333964e+00) (159, 3.36965362073053853464e+00) (160, 3.48890529487540712594e+00) (161, 1.94589139669810795574e+00) (162, 1.95655544663336500300e+00) (163, 3.37310549176536067506e+00) (164, 3.49243962060357704402e+00) (165, 3.34897995931611269782e+00) (166, 1.93250168486064044515e+00) (167, 3.37990310979590624640e+00) (168, 2.05704413493379645317e+00) (169, 3.49929852230057925055e+00) (170, 3.40336761171342727650e+00) (171, 3.53417696724058982838e+00) (172, 3.44645904708886829937e+00) (173, 3.46497659305455130152e+00) (174, 3.39674895820722788642e+00) (175, 3.45106792706150411476e+00) (176, 3.54041580638172792561e+00) (177, 3.36864216408016847737e+00) (178, 3.36895506389657928281e+00) (179, 3.45060548788934351450e+00) (180, 3.71764897129448490531e+00) (181, 3.70904294700631487203e+00) (182, 3.45240143958419398729e+00) (183, 3.39705309098322461026e+00) (184, 3.33904394151610750541e+00) (185, 3.62562798098928196211e+00) (186, 4.28512191684151577675e+00) (187, 2.03127281342228016570e+00) (188, 1.91897978632276622335e+00) (189, 2.04861361456453527907e+00) (190, 2.01914574167929661286e+00) (191, 3.51033356398842677493e+00) (192, 3.36824370431799247072e+00) (193, 3.51367690941574739583e+00) (194, 3.36781438222410844929e+00) (195, 3.45646116664889069270e+00) (196, 1.87619157803594349687e+00) (197, 1.92341021918951948777e+00) (198, 1.90668542408644636765e+00) (199, 2.01265827284302778466e+00) (200, 1.91949417546046419147e+00) (201, 1.88493110217283410535e+00) (202, 2.00867612766790060164e+00) (203, 2.01148713701076253813e+00) (204, 3.43961762140186344539e+00) (205, 3.43825235133195583614e+00) (206, 3.33957813514053158954e+00) (207, 3.40460487489311525167e+00) (208, 3.49625952576010057271e+00) (209, 3.33621655446352649577e+00) (210, 3.47455797386231157731e+00) (211, 3.37576250028655122648e+00) (212, 3.34917155736495208984e+00) (213, 3.43112573232598050410e+00) (214, 3.49076065400635426883e+00) (215, 3.45354519818632477168e+00) (216, 3.43336436512104503649e+00) (217, 3.40199496371412291040e+00) (218, 3.50417303844922312095e+00) (219, 3.52000491899060641288e+00) (220, 3.45215115677041683995e+00) (221, 3.38915085826723405660e+00) (222, 3.36063640598862001241e+00) (223, 3.55467611236512315287e+00) (224, 1.76915045847045981908e+00) (225, 3.51711078698557377820e+00) (226, 4.23464544340133031142e+00) (227, 3.37942908397098085160e+00) (228, 3.35328812183218705201e+00) (229, 3.52482604001660737580e+00) (230, 3.34073448198943445675e+00) (231, 3.37291427239571728336e+00) (232, 3.43056393942672688269e+00) (233, 7.22511542505248716139e+00) (234, 7.27517902989421294535e+00) (235, 9.76304934742299224126e+00) (236, 4.52774036025470127953e+00) (237, 3.58454516436237691224e+00) (238, 2.01273282540147624431e+00) (239, 1.87520249272157357723e+00) (240, 3.46244220422756265876e+00) (241, 3.36364104220675397272e+00) (242, 1.95600404081422096780e+00) (243, 2.01684252247979989292e+00) (244, 3.43122300608491315188e+00) (245, 3.00657911361968066544e+00) (246, 1.91355103687988714611e+00) (247, 3.36812251777316573609e+00) (248, 3.47603774812347943168e+00) (249, 1.98049082147817756550e+00) (250, 1.68970865471449416262e+00) (251, 2.75440304583637018965e+00) (252, 2.80008659500849876878e+00) (253, 3.52598597932170987335e+00) (254, 3.41616696646923312386e+00) (255, 3.37311150507009660515e+00) (256, 3.40017729429051840384e+00) (257, 3.39569034606650488328e+00) (258, 3.34981377930443890989e+00) (259, 3.50577533355476234078e+00) (260, 3.38489776611734916045e+00) (261, 3.49141829216205668018e+00) (262, 3.38180402692589732183e+00) (263, 3.34085226684947089737e+00) (264, 3.50121801925479703144e+00) (265, 3.48532608982555647259e+00) (266, 3.47284396769224823487e+00) (267, 3.43509729614590408886e+00) (268, 3.36616006191960837057e+00) (269, 3.38259670907021803288e+00) (270, 3.51002025887048407782e+00) (271, 3.37560993586387292353e+00) (272, 3.44601727019906434180e+00) (273, 3.44398059592106697835e+00) (274, 3.53285520551963250213e+00) (275, 3.41496276883645499822e+00) (276, 3.39461667344112472122e+00) (277, 3.51869223298250810572e+00) (278, 3.39530293737139343691e+00) (279, 3.43440967139236752459e+00) (280, 3.52685595087580416873e+00) (281, 3.53800578508618857043e+00) (282, 3.41633288954892622158e+00) (283, 3.37577229024588243433e+00) (284, 3.34548249556598387144e+00) (285, 3.44005258399234348232e+00) (286, 3.53144088349110196745e+00) (287, 3.48108164809219866598e+00) (288, 3.34770980825212172149e+00) (289, 3.52995193766992088058e+00) (290, 3.36717229298016773598e+00) (291, 3.41074514709162768256e+00) (292, 3.48543584086839342007e+00) (293, 3.39909271603933316186e+00) (294, 3.52556075264248036660e+00) (295, 3.48730496286253410787e+00) (296, 3.42375335018700388545e+00) (297, 3.45231176130774475297e+00) (298, 3.61707311077347926087e+00) (299, 6.76694611367317833128e+00) (300, 3.40244431489529119972e+00) (301, 3.35024395670649832724e+00) (302, 1.86096685860381860778e+00) (303, 1.50415268408751745532e+00) (304, 1.97233056322181155018e+00) (305, 1.92674584198066645158e+00) (306, 3.39907514152017720122e+00) (307, 3.42824953818253463922e+00) (308, 3.42058713126932900650e+00) (309, 3.37469139534910400613e+00) (310, 3.51635751477909419549e+00) (311, 3.33436370675175020040e+00) (312, 3.35315415151708062780e+00) (313, 3.43952851031629913692e+00) (314, 3.45712886836759869524e+00) (315, 3.36313790070065543603e+00) (316, 3.47876896750988695572e+00) (317, 3.35294167739214588053e+00) (318, 3.37367411372127223856e+00) (319, 3.42381148827137682389e+00) (320, 3.48314910695002621921e+00) (321, 3.52944921809984046845e+00) (322, 3.49391576215670607297e+00) (323, 3.48351856362881395768e+00) (324, 3.38129623083175978593e+00) (325, 3.38239376650869028040e+00) (326, 3.42852310569858076406e+00) (327, 3.37650571477048178082e+00) (328, 3.52999821286124815245e+00) (329, 3.36738925941968458844e+00) (330, 3.40955243788046624687e+00) (331, 3.41181222443070097938e+00) (332, 3.50497929854506784508e+00) (333, 3.53009711572088891174e+00) (334, 3.39655349608768242220e+00) (335, 2.32113289421228419229e+00) (336, 3.13969108641627636658e+00) (337, 3.40091410241428659944e+00) (338, 3.58099971330044120066e+00) (339, 3.50523974301667706754e+00) (340, 3.29631185725818154353e+00) (341, 3.18500073619872869912e+00) (342, 2.28019041006075173783e+00) (343, 1.57699353684588916558e+00) (344, 8.67613055012101730412e-01) (345, 5.64959016095149313408e-01) (346, 2.43108900423466645080e+00) (347, -3.90852205546532047720e+01) (348, -8.92920522117956494412e+00) (349, -2.15508499368396844176e+00) (0, 3.48179370783487529550e+00) (1, -1.72603874130177032953e+01) (2, -5.16415378464786840595e+01) (3, -2.15988829765397927218e+00) (4, 5.27377268627240991528e-01) (5, 3.96994982004335250636e-01) (6, 3.38819718760156485260e+00) (7, -1.05982446461733204046e+01) (8, -6.36552737111650515089e+01) (9, 2.65644909742066648306e+00) (10, 6.16010756977626261488e+00) (11, -4.95493037288538076268e+01) (12, 4.11059804089302787133e+01) (13, 1.28418421065707510920e+00) (14, 1.59573701771251478476e+02) (15, 2.40960465378048471763e+00) (16, 3.05729699267007881680e-01) (17, 3.05785281985681978156e+00) (18, 3.98480928047220661625e+00) (19, -3.91016007548266397720e+00) (20, -2.33743387267553899278e+01) (21, 4.13672854777735654608e+00) (22, 2.15927063479521885725e+00) (23, -5.80047154156448527829e+01) (24, 3.01651599424614369482e+00) (25, -3.89281546224441488135e+00) (26, -1.19053473531912734629e+00) (27, 3.89143565153442116955e-01) (28, -5.13931534614247986781e+00) (29, -3.93153651648141888586e+01) (30, -1.70183785207753317081e+02) (31, 2.63999306736588668088e+00) (32, -2.61021182406803120557e+01) (33, 1.30278858242286355029e+00) (34, 2.04983370241242024434e+00) (35, -4.43730252700985516867e+01) (36, 1.91719046207432029405e+02) (37, -2.89706003709218418152e+00) (38, 1.26158999814827996744e+01) (39, -8.92834443221959372927e-01) (40, -8.04715828107799246993e+00) (41, 5.05443427133381533167e+02) (42, 1.68899043462411704297e+01) (43, 9.23843336162965300673e+00) (44, 3.71620420677050533609e-01) (45, 2.48815803287114345466e+00) (46, 2.85337405862342041729e+00) (47, -4.39534652112392194567e+01) (48, 2.46386876700444013011e+00) (49, -2.22698899733987243366e+00) (50, 1.26980180405432574453e-01) (51, -7.34684380839169315358e-01) (52, 6.01016695183519544798e+00) (53, 1.03823791429289027377e+01) (54, -3.68954804070183627118e+02) (55, -1.79761445120050078472e+00) (56, -4.82594781313103666776e+01) (57, 5.34718246488828974350e+00) (58, 2.31288309453286302642e+01) (59, -5.68832185419606606303e+00) (60, 1.44973231646766786973e+00) (61, 1.29541245275163907635e+00) (62, 1.10212056647790102026e+00) (63, 1.18989453619094387449e+00) (64, 1.15643075567945774473e+00) (65, 1.20294853791305400570e+00) (66, 1.24477564877116075870e+00) (67, 1.77168295509832707246e+00) (68, 1.82583357043270577691e+00) (69, 1.92317108313803286634e+00) (70, 2.16142594342146487918e+00) (71, 1.79690535343902868526e+00) (72, 1.94298864867131171330e+00) (73, 1.83174066095629006767e+00) (74, 1.85997378309992100753e+00) (75, 1.78745592945217524061e+00) (76, 1.95275717457559849777e+00) (77, 2.02994936890504495963e+00) (78, 1.29972464106931151484e+00) (79, 1.31213989526735730351e+00) (80, 2.05832114801361543144e+00) (81, 2.01270000620787081758e+00) (82, 2.02112566877632460205e+00) (83, 2.11000175039330128968e+00) (84, 1.37943251747845274657e+00) (85, 1.88292715951431244292e+00) (86, 1.97144634752902137009e+00) (87, 2.00292382383724953954e+00) (88, 2.14521813148664941551e+00) (89, 2.09690187992470766787e+00) (90, 1.94118512411219534819e+00) (91, 2.01063865451571022192e+00) (92, 2.50389191836942393010e+00) (93, 1.92679863976428311645e+00) (94, 1.25033401505789165675e+00) (95, 1.25242716055790892504e+00) (96, 1.83112046992398691536e+00) (97, 1.87342675163817129480e+00) (98, 1.72589578853802017022e+00) (99, 1.22154249860927288651e+00) (100, 1.91426034935732269915e+00) (101, 1.03127603373837595235e+00) (102, 1.21276712960348564962e+00) (103, 1.55914695607095965535e+00) (104, 1.56447068691135693363e+00) (105, 1.74239578860694854789e+00) (106, 1.15791284035845931655e+00) (107, 1.10940750968282952904e+00) (108, 1.13530910157881392841e+00) (109, 3.63097475915417788883e+00) (110, 1.00833204490015870824e+00) (111, 1.34193260278683146325e+00) (112, 1.23259071376773743367e+00) (113, 1.31137005391801197973e+00) (114, 1.79511400425202616304e+00) (115, 1.51033627877733067635e+02) (116, 1.50477582943015363526e+02) (117, 5.31913060083400957012e+00) (118, 2.04248840303084522318e+00) (119, 1.31054382013799708417e+00) (120, 1.27984491776275222108e+00) (121, 1.51773716967101313102e+00) (122, 1.22719429473924179774e+00) (123, 1.18936738506149786154e+00) (124, 1.22462555806684036952e+00) (125, 1.22578196268128891688e+00) (126, 1.26144146214770858094e+00) (127, 1.80273321415619403041e+00) (128, 1.85485175309845917724e+00) (129, 2.26942173905419819491e+00) (130, 3.06864470964677549247e+00) (131, 3.30984001771736080499e+00) (132, 3.05621837728272671697e+00) (133, 1.52053829760228564894e+00) (134, 2.32628969274792353872e+02) (135, 3.76620528612984273309e+00) (136, 1.88699617386079165904e+00) (137, 2.07734656621824820277e+00) (138, 2.18101456940556470698e+00) (139, 1.20306946175741047433e+00) (140, 2.06989074967528097204e+00) (141, 2.56406039075761649215e+00) (142, 2.41487233665359379842e+00) (143, 1.51459604493618571475e+00) (144, 1.19187434952645365804e+00) (145, 1.22037257344062965991e+00) (146, 1.84828635117134543187e+00) (147, 3.99712852491626691176e+00) (148, 2.53303068513504783255e+01) (149, 1.26511883153128978918e+00) (150, 1.14549026661581176967e+00) (151, 1.18415053332837172384e+00) (152, 1.32668705159187250153e+00) (153, 1.58776051147372943007e+00) (154, 1.08829584381890076550e+00) (155, 1.32621685060880567519e+00) (156, 1.21943412769470871382e+00) (157, 1.15468471820096185709e+00) (158, 1.62872919027578477724e+00) (159, 5.66970169966862158617e+00) (160, 2.53599190356380042033e+01) (161, 3.23149323645477126732e+00) (162, 1.55943151179998418243e+00) (163, 2.02565613254351450934e+00) (164, 1.88059949048642649494e+00) (165, 1.78370628935318897845e+00) (166, 1.22030275355624695521e+00) (167, 1.17236425768184249208e+00) (168, 1.27006059180545394227e+00) (169, 1.86353703161065187288e+00) (170, 1.89495899846140947176e+00) (171, 1.80493964772061854518e+00) (172, 1.93673685192834654778e+00) (173, 1.91685189349650597634e+00) (174, 1.19190412418340074829e+00) (175, 1.79677640219513978792e+00) (176, 1.83993499765126267143e+00) (177, 1.79038559511284334214e+00) (178, 1.90387364353364096914e+00) (179, 1.78769419473966340028e+00) (180, 2.15179391006640896578e+00) (181, 2.98137298975067599471e+00) (182, 1.42267501309041821678e+00) (183, 1.91750746616568057412e+00) (184, 2.12597492007753174903e+00) (185, 2.21803382916840163830e+00) (186, 2.61957980831554815282e+00) (187, 2.28820577126930047029e+00) (188, 1.29501135687875335023e+00) (189, 1.19983740191506926820e+00) (190, 1.21124132390665550929e+00) (191, 1.77192612611892008623e+00) (192, 1.67834419796063660790e+00) (193, 1.73909550944163537878e+00) (194, 1.89258548656432190604e+00) (195, 1.88625884095160523124e+00) (196, 1.34300330788087518563e+00) (197, 1.18407648061330927902e+00) (198, 1.27013726294230955283e+00) (199, 1.31232808299461112256e+00) (200, 1.17810025536974039007e+00) (201, 1.20969094142732846997e+00) (202, 1.22443550351435770374e+00) (203, 1.18502589492828569462e+00) (204, 1.71493990996167799956e+00) (205, 1.60388407768712881740e+00) (206, 1.69652255993556533298e+00) (207, 1.73092102465486785690e+00) (208, 1.67648826331638978182e+00) (209, 1.74592224587346400710e+00) (210, 1.69328174010098475577e+00) (211, 1.58809730638632018440e+00) (212, 1.59835238285932335067e+00) (213, 1.70274648080754742452e+00) (214, 1.62265744056700533804e+00) (215, 1.58369416648970395833e+00) (216, 1.63300168170510007215e+00) (217, 1.73442446316875664714e+00) (218, 1.72412934818315100038e+00) (219, 1.71216081467048697462e+00) (220, 1.65925237951881698883e+00) (221, 1.67153117175476806366e+00) (222, 1.64115022436667845618e+00) (223, 1.20708933601135761648e+01) (224, 8.11701980683687929208e-01) (225, 1.47544379436433747976e+00) (226, 2.05784157779172760527e+00) (227, 1.66263235985420787522e+00) (228, 1.74342998158344641979e+00) (229, 1.69498894616944095759e+00) (230, 1.69471865915505315314e+00) (231, 1.58964012950701505389e+00) (232, 1.71095877858434008978e+00) (233, 3.23668588934991063866e+00) (234, 3.04782928583679080248e+00) (235, 4.54003238828962363272e+00) (236, 1.86826506055996617306e+02) (237, 1.92865447190217409457e+00) (238, 1.13043643147932981741e+00) (239, 1.05700045132140951765e+00) (240, 1.61153028325211322702e+00) (241, 1.50763366692840539152e+00) (242, 1.13653457508706234869e+00) (243, 1.38528484226960735270e+00) (244, 1.76737796679983549808e+00) (245, 1.50211217926374573928e+00) (246, 1.44516565458617485262e+00) (247, 2.23181007663915975670e+00) (248, 3.67723405763495136966e+00) (249, 1.14522400912500477155e+00) (250, 9.98735594351019329018e-01) (251, 1.43811424468305748547e+00) (252, 1.41417249652449306119e+00) (253, 1.73114942408855565503e+00) (254, 1.64003625323275703529e+00) (255, 1.69829492657080849405e+00) (256, 1.69592460594654337314e+00) (257, 1.61880513521874358496e+00) (258, 1.64713230397047016851e+00) (259, 1.72176384572169660636e+00) (260, 1.70151972287862296440e+00) (261, 1.70899757260038476225e+00) (262, 1.67149346054853653598e+00) (263, 1.61056956604116119358e+00) (264, 1.71697558845414421924e+00) (265, 1.73444642582527452923e+00) (266, 1.57459978397025412988e+00) (267, 2.07691090140608114467e+00) (268, 1.76150427824747657368e+00) (269, 1.56046053533170669958e+00) (270, 1.60353275865328304128e+00) (271, 1.76601935602822535110e+00) (272, 1.70396556005902333197e+00) (273, 1.72095693766560531301e+00) (274, 1.70456332746967720304e+00) (275, 1.74448781511597084126e+00) (276, 1.64516597697130495526e+00) (277, 1.63705007388172818494e+00) (278, 1.57158217271513889202e+00) (279, 1.57059991088091255307e+00) (280, 1.71478032545929903741e+00) (281, 1.69364235749840830181e+00) (282, 1.66394657841513127217e+00) (283, 1.63836057940780244202e+00) (284, 1.67119286760589758067e+00) (285, 1.57291238414169232129e+00) (286, 1.73259914018330918317e+00) (287, 1.66681849190191044841e+00) (288, 1.70047882805205841095e+00) (289, 1.76718035491638514323e+00) (290, 1.80327658539517265979e+00) (291, 1.84769844655584858373e+00) (292, 1.71092701094515131643e+00) (293, 1.66368454980248459130e+00) (294, 1.65462475594972424631e+00) (295, 1.76642099428699439478e+00) (296, 1.73808216479214405759e+00) (297, 1.80336294630811733164e+00) (298, 2.43916922905054143200e+01) (299, 3.31327326758909768145e+00) (300, 2.12543777478263029579e+00) (301, 2.24139013637172856974e+00) (302, 1.03061420193949793145e+00) (303, 1.03915162938183125441e+00) (304, 1.11064915153173626727e+00) (305, 2.95759614181819259215e+01) (306, 1.66260184602693272815e+00) (307, 1.63864915798129784363e+00) (308, 1.70766470695094185750e+00) (309, 1.73177679077734714141e+00) (310, 1.69883961457027687914e+00) (311, 1.62129267025365098043e+00) (312, 1.66698078748911249214e+00) (313, 1.70134582399536027353e+00) (314, 1.74790834537245687308e+00) (315, 1.61525312994863790017e+00) (316, 1.64787754144846276816e+00) (317, 1.71374144930204952431e+00) (318, 1.58570028657508887981e+00) (319, 1.63446671776138763299e+00) (320, 1.64751417663275079306e+00) (321, 1.59990491601450157688e+00) (322, 1.67378872361360864218e+00) (323, 1.59780179760269591682e+00) (324, 1.69941387531614584994e+00) (325, 1.73248736979132367253e+00) (326, 1.68591748273369912425e+00) (327, 1.63720515359861717997e+00) (328, 1.73510097407085450705e+00) (329, 1.72395105071898191440e+00) (330, 1.59665908334858275275e+00) (331, 1.66215491977661478096e+00) (332, 1.59421900290557227997e+00) (333, 1.72345475131618708353e+00) (334, 1.79042721415779682026e+00) (335, 5.19156032554676372115e+00) (336, 1.59883834066257946027e+00) (337, 1.70454944504877081712e+00) (338, 1.67923828801544017253e+00) (339, 1.59827783052877148151e+00) (340, 1.46296173296523512875e+00) (341, 1.64833279918521680152e+00) (342, 1.14291871577544190686e+00) (343, 7.35610312580771918967e-01) (344, 1.14353818868602985503e+00) (345, 9.44463044906879156670e-01) (346, 1.22193841200432959937e+01) (347, -1.62972790114558335972e+02) (348, 2.35153344759625371196e+00) (349, -1.00436461835369672535e+00) (0, 1.43819650808510495210e+01) (1, -1.10797183878859737405e+01) (2, -1.00406653335781371084e+02) (3, -3.24755271537665635151e+01) (4, -2.10684096641671025907e+00) (5, 6.70000650099118910674e+00) (6, 1.76319356047732576087e+01) (7, -8.12607335194215067986e+01) (8, -2.68445079316629744426e+02) (9, 1.48802137792836308705e+01) (10, 1.72188087796418400899e+01) (11, -2.68749995113616391151e+00) (12, -4.02453357748230544644e+01) (13, 6.03789785702474368634e+00) (14, 1.66510462820893962999e+02) (15, 8.39720567715506049922e+00) (16, 2.81458375150114514796e+00) (17, 2.99288494627270695858e+00) (18, 2.07177086595975410432e+01) (19, -1.03581607521382146331e+01) (20, -2.09709419400791944099e+02) (21, 2.20547759700533383409e+01) (22, 1.22716674622639807524e+01) (23, -5.82544975503945536843e+01) (24, 9.69417943208174648362e+00) (25, 1.56762683036909766798e+00) (26, 6.04640993923728498061e+00) (27, 5.44053364255030549868e-02) (28, -2.93446806995939724061e+01) (29, -6.23191302802439508923e+02) (30, -2.12884459261738072655e+02) (31, 6.44618833819749159630e-01) (32, -3.40472295011956646249e+02) (33, -3.16819370803908491041e+01) (34, 1.19878795447761774540e+01) (35, -2.38864579659029985237e+01) (36, 1.87783300846030385856e+02) (37, -1.78229303385916999503e+01) (38, 2.00130800736637119996e+01) (39, 1.04294309459512968274e+00) (40, -3.56975852721218463171e-03) (41, 5.12426977626992197656e+02) (42, 3.12239932955556191985e+01) (43, 2.14981661384520776892e+01) (44, 5.74637467854183281446e+00) (45, 1.39379332413469416707e+01) (46, 1.16102453322927896551e+01) (47, -2.17338972376486765370e+01) (48, 1.01605344865303237611e+01) (49, 2.42329225643686596570e+00) (50, 2.53620729602442729345e+00) (51, -1.51093387801943261906e+01) (52, 2.09522141829203434327e+01) (53, 5.48219424536416255478e+01) (54, -3.17237431584161583942e+02) (55, -6.18508081584780278206e+00) (56, -8.19872522935434346891e+01) (57, 1.21864741988821201346e+01) (58, 4.22661971166755634499e+01) (59, -3.45562394850112468703e+01) (60, 1.99552875576542554370e+01) (61, 5.17863489019531275659e+00) (62, 5.28093659427367612125e+00) (63, 5.28843351024521890480e+00) (64, 5.26519899320689876987e+00) (65, 5.46939156859450203996e+00) (66, 5.55137611305184108801e+00) (67, 8.91455347226790983939e+00) (68, 8.99330120341697281106e+00) (69, 5.57269900054783740018e+00) (70, 5.69193857775315859016e+00) (71, 5.42926528540953068358e+00) (72, 5.52813093600376426195e+00) (73, 5.55391389985447592181e+00) (74, 5.54020590077751418079e+00) (75, 5.56317572369064983206e+00) (76, 5.38961191218012292126e+00) (77, 5.76204349172699448189e+00) (78, 5.53127820841548079045e+00) (79, 5.63166755646796168833e+00) (80, 9.05635198252839934696e+00) (81, 9.21118333839815228714e+00) (82, 5.64326224553257826955e+00) (83, 5.63359487325793661938e+00) (84, 5.53094390398978763557e+00) (85, 5.50195692648026213334e+00) (86, 8.96363231123766901476e+00) (87, 9.06358782030846654720e+00) (88, 9.19291722364954821956e+00) (89, 5.73361505604507737388e+00) (90, 5.63356944823471206263e+00) (91, 9.08269356417503459511e+00) (92, 9.43930509743222856400e+00) (93, 5.49860062173897201632e+00) (94, 5.39089364494270295580e+00) (95, 5.41146319132351738546e+00) (96, 5.33711886789505030038e+00) (97, 9.01043954167371907715e+00) (98, 8.94505533363690830129e+00) (99, 5.46876335248379685794e+00) (100, 9.07703661996061228479e+00) (101, 5.44050512651277617948e+00) (102, 5.50721656119793134820e+00) (103, 1.17887405154110673777e+01) (104, 2.00908846507634848422e+01) (105, 5.33172605875422966903e+00) (106, 5.31899198049273636002e+00) (107, 5.29165183449375042812e+00) (108, 5.25629785510342895094e+00) (109, 2.11042283201514564439e+01) (110, 5.37257487050819193541e+00) (111, 5.48179831322758559509e+00) (112, 5.45003612617269528329e+00) (113, 5.44170156435019958252e+00) (114, 8.91146678758505217388e+00) (115, 1.65502312556807169130e+02) (116, 1.58037688945916215744e+02) (117, 9.07205733631170296860e+00) (118, 6.25393121421818154460e+00) (119, 5.42845324205503310111e+00) (120, 5.38204570691259132076e+00) (121, 5.56578857326068554556e+00) (122, 5.35250911318868727307e+00) (123, 5.48068974090570204538e+00) (124, 5.40461768412202747669e+00) (125, 5.51774852554471539889e+00) (126, 5.50290012561887653675e+00) (127, 9.03413553464701379880e+00) (128, 8.90295420851403029872e+00) (129, 9.76434353637823271299e+00) (130, 1.16946659160978008174e+01) (131, 1.21938208801591994046e+01) (132, 1.07145755866236083165e+01) (133, 5.72199145228166106136e+00) (134, 1.01674676729898394001e+02) (135, 1.08201052455644202155e+01) (136, 9.00284364951576598912e+00) (137, 2.04761296551013778355e+01) (138, 2.06538035020666441710e+01) (139, 5.92049006241716302412e+00) (140, 9.14761896353478753952e+00) (141, 9.64641582406605380129e+00) (142, 6.00504157283932649136e+00) (143, 5.75039417420470222453e+00) (144, 1.19723944697347377542e+01) (145, 5.43424967025651106667e+00) (146, 2.02291421803555877545e+01) (147, 2.25384809926133158342e+01) (148, 1.58489735745215352125e+01) (149, 5.52660249207632059409e+00) (150, 5.49230845831920344580e+00) (151, 5.55606568912282750006e+00) (152, 5.50227659863624740666e+00) (153, 8.84668038840692716462e+00) (154, 5.26588527610171830418e+00) (155, 5.40333298888256496895e+00) (156, 5.48357896466037786354e+00) (157, 5.34847452125995648231e+00) (158, 5.74927085387045000431e+00) (159, 1.27698911674733395216e+01) (160, 2.89906157022418966562e+01) (161, 7.54405646580751643171e+00) (162, 5.72390257427748938568e+00) (163, 9.19201952242810627070e+00) (164, 5.57115119128198621468e+00) (165, 5.36153885290868448266e+00) (166, 5.50448182427495869007e+00) (167, 5.49522583388894947376e+00) (168, 5.52975151145070942249e+00) (169, 5.40289283001035602894e+00) (170, 5.48896399342626484241e+00) (171, 9.00973229039004053220e+00) (172, 5.43893730184164692076e+00) (173, 5.43309419158782791470e+00) (174, 5.40179863021689676827e+00) (175, 5.44199035518974216785e+00) (176, 5.39188249332660518576e+00) (177, 8.93467463947965967463e+00) (178, 9.04395645176976792357e+00) (179, 8.98651446599542147453e+00) (180, 9.89492979814001749617e+00) (181, 1.06602575135283803576e+01) (182, 5.81844386359427279132e+00) (183, 8.92237425030768172007e+00) (184, 9.19599088634170058754e+00) (185, 9.78363101632193910007e+00) (186, 1.15920152815568293647e+01) (187, 6.59705251526320335387e+00) (188, 5.52445824646562488880e+00) (189, 5.43894279205411823597e+00) (190, 5.38066382535904885742e+00) (191, 5.37063352686980621797e+00) (192, 5.28677366597274289717e+00) (193, 5.25415978504041181196e+00) (194, 5.41897754294627898020e+00) (195, 5.39854834152215712351e+00) (196, 5.44488158000463240427e+00) (197, 5.37742560150601889291e+00) (198, 5.41399384213441603464e+00) (199, 5.44718836414196427853e+00) (200, 5.51737552023651378619e+00) (201, 5.33414242385010517467e+00) (202, 5.41284663448357061810e+00) (203, 5.38648582746863091586e+00) (204, 8.75241114728774149967e+00) (205, 8.68370865450646611805e+00) (206, 8.80906051274052614986e+00) (207, 8.85927458351281416071e+00) (208, 8.80279007598939422508e+00) (209, 8.80118354741517627815e+00) (210, 8.77297743462671952841e+00) (211, 8.72353700814186616697e+00) (212, 8.82440076823499808256e+00) (213, 8.73331685999957052502e+00) (214, 8.72201160748172732440e+00) (215, 8.71927199455893564561e+00) (216, 8.77966690502513102956e+00) (217, 8.82479119430022862502e+00) (218, 8.82078980611183283145e+00) (219, 8.77253695469316063793e+00) (220, 8.70207573396609745942e+00) (221, 8.70437103132422862473e+00) (222, 8.88150273830025227539e+00) (223, 1.92041609890314539655e+01) (224, 4.73810825093833809518e+00) (225, 8.55482149680698000793e+00) (226, 1.05747164250842384803e+01) (227, 8.73947201474112134179e+00) (228, 8.73458486240493492403e+00) (229, 8.74173948062318295626e+00) (230, 8.85655419294585044554e+00) (231, 8.82415370809472143776e+00) (232, 8.80596974505420604373e+00) (233, 1.78101122584540156879e+01) (234, 1.77405972414163848327e+01) (235, 2.44593633953913531798e+01) (236, 1.17331323037109868324e+02) (237, 5.52246599283708672345e+00) (238, 5.19200132330906338751e+00) (239, 5.19727924454428613643e+00) (240, 8.67652151159015438964e+00) (241, 5.06453020777080276105e+00) (242, 5.37644605018902410620e+00) (243, 5.57240245080137430733e+00) (244, 8.71601791112348855961e+00) (245, 8.00050931043783286611e+00) (246, 5.41677295190352570131e+00) (247, 5.73996255901112117925e+00) (248, 1.08800442273028963314e+01) (249, 5.35276343524457853817e+00) (250, 4.41149484629032162530e+00) (251, 7.02299533169232415020e+00) (252, 7.00535843510862576977e+00) (253, 8.85587624511924254023e+00) (254, 8.67626225366843151221e+00) (255, 8.69055313255721451071e+00) (256, 8.67527841207001593204e+00) (257, 8.81512325911568694892e+00) (258, 8.78697301279389009210e+00) (259, 8.69154426477908437221e+00) (260, 8.74891143930502579451e+00) (261, 8.77623889643420262985e+00) (262, 8.72339850434891772579e+00) (263, 8.86883188404603295396e+00) (264, 8.82191107842627886271e+00) (265, 8.87532718228262851312e+00) (266, 8.84762160155478838419e+00) (267, 9.24252712565965417468e+00) (268, 8.77416275282045710071e+00) (269, 8.80234415977520434637e+00) (270, 8.84153394821277238691e+00) (271, 8.79751849106984984417e+00) (272, 8.81962203694052782055e+00) (273, 8.83596689681619729129e+00) (274, 8.70177270543371861322e+00) (275, 8.73262824579459717711e+00) (276, 8.81165019916457126214e+00) (277, 8.82740644804585805616e+00) (278, 8.78127204356905721738e+00) (279, 8.71832809735883351721e+00) (280, 8.88251543031493895342e+00) (281, 8.75962706799820978176e+00) (282, 8.70625064579011542776e+00) (283, 5.19910458539992426097e+00) (284, 8.69980873388640318922e+00) (285, 8.63691498475572139171e+00) (286, 5.28200522999743871111e+00) (287, 5.22464237862732527873e+00) (288, 8.74023769333241951074e+00) (289, 8.81324066410763506951e+00) (290, 9.02911402507102422987e+00) (291, 8.98979430210660090950e+00) (292, 8.69125068341727136101e+00) (293, 8.80452174908836582290e+00) (294, 8.79482992440948585511e+00) (295, 8.72736162194836140316e+00) (296, 8.78428090929251759178e+00) (297, 8.73311289000130308580e+00) (298, 3.20031278925152662396e+01) (299, 1.70131613691660312782e+01) (300, 9.10722098639108068596e+00) (301, 9.36206817197064999903e+00) (302, 5.40156760158219828583e+00) (303, 5.36482785093486924666e+00) (304, 5.67936551024136981880e+00) (305, 3.37578458808069754582e+01) (306, 8.85602637164704553641e+00) (307, 8.85469380691191787491e+00) (308, 8.81810232403404015145e+00) (309, 8.74438648144161945197e+00) (310, 8.84840503177491477516e+00) (311, 8.78025967973285226265e+00) (312, 8.72618785691031462193e+00) (313, 8.69741828806379935202e+00) (314, 8.82568308865563722065e+00) (315, 8.87585533101743351381e+00) (316, 8.69207787279833432592e+00) (317, 8.87676509502530386442e+00) (318, 8.82478021899096631842e+00) (319, 8.75161247468592584653e+00) (320, 8.81908447806586082152e+00) (321, 8.87206867258344011873e+00) (322, 8.82031184200991447142e+00) (323, 8.70188180446011116942e+00) (324, 8.86219461506036054743e+00) (325, 8.87847366640504098712e+00) (326, 8.76570081313884763574e+00) (327, 8.85627983752749869950e+00) (328, 8.82619832188639463766e+00) (329, 8.68721717045710839500e+00) (330, 8.69833118391679249726e+00) (331, 8.76586973112591749668e+00) (332, 8.82985219242917729332e+00) (333, 8.76630574952154439927e+00) (334, 8.75011679640402384450e+00) (335, 8.83522880796821041827e+00) (336, 8.72255595713980902417e+00) (337, 8.65179475412306331350e+00) (338, 9.03543847954679613110e+00) (339, 2.07623524608339629083e+01) (340, 8.46441559962168632580e+00) (341, 7.92056314473541966947e+00) (342, 5.85170480218694333274e+00) (343, 4.41802626775696349881e+00) (344, 2.41588305041458228928e+00) (345, 3.34123590962012251282e+00) (346, 6.24943416162063503094e+00) (347, -9.72225451916451248735e+01) (348, -9.35639161427405596783e+00) (349, -3.40155369929430939635e+00) (0, 1.57271247708173378399e+00) (1, -1.78252185000237295398e+00) (2, -3.93020722768042318762e+00) (3, 5.20878125138135930627e-02) (4, 7.50363374981125375029e-01) (5, 1.25659565896030844812e+00) (6, 1.32255768928144390451e+00) (7, -5.75302653072983449789e-01) (8, 3.77566812137130169980e-01) (9, 1.19820484542302119202e+00) (10, 5.52732753242474661448e+00) (11, -2.09983988692178247248e+00) (12, 7.75226347051214959016e-01) (13, 1.08318017098773178297e+00) (14, 3.20227505313743677107e+02) (15, 1.25417158246458293469e+00) (16, 7.70136561516074236167e-01) (17, 2.18038459515118399068e+00) (18, 9.38162570526326344833e-01) (19, 5.04019213218788841857e-01) (20, -2.89378748077804672789e+01) (21, 1.41425350786167114414e+00) (22, 1.46018227138830614109e+00) (23, -4.70682692208477249096e+00) (24, 2.50047659053315962652e+00) (25, -1.46591132193727569089e+00) (26, -1.20435387596387818987e-01) (27, 6.08129957911991758657e-01) (28, -2.68242940011765504948e+01) (29, 4.29797052144619329273e-01) (30, -1.42192005510910135513e+01) (31, 9.29987954647357950577e-01) (32, -5.06509312449185289395e-01) (33, -3.66189345021994627771e-01) (34, 1.13610588842761717210e+00) (35, -9.51996539766118310411e+00) (36, 9.21302278993918264405e+01) (37, -9.74159806318843468631e-01) (38, 6.40384452224659028730e+00) (39, -3.95754793666626691895e-01) (40, -9.06081348619355075868e+00) (41, 2.80670225988823119678e+02) (42, 3.73433632312617591609e+00) (43, 7.60314720558612044954e+00) (44, -4.58317805244487530558e+00) (45, 1.31525593420619402174e+00) (46, 2.40154813759295526765e+00) (47, -3.50015689908458593749e+00) (48, 5.19496023374974358333e-01) (49, -2.59035083390463549691e+00) (50, -9.98971892067518574265e-01) (51, -3.43181722582459114435e+00) (52, 1.39932778052273820713e+00) (53, 3.23774400524553662706e+00) (54, -1.16658833095152090209e+02) (55, -1.46113823942929843547e+00) (56, -5.64522139265465927593e+00) (57, 1.63529592058395656373e+00) (58, 2.25197773738831266144e+01) (59, -7.08569173907749139119e+00) (60, 3.13688009965374103860e-01) (61, 7.04557719337674970284e-01) (62, 6.47520041598129036942e-01) (63, 4.98696215542132281762e-01) (64, 6.88902101846056824641e-01) (65, 7.85573186251034893957e-01) (66, 8.23936138484730684617e-01) (67, 7.10645942961901533330e-01) (68, 7.93018155526840518021e-01) (69, 6.65518003536830771161e-01) (70, 1.06503974386464239643e+00) (71, 7.53431886533995620603e-01) (72, 7.51316769993036870368e-01) (73, 7.47896913463711121572e-01) (74, 8.13740374255007448134e-01) (75, 7.66755517242398210165e-01) (76, 7.56475837635820824723e-01) (77, 1.67035563617194160457e+00) (78, 1.53160196104380852411e+00) (79, 1.47211425935874773430e+00) (80, 9.87016546924380788752e-01) (81, 8.81741487963043191201e-01) (82, 1.10017466785177120414e+00) (83, 1.80058834228033637359e+00) (84, 1.44264536348303562541e+00) (85, 8.79682421565348704462e-01) (86, 7.43856275446448722555e-01) (87, 8.59788827674942357504e-01) (88, 9.86107106142993017350e-01) (89, 8.75395407363537381151e-01) (90, 8.23751968608043116937e-01) (91, 7.00642126733311942921e-01) (92, 1.19227554393793644394e+00) (93, 8.42487047501853436593e-01) (94, 7.93011607776992866192e-01) (95, 7.34474525245251919081e-01) (96, 5.96768758237586904869e-01) (97, 6.32544257168926926660e-01) (98, 6.39647148892765859962e-01) (99, 7.33068858627258346239e-01) (100, 8.01362988321231983768e-01) (101, 7.01899927434345038968e-01) (102, 6.91571617191215737286e-01) (103, 5.05988811199183041722e-01) (104, 2.99266100117872191344e-01) (105, 4.61103312107607521408e-01) (106, 5.22029473653070619221e-01) (107, 4.85511123761598328841e-01) (108, 6.59276518030895708478e-01) (109, 4.55146021588754445819e-01) (110, 5.40508505721386534049e-01) (111, 7.04837306010083208818e-01) (112, 6.34623237470004930572e-01) (113, 7.59905935209524763252e-01) (114, 6.13975672154041918205e-01) (115, 1.83353191824525964648e+02) (116, 1.63019406823382922767e+02) (117, 4.32072962050336073503e+00) (118, 1.48829797161410892770e+00) (119, 7.93371896440301482833e-01) (120, 7.31614084029094779993e-01) (121, 9.69575987671578820581e-01) (122, 6.15711544667965293698e-01) (123, 7.32061030376678689713e-01) (124, 6.09922532951122420286e-01) (125, 6.84444622182742934413e-01) (126, 7.72365150069481254391e-01) (127, 6.19315113099221825621e-01) (128, 7.89911269093211632075e-01) (129, 1.28096756406314660204e+00) (130, 1.74974568324651480467e+00) (131, 1.94314789749432281774e+00) (132, 2.70819938261508585953e+00) (133, 1.70717102246334029303e+00) (134, 9.78859739861645863357e+01) (135, 4.95223878722028842958e+00) (136, 1.02021500318493263393e+00) (137, 1.07568143067762167497e+00) (138, 1.02714508579698282631e+00) (139, 4.65311789324239555299e-01) (140, 9.35143850880156946026e-01) (141, 1.36822779976907837884e+00) (142, 1.35679567497357278505e+00) (143, 9.42528867468534703455e-01) (144, 8.16937432824507925311e-01) (145, 7.49173960956935114375e-01) (146, 5.96684958429400058577e-01) (147, 2.84045307557224679940e+00) (148, 1.11935991502497866890e+01) (149, 6.53622340992736750032e-01) (150, 7.79218475872234916935e-01) (151, 8.15407932618470554509e-01) (152, 6.29731070135604920068e-01) (153, 5.93544892877915342133e-01) (154, 6.12273191388625015463e-01) (155, 8.09026453507620701977e-01) (156, 6.89475116260895415365e-01) (157, 7.42160835098353732775e-01) (158, 9.73447224784792286556e-01) (159, 4.69697156437466123435e+00) (160, 2.51257254357962089841e+01) (161, 2.76092930988407392334e+00) (162, 9.92646314401968821173e-01) (163, 9.96138427583854513259e-01) (164, 6.99035309967295237499e-01) (165, 7.18773403149378875554e-01) (166, 7.04574086034513769050e-01) (167, 7.51561314130045010629e-01) (168, 6.65757142269827184577e-01) (169, 7.55132362508989407601e-01) (170, 6.84537887835718450447e-01) (171, 6.04141226431464062330e-01) (172, 6.72128876632906435695e-01) (173, 6.91918624655449843175e-01) (174, 6.72973170560835054488e-01) (175, 6.31351601594901890024e-01) (176, 6.92074132420278487210e-01) (177, 6.42476137891654919265e-01) (178, 8.35462637146073716643e-01) (179, 1.30815306691378752113e+00) (180, 1.18204822721941260610e+00) (181, 2.08407709781118910541e+00) (182, 9.43885041652889444919e-01) (183, 8.10307487858917818713e-01) (184, 1.08320557379320092650e+00) (185, 1.66680341114068841790e+00) (186, 1.27760321213267258322e+00) (187, 1.71493172330841914253e+00) (188, 6.67104509686714974848e-01) (189, 7.02705566798931924311e-01) (190, 6.46676760429359953619e-01) (191, 5.58704594182354852272e-01) (192, 6.02385980344130045339e-01) (193, 6.56028238392187601491e-01) (194, 7.27735390223718359159e-01) (195, 5.97227064229703064058e-01) (196, 7.43935068406320287870e-01) (197, 6.78083036693899243730e-01) (198, 7.71553264964347840227e-01) (199, 7.56615754815904484332e-01) (200, 6.71749049471227377417e-01) (201, 6.98198231419910109175e-01) (202, 7.06824575737535654163e-01) (203, 6.81803181948244629851e-01) (204, 6.37562418004021136397e-01) (205, 6.00914818393078697945e-01) (206, 5.93675025280991253140e-01) (207, 6.22481156295787152466e-01) (208, 5.87026611624079097673e-01) (209, 4.94696561042401672381e-01) (210, 6.67643217995452897817e-01) (211, 5.04243632840928102112e-01) (212, 7.66306977176979375876e-01) (213, 4.48428766791495125865e-01) (214, 5.87322000022845513989e-01) (215, 7.98191565143073766819e-01) (216, 6.57125874253776109946e-01) (217, 7.98429689981367318730e-01) (218, 7.10004983853358750956e-01) (219, 7.34883551587276695471e-01) (220, 8.07542068366130183499e-01) (221, 6.24662521349396260284e-01) (222, 5.66616153627011565064e-01) (223, 1.09176994080876390569e+01) (224, 4.83739105826093029883e-01) (225, 3.94401808877326509606e-01) (226, 1.22545932348917863131e+00) (227, 5.01406433726921507699e-01) (228, 5.24727705701267588267e-01) (229, 5.94293041220311457629e-01) (230, 5.41220337806064488717e-01) (231, 4.23314226531243953389e-01) (232, 4.90006243418370179832e-01) (233, 7.00384935741091396721e-01) (234, 9.94079424719073401207e-01) (235, 9.49577970690422712430e-01) (236, 9.65376982442198965373e+01) (237, 5.88948150466527819979e-01) (238, 5.40974760435949053594e-01) (239, 6.40379046354232706051e-01) (240, 4.23066314823210831708e-01) (241, 4.01995814182899480205e-01) (242, 5.35256517611280902003e-01) (243, 8.52127645548190204572e-01) (244, 5.20369838363316739027e-01) (245, 4.79477808242490199930e-01) (246, 1.07287381898754352605e+00) (247, 1.33875196709373867066e+00) (248, 2.69095361366524521429e+00) (249, 5.48420599659527607805e-01) (250, 3.93098171568027399125e-01) (251, 4.50081473325646408412e-01) (252, 4.77658819275006585325e-01) (253, 4.39911498808012890738e-01) (254, 4.59749958969112415552e-01) (255, 4.44218364889280514785e-01) (256, 5.04970526587131263163e-01) (257, 5.73135267649593105332e-01) (258, 4.92289532199108592625e-01) (259, 5.01089687881891232557e-01) (260, 5.94425604386177086624e-01) (261, 4.80357365960918269998e-01) (262, 5.52742752544748694454e-01) (263, 5.68729192672090766436e-01) (264, 5.66103085622653545705e-01) (265, 7.17761627776225652475e-01) (266, 5.76075628146991203238e-01) (267, 9.86186962074519279930e-01) (268, 5.21447368886303941338e-01) (269, 6.71531657532825398960e-01) (270, 5.55187324411751004227e-01) (271, 4.73515248333985672158e-01) (272, 4.76615574349064652360e-01) (273, 5.43431356367003015606e-01) (274, 4.73783377538501138115e-01) (275, 5.33002872175228570306e-01) (276, 5.24923161151057637852e-01) (277, 6.23111694983553121574e-01) (278, 6.16384849245944499430e-01) (279, 4.76285640803891130446e-01) (280, 4.91912740345813892517e-01) (281, 5.17817898106513019307e-01) (282, 4.14366002963026447414e-01) (283, 4.30844179915493563637e-01) (284, 4.73457227498651156417e-01) (285, 3.14394746606969033298e-01) (286, 4.22995183776326943992e-01) (287, 4.88054900859357598808e-01) (288, 6.00544156688431529645e-01) (289, 5.63565538444353308911e-01) (290, 7.17010563536125244966e-01) (291, 6.47783818429095492597e-01) (292, 4.10226029100055455956e-01) (293, 3.92628184536299162932e-01) (294, 3.75748296742520582203e-01) (295, 5.00505506765697272265e-01) (296, 4.42762804946526644656e-01) (297, 4.93187209162848416710e-01) (298, 1.05534039914234242019e+02) (299, 2.89099566994488332838e+00) (300, 2.82809936535717687534e+00) (301, 3.02411010387404699529e+00) (302, 2.45890551607758212072e+00) (303, 2.43951361695987634093e+00) (304, 2.93671435598082908314e+00) (305, 4.44418749792210618921e+01) (306, 7.83709744555932785737e-01) (307, 8.10730051126586359622e-01) (308, 7.35662857396991443082e-01) (309, 8.38451312116538449715e-01) (310, 5.87131563658327415567e-01) (311, 4.65787247476892707354e-01) (312, 6.20581925568895576006e-01) (313, 4.54476416764574397966e-01) (314, 5.19998155827919750216e-01) (315, 5.04853017735266695887e-01) (316, 5.36086835620719681650e-01) (317, 5.49844879452320967061e-01) (318, 5.54363805955897737121e-01) (319, 5.42261537319672415336e-01) (320, 5.35849162099677811533e-01) (321, 5.51006213484125484392e-01) (322, 4.95733306465464429458e-01) (323, 5.27517844146740189082e-01) (324, 5.42123284346115896781e-01) (325, 6.11969918119692035674e-01) (326, 6.44282467110357193185e-01) (327, 6.51885891784395932191e-01) (328, 7.16606090946480978054e-01) (329, 4.66047619705658833222e-01) (330, 4.78815867149001483938e-01) (331, 6.14513908753902104998e-01) (332, 6.08880964485511211315e-01) (333, 1.29482826812616758083e+00) (334, 2.49311645907343493178e+00) (335, 8.28747925726910672495e+00) (336, 4.80647927562717303118e+00) (337, 4.71085581299044164894e+00) (338, 2.14568067725010136471e+00) (339, 2.15328220538516434956e+00) (340, 8.94583099089993782904e-01) (341, 7.22787820650685031154e-01) (342, 9.31855285732964166989e-01) (343, 1.28442709615511718724e+00) (344, 1.53105529110195093256e-01) (345, -1.20744605480790179186e+00) (346, 2.27015714245524663495e-01) (347, 4.52850626356584839982e+00) (348, -9.55601890661222626022e+01) (349, -1.96230255168599487803e-01) (0, 2.54584567910841075289e+00) (1, -1.80809889485378931795e+01) (2, -4.05290438328313342708e+01) (3, -3.20776120127019948036e-01) (4, -6.62771713519728300490e-01) (5, 1.24739068978475553529e+00) (6, 3.70120501499451659555e+00) (7, -9.84694691180898828975e+00) (8, -7.62348785259912364864e+00) (9, 2.79535201897302831853e+00) (10, 6.27019411503918355777e+00) (11, -1.33433424539984422097e+01) (12, -3.92747341233165991881e+00) (13, 1.03963271411264601696e+00) (14, 1.59071468941620196347e+02) (15, 1.56890850602655596013e+00) (16, 4.01739863495769011781e-01) (17, 8.31179743586504815589e-01) (18, 3.02783296099243237620e+00) (19, -5.75079714303730860081e+00) (20, -1.09973535212677813178e+01) (21, 3.79537187889057126000e+00) (22, 2.14962355554756001652e+00) (23, -3.20081809961277201637e+01) (24, 2.40305468228329699443e+00) (25, -5.70604712201975594610e+00) (26, -1.19169548904828204172e+00) (27, 8.29924937624054059881e-01) (28, 5.62608871911530084020e-01) (29, 1.09853583239481942257e+01) (30, -1.81195123953598169919e+02) (31, 6.13579138335218932099e-01) (32, -3.94746936917588513438e+01) (33, -3.97721548651318030920e+01) (34, 2.06404160652231549733e+00) (35, -2.79735218445703814893e+01) (36, 1.92246217683513918928e+02) (37, -7.44241082395217734557e+00) (38, 1.47976269582511967826e+01) (39, 1.29534281337270906764e-01) (40, -5.07310366447387250943e-01) (41, 2.20922228120925971950e+01) (42, 1.42717343880727440819e+01) (43, 9.02832104293799808659e+00) (44, 2.48262087082878446509e+00) (45, 5.80990423847292092319e+00) (46, 2.75379212247770954747e+00) (47, -4.45816904174440935549e+01) (48, 3.89283320376441643873e+00) (49, 8.26295176364297057070e-01) (50, 8.54058909312456426832e-01) (51, -6.12341242816795583437e-01) (52, 1.16301570194369241484e+00) (53, 1.85062790867221025337e+01) (54, -1.09027470062142526785e+02) (55, -2.13574141008225110161e-01) (56, -3.71676532572532565268e+01) (57, 5.24653848598430982975e+00) (58, 2.45101150072472009356e+01) (59, -9.62521140688271792385e+00) (60, 7.98601095167192576163e-01) (61, 1.25343991535881449373e+00) (62, 1.22566750729245610430e+00) (63, 1.18861833325351318180e+00) (64, 1.23644145500501623225e+00) (65, 1.16726109586785886663e+00) (66, 1.14812324612105909338e+00) (67, 1.22417110620702329626e+00) (68, 1.16042677512754033309e+00) (69, 1.25085013358312946430e+00) (70, 1.45107341263468581083e+00) (71, 1.28707994191611874157e+00) (72, 1.26928797780240598669e+00) (73, 1.23143775841685942929e+00) (74, 1.30169799846385525477e+00) (75, 1.21225292158101605189e+00) (76, 1.30879026573871182215e+00) (77, 1.44391089893784108078e+00) (78, 1.36861861623541836153e+00) (79, 1.36375515004832137400e+00) (80, 1.42566790778382235239e+00) (81, 1.50140134943557179703e+00) (82, 1.34001757260848286535e+00) (83, 1.56588467703539557796e+00) (84, 1.24245207168764881800e+00) (85, 1.28908848351161364754e+00) (86, 1.85926249536388876749e+00) (87, 1.34511872355138151214e+00) (88, 1.43837839619065843699e+00) (89, 1.37254918451934404544e+00) (90, 1.33308670722133282283e+00) (91, 1.95093194507121325820e+00) (92, 2.32539616245402402939e+00) (93, 1.34100365391855436137e+00) (94, 1.17793659842001252613e+00) (95, 1.29740989397920669646e+00) (96, 1.22691923817966141996e+00) (97, 1.76063510125330191514e+00) (98, 1.16934645472698561797e+00) (99, 1.13174488178553622753e+00) (100, 1.78390084628151091017e+00) (101, 1.24203602685449410181e+00) (102, 1.25011489820384613658e+00) (103, 9.83470600392377769516e-01) (104, 1.55847113330760667083e+00) (105, 1.23598250651542174161e+00) (106, 1.07533911643045065887e+00) (107, 1.03567407390797727729e+00) (108, 1.07964444599981779227e+00) (109, 3.81150712617752462918e+00) (110, 1.02825026078251258177e+00) (111, 1.22136450583647948598e+00) (112, 1.17840444697206936375e+00) (113, 1.14409310241885076032e+00) (114, 1.89486793360810468201e+00) (115, 1.04828276850063062398e+02) (116, 1.49685684883663753908e+02) (117, 4.78296239107473475372e+00) (118, 1.98553690792150594469e+00) (119, 1.32125078451895849874e+00) (120, 1.33723112318683923228e+00) (121, 1.46981643731480171589e+00) (122, 1.16785536950178037152e+00) (123, 1.24787593970389254494e+00) (124, 1.14565267285056004987e+00) (125, 1.33587429795433343394e+00) (126, 1.24601305147356922198e+00) (127, 1.86553117608165597296e+00) (128, 1.87049250016577350841e+00) (129, 2.21769966035180621233e+00) (130, 3.01501765106865837751e+00) (131, 3.30474568155041259487e+00) (132, 3.01232213049736374799e+00) (133, 1.51328589783310474282e+00) (134, 5.43202459253266134453e+00) (135, 3.72233796922763193749e+00) (136, 1.26004908346319011159e+00) (137, 2.10804065008375784984e+00) (138, 1.99172858703445676554e+00) (139, 1.20693937186601552014e+00) (140, 1.41340837998275370424e+00) (141, 2.44513580558075860338e+00) (142, 1.85186645794714244140e+00) (143, 1.39557871240267949986e+00) (144, 1.14130882036970104920e+00) (145, 1.12831938016411159609e+00) (146, 1.76677223811009165289e+00) (147, 4.00337750877070686073e+00) (148, 4.08028689281937886335e+01) (149, 1.20614943985537270699e+00) (150, 1.20980415430406718080e+00) (151, 1.32241936638072132837e+00) (152, 1.19741399714980767399e+00) (153, 1.71494702063823245552e+00) (154, 1.18306240673732587787e+00) (155, 1.19195149761893381957e+00) (156, 1.15303057300586098144e+00) (157, 1.26717970694343429194e+00) (158, 1.59419123560201936307e+00) (159, 5.60155158824189314259e+00) (160, 2.45673725527571811256e+01) (161, 3.34984688047017886703e+00) (162, 1.50576351712888922840e+00) (163, 2.10405217926505461179e+00) (164, 1.31406461688164322155e+00) (165, 1.27696820219702611432e+00) (166, 1.11652948578543553815e+00) (167, 1.22298706939167867169e+00) (168, 1.25551261624045307208e+00) (169, 1.31232709308810124860e+00) (170, 1.19342462589688191876e+00) (171, 1.20051593776542886438e+00) (172, 1.27596589135591331754e+00) (173, 1.21522649348202205211e+00) (174, 1.34088438378750174351e+00) (175, 1.30675987377171520798e+00) (176, 1.27009849194436030828e+00) (177, 1.89835390890121269436e+00) (178, 1.89988712374012336248e+00) (179, 1.74475323006392479819e+00) (180, 2.25433910197776166129e+00) (181, 3.05685908198211153675e+00) (182, 1.53629330228398464087e+00) (183, 1.86195016364354026805e+00) (184, 2.04600683662240712124e+00) (185, 2.22997591928718330578e+00) (186, 2.58228112983038293748e+00) (187, 2.42995996954062354334e+00) (188, 1.17691750323123822675e+00) (189, 1.16431692486352811322e+00) (190, 1.18505850782850052916e+00) (191, 1.05043935417513889519e+00) (192, 1.02822699784617133112e+00) (193, 1.10591380242123760169e+00) (194, 1.14514924283030206098e+00) (195, 1.18633766064734302859e+00) (196, 1.26263989100546680788e+00) (197, 1.28358397593666251346e+00) (198, 1.18198132978026926310e+00) (199, 1.17733102252651389286e+00) (200, 1.18946778456283697167e+00) (201, 1.15391296257499043065e+00) (202, 1.18660445524070867762e+00) (203, 1.29868288629720862737e+00) (204, 1.09019279535447766172e+00) (205, 1.58724020570178625533e+00) (206, 1.72947514516749922819e+00) (207, 1.58028256195062222211e+00) (208, 1.66613291352649306454e+00) (209, 1.68438346374294556362e+00) (210, 1.59434095781089912869e+00) (211, 1.70730823276437049252e+00) (212, 1.55730859793537268487e+00) (213, 1.59783886422135390504e+00) (214, 1.68652430742820302889e+00) (215, 1.63845232695182341232e+00) (216, 1.68865053581614898981e+00) (217, 1.66553008488698583989e+00) (218, 1.60029668106374511893e+00) (219, 1.66605004363320752248e+00) (220, 1.65706869686139768305e+00) (221, 1.75331191444886869135e+00) (222, 1.71099054738685918409e+00) (223, 1.20715489191141607250e+01) (224, 9.46365964977472273745e-01) (225, 1.46461143303991336850e+00) (226, 1.89519013568022876015e+00) (227, 1.59833495214950871421e+00) (228, 1.58516734621854005205e+00) (229, 1.58885233102555578633e+00) (230, 1.57430249921918363754e+00) (231, 1.74523077129605375113e+00) (232, 1.64076855417453604247e+00) (233, 3.20794100529733450244e+00) (234, 3.06085350396865152334e+00) (235, 2.30085460801502295070e+00) (236, 1.50892169592760069463e+02) (237, 1.30319025526868315090e+00) (238, 1.12283477958944533093e+00) (239, 1.07090138579752802706e+00) (240, 1.48098912990331066375e+00) (241, 9.27899512205320964320e-01) (242, 1.12516226180765155362e+00) (243, 1.59552195826936493717e+00) (244, 1.61628960021552092741e+00) (245, 1.53664539200182326262e+00) (246, 1.47739355947726069829e+00) (247, 1.65173888044066496938e+00) (248, 3.77374930242963380067e+00) (249, 9.97850815922949219150e-01) (250, 1.01262105781638966917e+00) (251, 1.40086751128456987736e+00) (252, 1.49960663997137966241e+00) (253, 1.70722617666225340294e+00) (254, 1.57163766941641536157e+00) (255, 1.69095977249378659479e+00) (256, 1.59869775210542686139e+00) (257, 1.69172943982224599502e+00) (258, 1.69004782291463007127e+00) (259, 1.67853058909837860035e+00) (260, 1.61637060075278715665e+00) (261, 1.67778695787000464712e+00) (262, 1.65942316779192666765e+00) (263, 1.56005361400485509371e+00) (264, 1.66596076099847789642e+00) (265, 1.57332864855580756291e+00) (266, 1.68542355506395358233e+00) (267, 2.14492279943156338717e+00) (268, 1.67974756593809670946e+00) (269, 1.56488770394676390829e+00) (270, 1.69338966550286174062e+00) (271, 1.71184477080277486216e+00) (272, 1.66399502201005766722e+00) (273, 1.70446837108202942090e+00) (274, 1.69786900830520171013e+00) (275, 1.61500666337483944623e+00) (276, 1.67262991743703293146e+00) (277, 1.60552355500479149164e+00) (278, 1.75029620961555498759e+00) (279, 1.63454697524514602769e+00) (280, 1.66512129974196665394e+00) (281, 1.57201242053306100566e+00) (282, 9.34600756738681592850e-01) (283, 1.10628017861513927578e+00) (284, 1.55865149220814735997e+00) (285, 1.51351427698403950828e+00) (286, 1.01853271774596620958e+00) (287, 1.14264829702035886072e+00) (288, 1.74361466099654127682e+00) (289, 1.64184390355938725214e+00) (290, 1.90513650156184888296e+00) (291, 1.78603334832691018619e+00) (292, 1.70644868267951665963e+00) (293, 1.63558671294639590421e+00) (294, 1.65428534978040175929e+00) (295, 1.71782739469012279976e+00) (296, 1.58660039452669399118e+00) (297, 1.74294242622382067331e+00) (298, 2.42351741807091940473e+01) (299, 3.30999372908296329854e+00) (300, 1.34382574425575862520e+00) (301, 2.14128030865996521470e+00) (302, 1.02654919882987893942e+00) (303, 9.38478200152415120705e-01) (304, 1.38464905341820787577e+00) (305, 2.94643960089980332384e+01) (306, 1.81883003183052927021e+00) (307, 1.69736021383665969253e+00) (308, 1.66244800531352598938e+00) (309, 1.76590175763482060134e+00) (310, 1.55935209015754150386e+00) (311, 1.67011801302095053146e+00) (312, 1.65767055898566817440e+00) (313, 1.65268210045934149655e+00) (314, 1.67386996858743852812e+00) (315, 1.67874141931195852706e+00) (316, 1.59062863610625715438e+00) (317, 1.74490873205921426248e+00) (318, 1.64261726016296094599e+00) (319, 1.66810286516441053095e+00) (320, 1.60022294245601148788e+00) (321, 1.59151961378694029037e+00) (322, 1.71472156517148444088e+00) (323, 1.57344798790687168122e+00) (324, 1.60029226588481487958e+00) (325, 1.56854078642964833712e+00) (326, 1.71386404097007449820e+00) (327, 1.57692181364406347477e+00) (328, 1.73112948369305641450e+00) (329, 1.66831093580010914046e+00) (330, 1.61967760423315731977e+00) (331, 1.71743111980186058396e+00) (332, 1.61447063357285691687e+00) (333, 1.63924299249780580645e+00) (334, 1.09934556223396362462e+00) (335, 1.50044426411706099955e+00) (336, 1.55213233905376135624e+00) (337, 1.45974208279533645971e+00) (338, 1.55254454967954291789e+00) (339, 1.71158407626980513250e+00) (340, 1.46588640391297753141e+00) (341, 1.58313844243238777132e+00) (342, 1.24167638729349016913e+00) (343, 9.43761735980613414299e-01) (344, 4.80515854884104198774e-01) (345, 4.91859054288978525538e-01) (346, 1.20237370375134022815e+00) (347, -2.04112394786011776660e+02) (348, 1.40538458533717269816e+00) (349, -4.51410664791600968471e-01) (0, 6.00692826446925653983e+00) (1, -3.50294200772855246484e+00) (2, -5.59897124570603210714e+01) (3, -1.14837146298457710714e+01) (4, -3.04359233827869779532e+00) (5, 2.80646617875047832413e+00) (6, 1.75025400926641623300e+01) (7, -3.37743886336936469661e+01) (8, -1.07665435730204904985e+02) (9, 1.40103900671759298291e+01) (10, 1.73689725777910943805e+01) (11, -4.90798539170487231331e+01) (12, -1.71621664410678924639e+01) (13, 5.25880321577182918702e+00) (14, 7.37567663790367760157e+01) (15, 3.50016711079912390403e+00) (16, 1.92206971419714811589e+00) (17, 1.51492507267280895888e+00) (18, 1.99308153556262084294e+01) (19, -4.99228540482191718297e+00) (20, -5.96815214345185651723e+01) (21, 2.14777709378752454938e+01) (22, 1.11108728846921263056e+01) (23, -3.43547280909839685137e+02) (24, 4.63242298757192116909e+00) (25, 3.30485306324175498460e+00) (26, 2.81788628602139379353e+00) (27, 1.17661825716444701229e+00) (28, -3.20001864222580678643e+00) (29, -9.41081483685350121959e+01) (30, -6.84370698581907532798e+01) (31, 3.09122297142116586599e-01) (32, -1.43885147431430141296e+02) (33, 2.37117356914839660931e+00) (34, 1.12443006390177853149e+01) (35, -1.36668639399655774014e+02) (36, 1.44110552792209404060e+02) (37, -1.88381527811329938515e+01) (38, 2.43541755612080557114e+01) (39, 5.55076344772606700140e-01) (40, -8.93199838172308746564e-01) (41, 9.10459313188922578775e+01) (42, 3.34358349955565259393e+01) (43, 1.28053593714880840082e+01) (44, 2.37672871968758192551e+00) (45, 1.30785368976278935094e+01) (46, 1.31077726270533947428e+01) (47, -1.29502692142256790930e+02) (48, 4.11152645047989562244e+00) (49, 4.67893518076487602286e-01) (50, -1.50062612546650014922e-01) (51, -6.22850858879743185526e+00) (52, 3.19805880501900610113e+01) (53, 2.91344601425854357046e+01) (54, -4.64051040955764449336e+02) (55, 1.10586211153366442694e+00) (56, -3.41946935673862171257e+01) (57, 5.25881504387453801996e+00) (58, 4.13733293179893948377e+01) (59, -9.94507423649539674670e+01) (60, 4.11588288935738422225e+00) (61, 4.43597970907948546682e+00) (62, 4.43754218545076817293e+00) (63, 2.22329130467654989545e+00) (64, 2.32302922335219408367e+00) (65, 2.42528644987026797963e+00) (66, 2.38011600329691663802e+00) (67, 2.52784768856020658490e+00) (68, 2.50440572238404213223e+00) (69, 2.50333318749863842356e+00) (70, 2.76409797365399700908e+00) (71, 2.51572061694117277142e+00) (72, 2.48636400318594663617e+00) (73, 2.48056470094435299600e+00) (74, 2.46360848714571600837e+00) (75, 2.49402598492934002294e+00) (76, 2.49355257918100958747e+00) (77, 2.59616748443579403727e+00) (78, 2.55669140356970947536e+00) (79, 2.49194511402253437993e+00) (80, 2.60454466469247236660e+00) (81, 2.56555854214980305628e+00) (82, 2.52788563224210793834e+00) (83, 2.70216625580781233396e+00) (84, 2.51690834892021797486e+00) (85, 2.58256689394554239669e+00) (86, 3.90066674928736345507e+00) (87, 2.58826046688442357180e+00) (88, 2.62008439892174616048e+00) (89, 2.59233959526868229517e+00) (90, 2.58071164790328921868e+00) (91, 2.55014879587405030037e+00) (92, 4.55478319147336563333e+00) (93, 2.42704263584284385402e+00) (94, 2.53770661725087620653e+00) (95, 2.42004211147677272820e+00) (96, 2.42650841687969087701e+00) (97, 3.83036756948801837552e+00) (98, 2.38267209360757092895e+00) (99, 2.45342990054249643350e+00) (100, 2.53655080057833481888e+00) (101, 2.29484351745616388385e+00) (102, 2.37076579495983397194e+00) (103, 2.32154268793782714297e+00) (104, 3.71529910696369425338e+00) (105, 2.34311089671335226470e+00) (106, 2.40247503175431909028e+00) (107, 2.32285011384223993858e+00) (108, 2.32353889797315371624e+00) (109, 8.83346599762598394534e+00) (110, 2.37258386818608002500e+00) (111, 2.47782401998353529748e+00) (112, 2.39088378507259413652e+00) (113, 2.37233395162585392058e+00) (114, 3.86143154914628805585e+00) (115, 1.20735914199428322036e+02) (116, 1.51672358822423660740e+02) (117, 6.03509689295293938471e+00) (118, 3.36286398699252275790e+00) (119, 2.36484607179623207429e+00) (120, 2.40223348064210773245e+00) (121, 2.72769141163501505076e+00) (122, 2.51931514885152996186e+00) (123, 2.45551699415315960451e+00) (124, 2.39198319163049877289e+00) (125, 2.43574758542564273611e+00) (126, 2.37909162711228594489e+00) (127, 3.79576738901028365447e+00) (128, 3.86239341068217578723e+00) (129, 4.32631248486203734416e+00) (130, 5.54740265097524787308e+00) (131, 5.82482387151815839132e+00) (132, 5.54118399060785904453e+00) (133, 2.73123794522539675711e+00) (134, 9.88432975497870529580e+01) (135, 6.40663346625398411049e+00) (136, 2.52450033473552393204e+00) (137, 3.99746449958341631969e+00) (138, 4.16766952682476876646e+00) (139, 2.64016701446551671495e+00) (140, 2.74676819828661500367e+00) (141, 4.64870899813225157970e+00) (142, 3.06117790854527260791e+00) (143, 2.56910711976057548611e+00) (144, 2.37951520157803031452e+00) (145, 2.46357133769026770409e+00) (146, 3.93480908108556004521e+00) (147, 6.08743218735248525775e+00) (148, 1.32267922541520075441e+01) (149, 2.42563464687004026743e+00) (150, 2.53739600199181669637e+00) (151, 2.37388901066910174009e+00) (152, 2.52460877252210202926e+00) (153, 3.74968999989249773819e+00) (154, 2.39575236442482175647e+00) (155, 2.45457107623614456671e+00) (156, 2.34569528786071934690e+00) (157, 2.44172563130224729022e+00) (158, 2.68591292079370402845e+00) (159, 7.56051004585364783139e+00) (160, 2.62564378216762399632e+01) (161, 4.56755116590043019897e+00) (162, 2.70239116949014412938e+00) (163, 4.06078265679634853313e+00) (164, 2.53968368776161002032e+00) (165, 2.39110047775867462505e+00) (166, 2.41260502781595498334e+00) (167, 2.38784810449804485444e+00) (168, 2.49820170845712885566e+00) (169, 2.41117108907427102338e+00) (170, 2.48761930610861048407e+00) (171, 2.35327974118798488590e+00) (172, 2.43856592112027437125e+00) (173, 2.45658336264325560805e+00) (174, 2.48839377153350582716e+00) (175, 2.51233759071554407782e+00) (176, 2.38403699562420134939e+00) (177, 3.88646661188635667017e+00) (178, 3.82456981388155003998e+00) (179, 3.89302415979904470333e+00) (180, 4.50612305383964173444e+00) (181, 5.40494747619372262193e+00) (182, 2.73365214495977681963e+00) (183, 3.87717384328741676569e+00) (184, 4.12452929582596627966e+00) (185, 4.41499345927125563804e+00) (186, 5.45513827517067184658e+00) (187, 3.42933258024655840401e+00) (188, 2.45846822406973108954e+00) (189, 2.41066929247106820355e+00) (190, 2.45394883599008784003e+00) (191, 2.33785528704856959692e+00) (192, 2.24891294181679857189e+00) (193, 2.39493941530918208471e+00) (194, 2.36818443254103083717e+00) (195, 2.38466990754474839065e+00) (196, 2.45614704505075787111e+00) (197, 2.38140045773114428229e+00) (198, 2.32355894908776106078e+00) (199, 2.37329248633112266376e+00) (200, 2.45283973232378338380e+00) (201, 2.38477068490711729964e+00) (202, 2.42608850014347954271e+00) (203, 2.40854455374474385465e+00) (204, 2.23758681840312023681e+00) (205, 3.73584823486467154652e+00) (206, 3.76313931799191969674e+00) (207, 3.70742693799727796033e+00) (208, 3.67370590995845214266e+00) (209, 3.72695348046802310549e+00) (210, 3.80039063942382204786e+00) (211, 3.66874221489294027876e+00) (212, 3.70481450570980896941e+00) (213, 3.81494570088459550306e+00) (214, 3.74013692187206014950e+00) (215, 3.72608648941281916933e+00) (216, 3.68513647171718927709e+00) (217, 3.69535865774702232400e+00) (218, 3.69084039106664718588e+00) (219, 3.72791276774932800464e+00) (220, 3.74733340675843740186e+00) (221, 3.72451582931064395510e+00) (222, 3.63176110021852283083e+00) (223, 1.52378669669505129036e+01) (224, 2.07048871086410857245e+00) (225, 3.65459975313789398044e+00) (226, 4.46363337459241993344e+00) (227, 3.78608232081927109647e+00) (228, 3.75170921610917496025e+00) (229, 3.73885098378285629650e+00) (230, 3.68381409869058584761e+00) (231, 3.62504136739522619948e+00) (232, 3.77579963882852709389e+00) (233, 7.47633129683427988255e+00) (234, 7.45280696917297635906e+00) (235, 1.02319826953010117876e+01) (236, 1.75233545238886875950e+02) (237, 1.43188893269864281343e+00) (238, 1.20220888124960612053e+00) (239, 1.36855536771276664609e+00) (240, 1.64641120695754761272e+00) (241, 2.04114540978794600790e+00) (242, 2.23863719196171206960e+00) (243, 2.67667614947651655299e+00) (244, 3.80721338780432683180e+00) (245, 3.39663193347776637410e+00) (246, 2.66726442775048866451e+00) (247, 2.72623998355203056576e+00) (248, 5.73667851205438417139e+00) (249, 1.36845011017748285909e+00) (250, 1.22064494511093379892e+00) (251, 1.60905649150440921424e+00) (252, 3.14489342687802686527e+00) (253, 3.69249008043107496135e+00) (254, 3.61560588409159588963e+00) (255, 3.75145284387456889874e+00) (256, 3.65996043066563947477e+00) (257, 3.64027175096288813094e+00) (258, 3.73243219863677389014e+00) (259, 3.62180502038556806355e+00) (260, 3.65384238117398618684e+00) (261, 3.79569679273237925443e+00) (262, 3.79782592703481691743e+00) (263, 3.61573645848907698763e+00) (264, 3.69020776917984338894e+00) (265, 3.61966058371341681266e+00) (266, 3.70218371322204919949e+00) (267, 4.14740845483100262214e+00) (268, 3.68084114247533022990e+00) (269, 3.61269023387845233941e+00) (270, 3.71803723455419854460e+00) (271, 3.64377173803264220453e+00) (272, 3.62250219089432778929e+00) (273, 3.66446385659364093357e+00) (274, 3.69520854288699496237e+00) (275, 3.78336297821948397413e+00) (276, 3.68440112231052374625e+00) (277, 3.79592568132145258275e+00) (278, 3.72698807493312811445e+00) (279, 3.64944617972238516401e+00) (280, 3.82778304067525887433e+00) (281, 3.71673716168468804000e+00) (282, 2.20915376291846587975e+00) (283, 2.24455541468817454387e+00) (284, 3.76125737986792119116e+00) (285, 3.69060984835388605774e+00) (286, 2.29266677725932943588e+00) (287, 2.27408208187320370897e+00) (288, 3.69958320648125971175e+00) (289, 3.78398307089405605552e+00) (290, 3.88565466040758478172e+00) (291, 3.91852599329587913957e+00) (292, 3.67192485301100290940e+00) (293, 3.68674666811739504269e+00) (294, 2.24587277252031558561e+00) (295, 3.81821454109554769829e+00) (296, 3.64234852138259013188e+00) (297, 3.81462009884857655706e+00) (298, 5.54826744407869298925e+01) (299, 1.61244972921851612568e+01) (300, 4.82460063223124002718e+00) (301, 8.48219152574275980783e+00) (302, 4.45002873797738196515e+00) (303, 4.37771886012915167896e+00) (304, 4.91451454298787648867e+00) (305, 4.70503146734081809655e+01) (306, 2.42797794205575634408e+00) (307, 3.78729924533108164297e+00) (308, 3.72996066072278154024e+00) (309, 3.79796736696485481843e+00) (310, 3.79585842313164922857e+00) (311, 3.67437296344565522688e+00) (312, 3.73186842553499342756e+00) (313, 3.81444471407029839227e+00) (314, 3.73204989932659270124e+00) (315, 3.66482283994853252906e+00) (316, 3.71260190532072043013e+00) (317, 3.66762631840307484765e+00) (318, 3.64234184555012951989e+00) (319, 3.68454593945710673353e+00) (320, 3.80601198003156637739e+00) (321, 3.80639754912761674177e+00) (322, 3.72926734164817785810e+00) (323, 3.76119446110675204054e+00) (324, 3.70452046650641797498e+00) (325, 3.62333409955551477566e+00) (326, 3.67904970782998175238e+00) (327, 3.68531136544730841820e+00) (328, 3.65274594065258551012e+00) (329, 3.73011455147040882352e+00) (330, 3.64919916476024175367e+00) (331, 3.77832640163782240705e+00) (332, 3.63220767607185868187e+00) (333, 3.83658594428885280081e+00) (334, 7.95495637054346715900e+00) (335, 8.06453710475875418240e+00) (336, 7.96376234484582656847e+00) (337, 7.77816872058028607739e+00) (338, 7.76963828904299003142e+00) (339, 7.88746971910365690661e+00) (340, 7.40674657275055725592e+00) (341, 7.10989795542711355836e+00) (342, 4.96220632989596310836e+00) (343, 3.21407485678086501935e+00) (344, 1.14902684974106583660e+00) (345, 3.39246573497561709765e-01) (346, 1.45519903923089977127e+00) (347, -4.16634847766153413318e+01) (348, -1.08619499128793517428e+01) (349, -1.46792650692302140136e+00) (0, 1.43385522464451504732e+01) (1, -1.09194269471010461103e+01) (2, -1.00388333244712626424e+02) (3, -3.25696953623060494465e+01) (4, -2.19209009982478475465e+00) (5, 6.71763593813976012115e+00) (6, 1.77299516433102830604e+01) (7, -8.13052247061595210198e+01) (8, -2.68408596047444916621e+02) (9, 1.48545552612076878773e+01) (10, 1.71759997998921605245e+01) (11, -4.54318640639720285890e+01) (12, -4.03121091298302260952e+01) (13, 6.17801955540426028790e+00) (14, 1.66535779714948375840e+02) (15, 8.29816128713230405367e+00) (16, 2.77554021322876431910e+00) (17, 2.70445580935144302970e+00) (18, 2.07067806881450664491e+01) (19, -1.05081563879351023161e+01) (20, -2.09952097275257017372e+02) (21, 2.21853195968982213060e+01) (22, 1.21183469560488852323e+01) (23, -3.34900624030220456007e+02) (24, 9.54720504396982150297e+00) (25, 1.58667572233067222243e+00) (26, 5.91763150807077575877e+00) (27, -1.90751715007919236955e-01) (28, -2.92816784783076826670e+01) (29, -6.23113163232829151639e+02) (30, -2.13276578002166843362e+02) (31, 5.22583386311653241840e-01) (32, -3.40805740191766119551e+02) (33, -3.16775107500628614332e+01) (34, 1.19813417497093439579e+01) (35, -1.33177756181776601352e+02) (36, 1.87808403997828634147e+02) (37, -1.81979420914845313462e+01) (38, 2.00082014930934910524e+01) (39, -1.01510618421886942286e+01) (40, -1.49860522739818757820e-01) (41, 5.12518338724983664179e+02) (42, 3.13298349098615815933e+01) (43, 2.13780940753934700638e+01) (44, 2.20116253103852432815e+00) (45, 1.40373952736650569051e+01) (46, 1.16685184130291883520e+01) (47, -1.26320147327795851311e+02) (48, 1.01122952405195434267e+01) (49, 2.18284883716982802682e+00) (50, 2.42122067890630709996e+00) (51, -1.50896076795456846042e+01) (52, 2.09728432908724613526e+01) (53, 2.22279327882561048568e+01) (54, -3.17150060205024544757e+02) (55, -4.67667800187988724758e+00) (56, -3.42531456129024149959e+01) (57, 1.22940461732788257621e+01) (58, 4.25120589930334560336e+01) (59, -1.98458103549037218727e+02) (60, 1.99575908003376660815e+01) (61, 1.12229389590863402049e+01) (62, 1.17846686557085575942e+01) (63, 1.17928934188985969911e+01) (64, 1.18024744104047165649e+01) (65, 1.19369021258179301981e+01) (66, 1.18809737412171916304e+01) (67, 2.02715962980559964990e+01) (68, 2.03812605263163781899e+01) (69, 2.02959253521468561132e+01) (70, 2.05546503481487050635e+01) (71, 1.19718924770018553261e+01) (72, 1.19430687436720823769e+01) (73, 2.03448318756180697164e+01) (74, 1.18444071967981336968e+01) (75, 2.04054648491729970772e+01) (76, 2.03405875369600934732e+01) (77, 2.06068195688585440450e+01) (78, 1.20287602385578900055e+01) (79, 1.20916573709769625822e+01) (80, 2.05148842330219203234e+01) (81, 2.05288627475585130355e+01) (82, 2.05631676975258557150e+01) (83, 1.22304166120862429779e+01) (84, 1.19861314480877929611e+01) (85, 5.65252046455475376519e+00) (86, 2.04336848240465585036e+01) (87, 2.03940741612030862484e+01) (88, 2.06351408679799561696e+01) (89, 2.04660495800458228643e+01) (90, 1.20096154872701603722e+01) (91, 2.04577535240528867178e+01) (92, 2.08587066810932206806e+01) (93, 1.18469829604918341914e+01) (94, 1.19015445776029213931e+01) (95, 1.17777650021136874869e+01) (96, 1.18513144204120912661e+01) (97, 2.03044571685849604137e+01) (98, 2.02683761126623203097e+01) (99, 1.19605161543680829084e+01) (100, 2.03757504521302017508e+01) (101, 1.17557113188179762631e+01) (102, 1.18339222278781317499e+01) (103, 2.02177534053377385703e+01) (104, 2.01722157697047919100e+01) (105, 2.03579612759182744242e+01) (106, 1.18002591705210555517e+01) (107, 1.18289082750627922991e+01) (108, 1.18046718231293041868e+01) (109, 4.98451958153815226638e+01) (110, 1.16533429159965713495e+01) (111, 1.18507843819423257514e+01) (112, 5.43567215929046643197e+00) (113, 5.42650224582202422852e+00) (114, 2.02295191056856076273e+01) (115, 2.73675450241144915253e+02) (116, 1.69466637077110334531e+02) (117, 2.38457192607733290401e+01) (118, 6.29316819936518090373e+00) (119, 5.48452396469459291239e+00) (120, 5.56260954420239972507e+00) (121, 5.70223618173160051725e+00) (122, 5.42755340241998585071e+00) (123, 5.35013770235532692965e+00) (124, 5.41650631481021793689e+00) (125, 5.52990824560792493259e+00) (126, 5.47130748831838520374e+00) (127, 2.02294056771722843280e+01) (128, 2.03773464093414702347e+01) (129, 9.67058405923971342588e+00) (130, 1.16789951732582260036e+01) (131, 2.62678502634340063082e+01) (132, 1.07218165972895018712e+01) (133, 1.22645433781087973557e+01) (134, 1.01581710612933576954e+02) (135, 2.21023573848078136450e+01) (136, 2.04380274095171827753e+01) (137, 2.05972493703747581151e+01) (138, 2.05128011301594099791e+01) (139, 5.89369943607009805220e+00) (140, 9.27774800282235645454e+00) (141, 2.10741397519357462897e+01) (142, 1.26028749055318556316e+01) (143, 1.21720409453127391686e+01) (144, 1.17940112311211322549e+01) (145, 1.17827070438065746316e+01) (146, 2.03654780301175506452e+01) (147, 2.25350354418139460222e+01) (148, 2.21823663347279804725e+01) (149, 1.19384722698641052574e+01) (150, 1.18673914339939461371e+01) (151, 5.41248904848709955218e+00) (152, 1.18524632990588827397e+01) (153, 2.02446438192927331556e+01) (154, 1.16982418259499159063e+01) (155, 1.18995330982045217638e+01) (156, 1.17984460797298762458e+01) (157, 1.17997527816589382610e+01) (158, 1.22625492026631377485e+01) (159, 2.40492750042761223028e+01) (160, 4.37851802949755253280e+01) (161, 1.39586888145725414034e+01) (162, 1.21295754620389768519e+01) (163, 2.05457443588072123930e+01) (164, 1.18638648729391729120e+01) (165, 5.43712430761106002564e+00) (166, 5.46934952044099720325e+00) (167, 5.42652771824211033191e+00) (168, 5.52046337926000507679e+00) (169, 5.49730512702077778187e+00) (170, 5.47626997732728870716e+00) (171, 8.86130812692930724950e+00) (172, 5.47413824787464786681e+00) (173, 8.97713184558067922580e+00) (174, 5.54920846418458069138e+00) (175, 5.35906473749488920788e+00) (176, 8.98279396267715313229e+00) (177, 8.89015711866452562617e+00) (178, 2.04105339494605182438e+01) (179, 8.85108234930812187713e+00) (180, 9.88729347456881235701e+00) (181, 2.29027329375490538155e+01) (182, 1.20938258444794239921e+01) (183, 2.02768105463532997135e+01) (184, 2.05759703841020460402e+01) (185, 9.69545138330058264842e+00) (186, 2.58080897521456833488e+01) (187, 1.29930556597335584712e+01) (188, 5.39637274497360230896e+00) (189, 5.50588847899049671497e+00) (190, 5.33672294222921461682e+00) (191, 2.01505418281141288617e+01) (192, 2.02031027871254451611e+01) (193, 5.30085214895823852999e+00) (194, 5.37756488768214069296e+00) (195, 5.37600559292191348959e+00) (196, 5.36902620194310031820e+00) (197, 1.19189214559623160028e+01) (198, 1.18142525606141646222e+01) (199, 1.18751395421453871393e+01) (200, 1.17724737797342680068e+01) (201, 1.18502583560654262129e+01) (202, 1.18529586650384555213e+01) (203, 1.18290768487273361131e+01) (204, 2.01890697820992173206e+01) (205, 2.01745739959014329656e+01) (206, 2.01519092001805084635e+01) (207, 2.00864476278663737219e+01) (208, 2.00693161631839309678e+01) (209, 2.00742743560748309051e+01) (210, 2.01794233467195134324e+01) (211, 2.02293122428111722400e+01) (212, 2.01580183576787419497e+01) (213, 2.02135040777118284439e+01) (214, 2.01976714947954292256e+01) (215, 2.01039802528896203171e+01) (216, 2.01406122331712040818e+01) (217, 2.02021233368617316728e+01) (218, 2.02112117768665449091e+01) (219, 2.01637531275371593154e+01) (220, 2.02414010299208726451e+01) (221, 2.01138156977991435781e+01) (222, 8.81464872330753834717e+00) (223, 1.91885363913628061994e+01) (224, 4.73546067967264061593e+00) (225, 8.65702390482270800476e+00) (226, 1.06906200633875201333e+01) (227, 8.73170900522273640831e+00) (228, 8.86172765683519259028e+00) (229, 8.83063481269138961238e+00) (230, 8.72037121419657346166e+00) (231, 2.01694901220442801559e+01) (232, 2.02277114964760507121e+01) (233, 4.19449259390606030706e+01) (234, 1.78179908365456363128e+01) (235, 2.46134359408601604002e+01) (236, 1.17428650723956124580e+02) (237, 9.31460711629027038327e+00) (238, 5.34991246750604965143e+00) (239, 5.20991387206532419185e+00) (240, 8.62667035481897137572e+00) (241, 8.53782684534589897396e+00) (242, 5.37954857625771154517e+00) (243, 5.71644541210079282223e+00) (244, 8.84606333999559879544e+00) (245, 7.87397702775756247462e+00) (246, 5.38876739663142334535e+00) (247, 5.85051036980404326471e+00) (248, 1.08568819442995661007e+01) (249, 5.26438238322736662411e+00) (250, 4.59120299929973540998e+00) (251, 6.97776782642565773784e+00) (252, 7.06690559525724637524e+00) (253, 8.67898012004103946992e+00) (254, 2.01392396904388100154e+01) (255, 2.01388690039045634705e+01) (256, 2.01068112545763391097e+01) (257, 2.01740429368394842413e+01) (258, 2.01362500298998696735e+01) (259, 2.01935144357834843731e+01) (260, 2.01308474744313059546e+01) (261, 2.01443317602619913487e+01) (262, 2.02293582004926228990e+01) (263, 2.01027028736963799815e+01) (264, 2.00608852091460398981e+01) (265, 2.00827839191153429965e+01) (266, 2.01421685922174624750e+01) (267, 9.29043169159002246715e+00) (268, 8.70622463364740717395e+00) (269, 8.76636842041534869452e+00) (270, 8.79736833694568254316e+00) (271, 8.70606766573625456829e+00) (272, 8.80559837532706168872e+00) (273, 8.74026726613849547221e+00) (274, 8.87808229100500945208e+00) (275, 2.01403469368454679511e+01) (276, 2.01089212115004443149e+01) (277, 2.02306140099856648362e+01) (278, 2.00599177890549462688e+01) (279, 8.71406589959610577978e+00) (280, 8.84775604294101469804e+00) (281, 8.75844510789231378567e+00) (282, 8.84107843843461793654e+00) (283, 8.77156028115847696824e+00) (284, 8.66922169772378836683e+00) (285, 8.76066213982602803867e+00) (286, 8.82206616639900786936e+00) (287, 8.85705476654507606327e+00) (288, 8.80175590052484047021e+00) (289, 8.74975569735272173943e+00) (290, 9.03714893980300359999e+00) (291, 8.83237303358385972274e+00) (292, 8.71209113826389192070e+00) (293, 8.66994946665485421988e+00) (294, 8.83857506961116889954e+00) (295, 8.75182483965384960811e+00) (296, 8.73759202852111904747e+00) (297, 2.02057656671067142895e+01) (298, 4.39845758998764608805e+01) (299, 3.94558751384207226920e+01) (300, 2.04720945362992701178e+01) (301, 2.07610610596760096769e+01) (302, 1.17167291550578234194e+01) (303, 1.17779217306251684505e+01) (304, 1.22033218656985926742e+01) (305, 4.01939915128247164944e+01) (306, 2.01651125072428527574e+01) (307, 2.02345716489506095570e+01) (308, 2.01942284709166379741e+01) (309, 2.02657799435331256177e+01) (310, 2.00774520834131031677e+01) (311, 2.01431620295325544134e+01) (312, 2.01952721709882645484e+01) (313, 2.01665422615822471641e+01) (314, 2.01614399633062149064e+01) (315, 2.01110231240229637706e+01) (316, 2.01262585190091058962e+01) (317, 2.01201526814697579937e+01) (318, 