FANN_FLO_2.1
num_layers=3
learning_rate=0.700000
connection_rate=1.000000
network_type=0
learning_momentum=0.000000
training_algorithm=2
train_error_function=1
train_stop_function=1
cascade_output_change_fraction=0.010000
quickprop_decay=-0.000100
quickprop_mu=1.750000
rprop_increase_factor=1.200000
rprop_decrease_factor=0.500000
rprop_delta_min=0.000000
rprop_delta_max=50.000000
rprop_delta_zero=0.100000
cascade_output_stagnation_epochs=12
cascade_candidate_change_fraction=0.010000
cascade_candidate_stagnation_epochs=12
cascade_max_out_epochs=150
cascade_max_cand_epochs=150
cascade_num_candidate_groups=2
bit_fail_limit=2.00000000000000011102e-01
cascade_candidate_limit=1.00000000000000000000e+03
cascade_weight_multiplier=4.00000000000000022204e-01
cascade_activation_functions_count=10
cascade_activation_functions=3 5 7 8 10 11 14 15 16 17 
cascade_activation_steepnesses_count=4
cascade_activation_steepnesses=2.50000000000000000000e-01 5.00000000000000000000e-01 7.50000000000000000000e-01 1.00000000000000000000e+00 
layer_sizes=411 257 4 
scale_included=0
neurons (num_inputs, activation_function, activation_steepness)=(0, 0, 0.00000000000000000000e+00) (0, 0, 0.00000000000000000000e+00) (0, 0, 0.00000000000000000000e+00) (0, 0, 0.00000000000000000000e+00) (0, 0, 0.00000000000000000000e+00) (0, 0, 0.00000000000000000000e+00) (0, 0, 0.00000000000000000000e+00) (0, 0, 0.00000000000000000000e+00) (0, 0, 0.00000000000000000000e+00) (0, 0, 0.00000000000000000000e+00) (0, 0, 0.00000000000000000000e+00) (0, 0, 0.00000000000000000000e+00) (0, 0, 0.00000000000000000000e+00) (0, 0, 0.00000000000000000000e+00) (0, 0, 0.00000000000000000000e+00) (0, 0, 0.00000000000000000000e+00) (0, 0, 0.00000000000000000000e+00) (0, 0, 0.00000000000000000000e+00) (0, 0, 0.00000000000000000000e+00) (0, 0, 0.00000000000000000000e+00) (0, 0, 0.00000000000000000000e+00) (0, 0, 0.00000000000000000000e+00) (0, 0, 0.00000000000000000000e+00) (0, 0, 0.00000000000000000000e+00) (0, 0, 0.00000000000000000000e+00) (0, 0, 0.00000000000000000000e+00) (0, 0, 0.00000000000000000000e+00) (0, 0, 0.00000000000000000000e+00) (0, 0, 0.00000000000000000000e+00) (0, 0, 0.00000000000000000000e+00) (0, 0, 0.00000000000000000000e+00) (0, 0, 0.00000000000000000000e+00) (0, 0, 0.00000000000000000000e+00) (0, 0, 0.00000000000000000000e+00) (0, 0, 0.00000000000000000000e+00) (0, 0, 0.00000000000000000000e+00) (0, 0, 0.00000000000000000000e+00) (0, 0, 0.00000000000000000000e+00) (0, 0, 0.00000000000000000000e+00) (0, 0, 0.00000000000000000000e+00) (0, 0, 0.00000000000000000000e+00) (0, 0, 0.00000000000000000000e+00) (0, 0, 0.00000000000000000000e+00) (0, 0, 0.00000000000000000000e+00) (0, 0, 0.00000000000000000000e+00) (0, 0, 0.00000000000000000000e+00) (0, 0, 0.00000000000000000000e+00) (0, 0, 0.00000000000000000000e+00) (0, 0, 0.00000000000000000000e+00) (0, 0, 0.00000000000000000000e+00) (0, 0, 0.00000000000000000000e+00) (0, 0, 0.00000000000000000000e+00) (0, 0, 0.00000000000000000000e+00) (0, 0, 0.00000000000000000000e+00) (0, 0, 0.00000000000000000000e+00) (0, 0, 0.00000000000000000000e+00) (0, 0, 0.00000000000000000000e+00) (0, 0, 0.00000000000000000000e+00) (0, 0, 0.00000000000000000000e+00) (0, 0, 0.00000000000000000000e+00) (0, 0, 0.00000000000000000000e+00) (0, 0, 0.00000000000000000000e+00) (0, 0, 0.00000000000000000000e+00) (0, 0, 0.00000000000000000000e+00) (0, 0, 0.00000000000000000000e+00) (0, 0, 0.00000000000000000000e+00) (0, 0, 0.00000000000000000000e+00) (0, 0, 0.00000000000000000000e+00) (0, 0, 0.00000000000000000000e+00) (0, 0, 0.00000000000000000000e+00) (0, 0, 0.00000000000000000000e+00) (0, 0, 0.00000000000000000000e+00) (0, 0, 0.00000000000000000000e+00) (0, 0, 0.00000000000000000000e+00) (0, 0, 0.00000000000000000000e+00) (0, 0, 0.00000000000000000000e+00) (0, 0, 0.00000000000000000000e+00) (0, 0, 0.00000000000000000000e+00) (0, 0, 0.00000000000000000000e+00) (0, 0, 0.00000000000000000000e+00) (0, 0, 0.00000000000000000000e+00) (0, 0, 0.00000000000000000000e+00) (0, 0, 0.00000000000000000000e+00) (0, 0, 0.00000000000000000000e+00) (0, 0, 0.00000000000000000000e+00) (0, 0, 0.00000000000000000000e+00) (0, 0, 0.00000000000000000000e+00) (0, 0, 0.00000000000000000000e+00) (0, 0, 0.00000000000000000000e+00) (0, 0, 0.00000000000000000000e+00) (0, 0, 0.00000000000000000000e+00) (0, 0, 0.00000000000000000000e+00) (0, 0, 0.00000000000000000000e+00) (0, 0, 0.00000000000000000000e+00) (0, 0, 0.00000000000000000000e+00) (0, 0, 0.00000000000000000000e+00) (0, 0, 0.00000000000000000000e+00) (0, 0, 0.00000000000000000000e+00) (0, 0, 0.00000000000000000000e+00) (0, 0, 0.00000000000000000000e+00) (0, 0, 0.00000000000000000000e+00) (0, 0, 0.00000000000000000000e+00) (0, 0, 0.00000000000000000000e+00) (0, 0, 0.00000000000000000000e+00) (0, 0, 0.00000000000000000000e+00) (0, 0, 0.00000000000000000000e+00) (0, 0, 0.00000000000000000000e+00) (0, 0, 0.00000000000000000000e+00) (0, 0, 0.00000000000000000000e+00) (0, 0, 0.00000000000000000000e+00) (0, 0, 0.00000000000000000000e+00) (0, 0, 0.00000000000000000000e+00) (0, 0, 0.00000000000000000000e+00) (0, 0, 0.00000000000000000000e+00) (0, 0, 0.00000000000000000000e+00) (0, 0, 0.00000000000000000000e+00) (0, 0, 0.00000000000000000000e+00) (0, 0, 0.00000000000000000000e+00) (0, 0, 0.00000000000000000000e+00) (0, 0, 0.00000000000000000000e+00) (0, 0, 0.00000000000000000000e+00) (0, 0, 0.00000000000000000000e+00) (0, 0, 0.00000000000000000000e+00) (0, 0, 0.00000000000000000000e+00) (0, 0, 0.00000000000000000000e+00) (0, 0, 0.00000000000000000000e+00) (0, 0, 0.00000000000000000000e+00) (0, 0, 0.00000000000000000000e+00) (0, 0, 0.00000000000000000000e+00) (0, 0, 0.00000000000000000000e+00) (0, 0, 0.00000000000000000000e+00) (0, 0, 0.00000000000000000000e+00) (0, 0, 0.00000000000000000000e+00) (0, 0, 0.00000000000000000000e+00) (0, 0, 0.00000000000000000000e+00) (0, 0, 0.00000000000000000000e+00) (0, 0, 0.00000000000000000000e+00) (0, 0, 0.00000000000000000000e+00) (0, 0, 0.00000000000000000000e+00) (0, 0, 0.00000000000000000000e+00) (0, 0, 0.00000000000000000000e+00) (0, 0, 0.00000000000000000000e+00) (0, 0, 0.00000000000000000000e+00) (0, 0, 0.00000000000000000000e+00) (0, 0, 0.00000000000000000000e+00) (0, 0, 0.00000000000000000000e+00) (0, 0, 0.00000000000000000000e+00) (0, 0, 0.00000000000000000000e+00) (0, 0, 0.00000000000000000000e+00) (0, 0, 0.00000000000000000000e+00) (0, 0, 0.00000000000000000000e+00) (0, 0, 0.00000000000000000000e+00) (0, 0, 0.00000000000000000000e+00) (0, 0, 0.00000000000000000000e+00) (0, 0, 0.00000000000000000000e+00) (0, 0, 0.00000000000000000000e+00) (0, 0, 0.00000000000000000000e+00) (0, 0, 0.00000000000000000000e+00) (0, 0, 0.00000000000000000000e+00) (0, 0, 0.00000000000000000000e+00) (0, 0, 0.00000000000000000000e+00) (0, 0, 0.00000000000000000000e+00) (0, 0, 0.00000000000000000000e+00) (0, 0, 0.00000000000000000000e+00) (0, 0, 0.00000000000000000000e+00) (0, 0, 0.00000000000000000000e+00) (0, 0, 0.00000000000000000000e+00) (0, 0, 0.00000000000000000000e+00) (0, 0, 0.00000000000000000000e+00) (0, 0, 0.00000000000000000000e+00) (0, 0, 0.00000000000000000000e+00) (0, 0, 0.00000000000000000000e+00) (0, 0, 0.00000000000000000000e+00) (0, 0, 0.00000000000000000000e+00) (0, 0, 0.00000000000000000000e+00) (0, 0, 0.00000000000000000000e+00) (0, 0, 0.00000000000000000000e+00) (0, 0, 0.00000000000000000000e+00) (0, 0, 0.00000000000000000000e+00) (0, 0, 0.00000000000000000000e+00) (0, 0, 0.00000000000000000000e+00) (0, 0, 0.00000000000000000000e+00) (0, 0, 0.00000000000000000000e+00) (0, 0, 0.00000000000000000000e+00) (0, 0, 0.00000000000000000000e+00) (0, 0, 0.00000000000000000000e+00) (0, 0, 0.00000000000000000000e+00) (0, 0, 0.00000000000000000000e+00) (0, 0, 0.00000000000000000000e+00) (0, 0, 0.00000000000000000000e+00) (0, 0, 0.00000000000000000000e+00) (0, 0, 0.00000000000000000000e+00) (0, 0, 0.00000000000000000000e+00) (0, 0, 0.00000000000000000000e+00) (0, 0, 0.00000000000000000000e+00) (0, 0, 0.00000000000000000000e+00) (0, 0, 0.00000000000000000000e+00) (0, 0, 0.00000000000000000000e+00) (0, 0, 0.00000000000000000000e+00) (0, 0, 0.00000000000000000000e+00) (0, 0, 0.00000000000000000000e+00) (0, 0, 0.00000000000000000000e+00) (0, 0, 0.00000000000000000000e+00) (0, 0, 0.00000000000000000000e+00) (0, 0, 0.00000000000000000000e+00) (0, 0, 0.00000000000000000000e+00) (0, 0, 0.00000000000000000000e+00) (0, 0, 0.00000000000000000000e+00) (0, 0, 0.00000000000000000000e+00) (0, 0, 0.00000000000000000000e+00) (0, 0, 0.00000000000000000000e+00) (0, 0, 0.00000000000000000000e+00) (0, 0, 0.00000000000000000000e+00) (0, 0, 0.00000000000000000000e+00) (0, 0, 0.00000000000000000000e+00) (0, 0, 0.00000000000000000000e+00) (0, 0, 0.00000000000000000000e+00) (0, 0, 0.00000000000000000000e+00) (0, 0, 0.00000000000000000000e+00) (0, 0, 0.00000000000000000000e+00) (0, 0, 0.00000000000000000000e+00) (0, 0, 0.00000000000000000000e+00) (0, 0, 0.00000000000000000000e+00) (0, 0, 0.00000000000000000000e+00) (0, 0, 0.00000000000000000000e+00) (0, 0, 0.00000000000000000000e+00) (0, 0, 0.00000000000000000000e+00) (0, 0, 0.00000000000000000000e+00) (0, 0, 0.00000000000000000000e+00) (0, 0, 0.00000000000000000000e+00) (0, 0, 0.00000000000000000000e+00) (0, 0, 0.00000000000000000000e+00) (0, 0, 0.00000000000000000000e+00) (0, 0, 0.00000000000000000000e+00) (0, 0, 0.00000000000000000000e+00) (0, 0, 0.00000000000000000000e+00) (0, 0, 0.00000000000000000000e+00) (0, 0, 0.00000000000000000000e+00) (0, 0, 0.00000000000000000000e+00) (0, 0, 0.00000000000000000000e+00) (0, 0, 0.00000000000000000000e+00) (0, 0, 0.00000000000000000000e+00) (0, 0, 0.00000000000000000000e+00) (0, 0, 0.00000000000000000000e+00) (0, 0, 0.00000000000000000000e+00) (0, 0, 0.00000000000000000000e+00) (0, 0, 0.00000000000000000000e+00) (0, 0, 0.00000000000000000000e+00) (0, 0, 0.00000000000000000000e+00) (0, 0, 0.00000000000000000000e+00) (0, 0, 0.00000000000000000000e+00) (0, 0, 0.00000000000000000000e+00) (0, 0, 0.00000000000000000000e+00) (0, 0, 0.00000000000000000000e+00) (0, 0, 0.00000000000000000000e+00) (0, 0, 0.00000000000000000000e+00) (0, 0, 0.00000000000000000000e+00) (0, 0, 0.00000000000000000000e+00) (0, 0, 0.00000000000000000000e+00) (0, 0, 0.00000000000000000000e+00) (0, 0, 0.00000000000000000000e+00) (0, 0, 0.00000000000000000000e+00) (0, 0, 0.00000000000000000000e+00) (0, 0, 0.00000000000000000000e+00) (0, 0, 0.00000000000000000000e+00) (0, 0, 0.00000000000000000000e+00) (0, 0, 0.00000000000000000000e+00) (0, 0, 0.00000000000000000000e+00) (0, 0, 0.00000000000000000000e+00) (0, 0, 0.00000000000000000000e+00) (0, 0, 0.00000000000000000000e+00) (0, 0, 0.00000000000000000000e+00) (0, 0, 0.00000000000000000000e+00) (0, 0, 0.00000000000000000000e+00) (0, 0, 0.00000000000000000000e+00) (0, 0, 0.00000000000000000000e+00) (0, 0, 0.00000000000000000000e+00) (0, 0, 0.00000000000000000000e+00) (0, 0, 0.00000000000000000000e+00) (0, 0, 0.00000000000000000000e+00) (0, 0, 0.00000000000000000000e+00) (0, 0, 0.00000000000000000000e+00) (0, 0, 0.00000000000000000000e+00) (0, 0, 0.00000000000000000000e+00) (0, 0, 0.00000000000000000000e+00) (0, 0, 0.00000000000000000000e+00) (0, 0, 0.00000000000000000000e+00) (0, 0, 0.00000000000000000000e+00) (0, 0, 0.00000000000000000000e+00) (0, 0, 0.00000000000000000000e+00) (0, 0, 0.00000000000000000000e+00) (0, 0, 0.00000000000000000000e+00) (0, 0, 0.00000000000000000000e+00) (0, 0, 0.00000000000000000000e+00) (0, 0, 0.00000000000000000000e+00) (0, 0, 0.00000000000000000000e+00) (0, 0, 0.00000000000000000000e+00) (0, 0, 0.00000000000000000000e+00) (0, 0, 0.00000000000000000000e+00) (0, 0, 0.00000000000000000000e+00) (0, 0, 0.00000000000000000000e+00) (0, 0, 0.00000000000000000000e+00) (0, 0, 0.00000000000000000000e+00) (0, 0, 0.00000000000000000000e+00) (0, 0, 0.00000000000000000000e+00) (0, 0, 0.00000000000000000000e+00) (0, 0, 0.00000000000000000000e+00) (0, 0, 0.00000000000000000000e+00) (0, 0, 0.00000000000000000000e+00) (0, 0, 0.00000000000000000000e+00) (0, 0, 0.00000000000000000000e+00) (0, 0, 0.00000000000000000000e+00) (0, 0, 0.00000000000000000000e+00) (0, 0, 0.00000000000000000000e+00) (0, 0, 0.00000000000000000000e+00) (0, 0, 0.00000000000000000000e+00) (0, 0, 0.00000000000000000000e+00) (0, 0, 0.00000000000000000000e+00) (0, 0, 0.00000000000000000000e+00) (0, 0, 0.00000000000000000000e+00) (0, 0, 0.00000000000000000000e+00) (0, 0, 0.00000000000000000000e+00) (0, 0, 0.00000000000000000000e+00) (0, 0, 0.00000000000000000000e+00) (0, 0, 0.00000000000000000000e+00) (0, 0, 0.00000000000000000000e+00) (0, 0, 0.00000000000000000000e+00) (0, 0, 0.00000000000000000000e+00) (0, 0, 0.00000000000000000000e+00) (0, 0, 0.00000000000000000000e+00) (0, 0, 0.00000000000000000000e+00) (0, 0, 0.00000000000000000000e+00) (0, 0, 0.00000000000000000000e+00) (0, 0, 0.00000000000000000000e+00) (0, 0, 0.00000000000000000000e+00) (0, 0, 0.00000000000000000000e+00) (0, 0, 0.00000000000000000000e+00) (0, 0, 0.00000000000000000000e+00) (0, 0, 0.00000000000000000000e+00) (0, 0, 0.00000000000000000000e+00) (0, 0, 0.00000000000000000000e+00) (0, 0, 0.00000000000000000000e+00) (0, 0, 0.00000000000000000000e+00) (0, 0, 0.00000000000000000000e+00) (0, 0, 0.00000000000000000000e+00) (0, 0, 0.00000000000000000000e+00) (0, 0, 0.00000000000000000000e+00) (0, 0, 0.00000000000000000000e+00) (0, 0, 0.00000000000000000000e+00) (0, 0, 0.00000000000000000000e+00) (0, 0, 0.00000000000000000000e+00) (0, 0, 0.00000000000000000000e+00) (0, 0, 0.00000000000000000000e+00) (0, 0, 0.00000000000000000000e+00) (0, 0, 0.00000000000000000000e+00) (0, 0, 0.00000000000000000000e+00) (0, 0, 0.00000000000000000000e+00) (0, 0, 0.00000000000000000000e+00) (0, 0, 0.00000000000000000000e+00) (0, 0, 0.00000000000000000000e+00) (0, 0, 0.00000000000000000000e+00) (0, 0, 0.00000000000000000000e+00) (0, 0, 0.00000000000000000000e+00) (0, 0, 0.00000000000000000000e+00) (0, 0, 0.00000000000000000000e+00) (0, 0, 0.00000000000000000000e+00) (0, 0, 0.00000000000000000000e+00) (0, 0, 0.00000000000000000000e+00) (0, 0, 0.00000000000000000000e+00) (0, 0, 0.00000000000000000000e+00) (0, 0, 0.00000000000000000000e+00) (0, 0, 0.00000000000000000000e+00) (0, 0, 0.00000000000000000000e+00) (0, 0, 0.00000000000000000000e+00) (0, 0, 0.00000000000000000000e+00) (0, 0, 0.00000000000000000000e+00) (0, 0, 0.00000000000000000000e+00) (0, 0, 0.00000000000000000000e+00) (0, 0, 0.00000000000000000000e+00) (0, 0, 0.00000000000000000000e+00) (0, 0, 0.00000000000000000000e+00) (0, 0, 0.00000000000000000000e+00) (0, 0, 0.00000000000000000000e+00) (0, 0, 0.00000000000000000000e+00) (0, 0, 0.00000000000000000000e+00) (0, 0, 0.00000000000000000000e+00) (0, 0, 0.00000000000000000000e+00) (0, 0, 0.00000000000000000000e+00) (0, 0, 0.00000000000000000000e+00) (0, 0, 0.00000000000000000000e+00) (0, 0, 0.00000000000000000000e+00) (0, 0, 0.00000000000000000000e+00) (0, 0, 0.00000000000000000000e+00) (0, 0, 0.00000000000000000000e+00) (0, 0, 0.00000000000000000000e+00) (0, 0, 0.00000000000000000000e+00) (0, 0, 0.00000000000000000000e+00) (0, 0, 0.00000000000000000000e+00) (0, 0, 0.00000000000000000000e+00) (0, 0, 0.00000000000000000000e+00) (0, 0, 0.00000000000000000000e+00) (0, 0, 0.00000000000000000000e+00) (0, 0, 0.00000000000000000000e+00) (0, 0, 0.00000000000000000000e+00) (0, 0, 0.00000000000000000000e+00) (0, 0, 0.00000000000000000000e+00) (0, 0, 0.00000000000000000000e+00) (0, 0, 0.00000000000000000000e+00) (0, 0, 0.00000000000000000000e+00) (0, 0, 0.00000000000000000000e+00) (0, 0, 0.00000000000000000000e+00) (411, 5, 5.00000000000000000000e-01) (411, 5, 5.00000000000000000000e-01) (411, 5, 5.00000000000000000000e-01) (411, 5, 5.00000000000000000000e-01) (411, 5, 5.00000000000000000000e-01) (411, 5, 5.00000000000000000000e-01) (411, 5, 5.00000000000000000000e-01) (411, 5, 5.00000000000000000000e-01) (411, 5, 5.00000000000000000000e-01) (411, 5, 5.00000000000000000000e-01) (411, 5, 5.00000000000000000000e-01) (411, 5, 5.00000000000000000000e-01) (411, 5, 5.00000000000000000000e-01) (411, 5, 5.00000000000000000000e-01) (411, 5, 5.00000000000000000000e-01) (411, 5, 5.00000000000000000000e-01) (411, 5, 5.00000000000000000000e-01) (411, 5, 5.00000000000000000000e-01) (411, 5, 5.00000000000000000000e-01) (411, 5, 5.00000000000000000000e-01) (411, 5, 5.00000000000000000000e-01) (411, 5, 5.00000000000000000000e-01) (411, 5, 5.00000000000000000000e-01) (411, 5, 5.00000000000000000000e-01) (411, 5, 5.00000000000000000000e-01) (411, 5, 5.00000000000000000000e-01) (411, 5, 5.00000000000000000000e-01) (411, 5, 5.00000000000000000000e-01) (411, 5, 5.00000000000000000000e-01) (411, 5, 5.00000000000000000000e-01) (411, 5, 5.00000000000000000000e-01) (411, 5, 5.00000000000000000000e-01) (411, 5, 5.00000000000000000000e-01) (411, 5, 5.00000000000000000000e-01) (411, 5, 5.00000000000000000000e-01) (411, 5, 5.00000000000000000000e-01) (411, 5, 5.00000000000000000000e-01) (411, 5, 5.00000000000000000000e-01) (411, 5, 5.00000000000000000000e-01) (411, 5, 5.00000000000000000000e-01) (411, 5, 5.00000000000000000000e-01) (411, 5, 5.00000000000000000000e-01) (411, 5, 5.00000000000000000000e-01) (411, 5, 5.00000000000000000000e-01) (411, 5, 5.00000000000000000000e-01) (411, 5, 5.00000000000000000000e-01) (411, 5, 5.00000000000000000000e-01) (411, 5, 5.00000000000000000000e-01) (411, 5, 5.00000000000000000000e-01) (411, 5, 5.00000000000000000000e-01) (411, 5, 5.00000000000000000000e-01) (411, 5, 5.00000000000000000000e-01) (411, 5, 5.00000000000000000000e-01) (411, 5, 5.00000000000000000000e-01) (411, 5, 5.00000000000000000000e-01) (411, 5, 5.00000000000000000000e-01) (411, 5, 5.00000000000000000000e-01) (411, 5, 5.00000000000000000000e-01) (411, 5, 5.00000000000000000000e-01) (411, 5, 5.00000000000000000000e-01) (411, 5, 5.00000000000000000000e-01) (411, 5, 5.00000000000000000000e-01) (411, 5, 5.00000000000000000000e-01) (411, 5, 5.00000000000000000000e-01) (411, 5, 5.00000000000000000000e-01) (411, 5, 5.00000000000000000000e-01) (411, 5, 5.00000000000000000000e-01) (411, 5, 5.00000000000000000000e-01) (411, 5, 5.00000000000000000000e-01) (411, 5, 5.00000000000000000000e-01) (411, 5, 5.00000000000000000000e-01) (411, 5, 5.00000000000000000000e-01) (411, 5, 5.00000000000000000000e-01) (411, 5, 5.00000000000000000000e-01) (411, 5, 5.00000000000000000000e-01) (411, 5, 5.00000000000000000000e-01) (411, 5, 5.00000000000000000000e-01) (411, 5, 5.00000000000000000000e-01) (411, 5, 5.00000000000000000000e-01) (411, 5, 5.00000000000000000000e-01) (411, 5, 5.00000000000000000000e-01) (411, 5, 5.00000000000000000000e-01) (411, 5, 5.00000000000000000000e-01) (411, 5, 5.00000000000000000000e-01) (411, 5, 5.00000000000000000000e-01) (411, 5, 5.00000000000000000000e-01) (411, 5, 5.00000000000000000000e-01) (411, 5, 5.00000000000000000000e-01) (411, 5, 5.00000000000000000000e-01) (411, 5, 5.00000000000000000000e-01) (411, 5, 5.00000000000000000000e-01) (411, 5, 5.00000000000000000000e-01) (411, 5, 5.00000000000000000000e-01) (411, 5, 5.00000000000000000000e-01) (411, 5, 5.00000000000000000000e-01) (411, 5, 5.00000000000000000000e-01) (411, 5, 5.00000000000000000000e-01) (411, 5, 5.00000000000000000000e-01) (411, 5, 5.00000000000000000000e-01) (411, 5, 5.00000000000000000000e-01) (411, 5, 5.00000000000000000000e-01) (411, 5, 5.00000000000000000000e-01) (411, 5, 5.00000000000000000000e-01) (411, 5, 5.00000000000000000000e-01) (411, 5, 5.00000000000000000000e-01) (411, 5, 5.00000000000000000000e-01) (411, 5, 5.00000000000000000000e-01) (411, 5, 5.00000000000000000000e-01) (411, 5, 5.00000000000000000000e-01) (411, 5, 5.00000000000000000000e-01) (411, 5, 5.00000000000000000000e-01) (411, 5, 5.00000000000000000000e-01) (411, 5, 5.00000000000000000000e-01) (411, 5, 5.00000000000000000000e-01) (411, 5, 5.00000000000000000000e-01) (411, 5, 5.00000000000000000000e-01) (411, 5, 5.00000000000000000000e-01) (411, 5, 5.00000000000000000000e-01) (411, 5, 5.00000000000000000000e-01) (411, 5, 5.00000000000000000000e-01) (411, 5, 5.00000000000000000000e-01) (411, 5, 5.00000000000000000000e-01) (411, 5, 5.00000000000000000000e-01) (411, 5, 5.00000000000000000000e-01) (411, 5, 5.00000000000000000000e-01) (411, 5, 5.00000000000000000000e-01) (411, 5, 5.00000000000000000000e-01) (411, 5, 5.00000000000000000000e-01) (411, 5, 5.00000000000000000000e-01) (411, 5, 5.00000000000000000000e-01) (411, 5, 5.00000000000000000000e-01) (411, 5, 5.00000000000000000000e-01) (411, 5, 5.00000000000000000000e-01) (411, 5, 5.00000000000000000000e-01) (411, 5, 5.00000000000000000000e-01) (411, 5, 5.00000000000000000000e-01) (411, 5, 5.00000000000000000000e-01) (411, 5, 5.00000000000000000000e-01) (411, 5, 5.00000000000000000000e-01) (411, 5, 5.00000000000000000000e-01) (411, 5, 5.00000000000000000000e-01) (411, 5, 5.00000000000000000000e-01) (411, 5, 5.00000000000000000000e-01) (411, 5, 5.00000000000000000000e-01) (411, 5, 5.00000000000000000000e-01) (411, 5, 5.00000000000000000000e-01) (411, 5, 5.00000000000000000000e-01) (411, 5, 5.00000000000000000000e-01) (411, 5, 5.00000000000000000000e-01) (411, 5, 5.00000000000000000000e-01) (411, 5, 5.00000000000000000000e-01) (411, 5, 5.00000000000000000000e-01) (411, 5, 5.00000000000000000000e-01) (411, 5, 5.00000000000000000000e-01) (411, 5, 5.00000000000000000000e-01) (411, 5, 5.00000000000000000000e-01) (411, 5, 5.00000000000000000000e-01) (411, 5, 5.00000000000000000000e-01) (411, 5, 5.00000000000000000000e-01) (411, 5, 5.00000000000000000000e-01) (411, 5, 5.00000000000000000000e-01) (411, 5, 5.00000000000000000000e-01) (411, 5, 5.00000000000000000000e-01) (411, 5, 5.00000000000000000000e-01) (411, 5, 5.00000000000000000000e-01) (411, 5, 5.00000000000000000000e-01) (411, 5, 5.00000000000000000000e-01) (411, 5, 5.00000000000000000000e-01) (411, 5, 5.00000000000000000000e-01) (411, 5, 5.00000000000000000000e-01) (411, 5, 5.00000000000000000000e-01) (411, 5, 5.00000000000000000000e-01) (411, 5, 5.00000000000000000000e-01) (411, 5, 5.00000000000000000000e-01) (411, 5, 5.00000000000000000000e-01) (411, 5, 5.00000000000000000000e-01) (411, 5, 5.00000000000000000000e-01) (411, 5, 5.00000000000000000000e-01) (411, 5, 5.00000000000000000000e-01) (411, 5, 5.00000000000000000000e-01) (411, 5, 5.00000000000000000000e-01) (411, 5, 5.00000000000000000000e-01) (411, 5, 5.00000000000000000000e-01) (411, 5, 5.00000000000000000000e-01) (411, 5, 5.00000000000000000000e-01) (411, 5, 5.00000000000000000000e-01) (411, 5, 5.00000000000000000000e-01) (411, 5, 5.00000000000000000000e-01) (411, 5, 5.00000000000000000000e-01) (411, 5, 5.00000000000000000000e-01) (411, 5, 5.00000000000000000000e-01) (411, 5, 5.00000000000000000000e-01) (411, 5, 5.00000000000000000000e-01) (411, 5, 5.00000000000000000000e-01) (411, 5, 5.00000000000000000000e-01) (411, 5, 5.00000000000000000000e-01) (411, 5, 5.00000000000000000000e-01) (411, 5, 5.00000000000000000000e-01) (411, 5, 5.00000000000000000000e-01) (411, 5, 5.00000000000000000000e-01) (411, 5, 5.00000000000000000000e-01) (411, 5, 5.00000000000000000000e-01) (411, 5, 5.00000000000000000000e-01) (411, 5, 5.00000000000000000000e-01) (411, 5, 5.00000000000000000000e-01) (411, 5, 5.00000000000000000000e-01) (411, 5, 5.00000000000000000000e-01) (411, 5, 5.00000000000000000000e-01) (411, 5, 5.00000000000000000000e-01) (411, 5, 5.00000000000000000000e-01) (411, 5, 5.00000000000000000000e-01) (411, 5, 5.00000000000000000000e-01) (411, 5, 5.00000000000000000000e-01) (411, 5, 5.00000000000000000000e-01) (411, 5, 5.00000000000000000000e-01) (411, 5, 5.00000000000000000000e-01) (411, 5, 5.00000000000000000000e-01) (411, 5, 5.00000000000000000000e-01) (411, 5, 5.00000000000000000000e-01) (411, 5, 5.00000000000000000000e-01) (411, 5, 5.00000000000000000000e-01) (411, 5, 5.00000000000000000000e-01) (411, 5, 5.00000000000000000000e-01) (411, 5, 5.00000000000000000000e-01) (411, 5, 5.00000000000000000000e-01) (411, 5, 5.00000000000000000000e-01) (411, 5, 5.00000000000000000000e-01) (411, 5, 5.00000000000000000000e-01) (411, 5, 5.00000000000000000000e-01) (411, 5, 5.00000000000000000000e-01) (411, 5, 5.00000000000000000000e-01) (411, 5, 5.00000000000000000000e-01) (411, 5, 5.00000000000000000000e-01) (411, 5, 5.00000000000000000000e-01) (411, 5, 5.00000000000000000000e-01) (411, 5, 5.00000000000000000000e-01) (411, 5, 5.00000000000000000000e-01) (411, 5, 5.00000000000000000000e-01) (411, 5, 5.00000000000000000000e-01) (411, 5, 5.00000000000000000000e-01) (411, 5, 5.00000000000000000000e-01) (411, 5, 5.00000000000000000000e-01) (411, 5, 5.00000000000000000000e-01) (411, 5, 5.00000000000000000000e-01) (411, 5, 5.00000000000000000000e-01) (411, 5, 5.00000000000000000000e-01) (411, 5, 5.00000000000000000000e-01) (411, 5, 5.00000000000000000000e-01) (411, 5, 5.00000000000000000000e-01) (411, 5, 5.00000000000000000000e-01) (411, 5, 5.00000000000000000000e-01) (411, 5, 5.00000000000000000000e-01) (411, 5, 5.00000000000000000000e-01) (411, 5, 5.00000000000000000000e-01) (411, 5, 5.00000000000000000000e-01) (411, 5, 5.00000000000000000000e-01) (0, 5, 0.00000000000000000000e+00) (257, 3, 5.00000000000000000000e-01) (257, 3, 5.00000000000000000000e-01) (257, 3, 5.00000000000000000000e-01) (0, 3, 0.00000000000000000000e+00) 
connections (connected_to_neuron, weight)=(0, 3.03746538924130948800e+00) (1, 6.20385049938546151438e-01) (2, 2.02641862491499225030e+00) (3, 1.67047459077711235587e+00) (4, 2.06343802418597999093e+00) (5, 9.32696524081713662646e-01) (6, 1.41241562772539896997e+00) (7, 4.34491649647831845726e+00) (8, 9.87546892306978674192e-01) (9, 1.55403645594300776622e+00) (10, 1.39536901320915873725e+00) (11, -4.97456080866928562756e+00) (12, 1.19463639778457308971e+00) (13, 7.95286573607749791570e-01) (14, 1.94721933014628123537e+00) (15, 1.35270502409797166443e+00) (16, 1.06675415883503910131e+00) (17, 1.00393221557381751019e+00) (18, 1.16746209883879914493e+00) (19, 3.51131157637814927952e+00) (20, 2.48577430819006073293e+00) (21, 8.62569924818426980728e-01) (22, -1.73070102527561123229e-02) (23, 3.08812770822885773736e-01) (24, 9.82879019285512245396e-01) (25, 1.05816856657873237246e+00) (26, 1.00040182408860411911e+00) (27, 9.50988773452816738008e-01) (28, -1.34072760594615911223e-02) (29, 7.94000733429705896071e-01) (30, 5.98816446458578788281e-01) (31, 2.99303537385589901731e-01) (32, 8.03464644294324403795e-01) (33, -1.66434558339504046209e-01) (34, 3.41141460626531001221e-01) (35, -7.48213686499382690798e-01) (36, 1.10291989834487358380e+00) (37, 5.80280169025589181997e-02) (38, 3.50457776186563485510e+00) (39, 2.36554754011831080973e+00) (40, 1.74417106226648011003e+00) (41, 2.03037709029672752692e+00) (42, 9.51486262080981637368e-01) (43, 9.26660633301494174319e-01) (44, 1.02214894887496909881e-01) (45, -1.16431900771320179233e-01) (46, 7.17560304326576137157e-01) (47, 5.35998651059513253614e+00) (48, -1.08500674953582773696e+02) (49, 4.81671069961801290304e+00) (50, 2.52367468455169152719e+00) (51, 2.55395978818267765931e+00) (52, 2.00925196093670770381e+01) (53, 5.21488993085403951255e+00) (54, 2.43654818268860253738e+01) (55, 2.22577809281347605008e+01) (56, 1.88694503759372302909e+01) (57, 1.75495863960969922246e+00) (58, 2.33765874639582271755e+01) (59, 1.06754581388126936758e+01) (60, 1.62919339849555910860e+00) (61, 3.33122173909680663328e+00) (62, 2.79193639328570997193e+00) (63, 3.86248878437601028679e+00) (64, 2.78042733967868427314e+00) (65, 3.17550226396162837972e+00) (66, 3.22948358521976963686e+00) (67, 3.19987646415250903686e+00) (68, 3.61379770290379953579e+00) (69, 1.68745726731952139232e+00) (70, 2.48518391835277974167e+00) (71, 2.77545219758783945352e+00) (72, 1.76675363697836163013e+00) (73, 1.74592906425024896322e+00) (74, 1.88640929579664118343e+00) (75, 1.71925955690972220857e+00) (76, 1.76073935375358603395e+00) (77, 1.82427913815233444517e+00) (78, 1.72995698044430712415e+00) (79, 1.73236907128479589169e+00) (80, 1.94249115639012948087e+00) (81, 1.82943935369021470905e+00) (82, 1.60858483762435855446e+00) (83, 1.55809341065009632210e+00) (84, 5.14949158231717496470e-01) (85, 9.03427485276398156699e-01) (86, 2.65272420335170677763e-01) (87, 3.93326746009529715220e-01) (88, 7.57337853965351581742e-01) (89, 6.92964390816980913002e-01) (90, 8.25305539672839483245e-01) (91, 8.46733959005226632932e-01) (92, 1.83844915224958671551e+00) (93, 1.49954732869362161729e+00) (94, 1.45635575536951566988e+00) (95, 2.69802959654092600061e+00) (96, 1.74413659510885277193e+00) (97, 2.56232435263033053729e+00) (98, 3.84179358159186268296e+00) (99, 6.77907361364466520826e+00) (100, 4.51688160152603934705e+00) (101, 1.00299712952093789120e+00) (102, 5.57976418469543933298e-01) (103, -2.88192264653473406710e+00) (104, -2.27862731207425550650e+00) (105, -1.99156098703548978257e+00) (106, -1.70590436008266688184e+00) (107, -1.50052836933205413494e+00) (108, -7.01135653660267976761e-01) (109, -6.21312647657076055907e-01) (110, -7.87006379003955980345e-01) (111, -3.66237690462068954389e+00) (112, -2.18824422078984426321e+00) (113, -1.35845908320304942229e+00) (114, -6.36148423806741369901e+00) (115, -9.35036556826186853186e+01) (116, -4.46391013322740892733e+00) (117, -3.60440361853715884877e+00) (118, -4.34985923067227897576e+00) (119, -3.55579146100219523063e+00) (120, 7.66518075751969796272e+00) (121, 2.05535918124366945303e-01) (122, -1.20704887552541539897e+00) (123, 4.47937509538617273375e-01) (124, 4.88694150101094071381e-01) (125, 5.38310586067510699060e-01) (126, 4.90511652698254585481e-01) (127, 5.03028660838602870164e-01) (128, 5.33435218361209106952e-01) (129, 4.91872461545160510887e-01) (130, 5.78802684109993137440e-01) (131, 5.70207977455444381398e-01) (132, 5.20412724936393344954e-01) (133, 6.80115688032917997674e-01) (134, 4.90058710586615597915e-01) (135, 4.50299056034871136855e-01) (136, 6.11238342249778465742e-01) (137, 5.17731827223685714401e-01) (138, 6.22297550923638254083e-01) (139, 6.10570873505883127130e-01) (140, 5.43562890086324301819e-01) (141, 5.62391742939880034946e-01) (142, 5.23140786458847095730e-01) (143, 4.60199566345997845840e-01) (144, 6.77584234065823576287e-01) (145, 5.45326378667739586348e-01) (146, 5.34020247877838416528e-01) (147, 4.88524653696595589913e-01) (148, 4.93016080718823468398e-01) (149, 5.56213062727836327070e-01) (150, 5.07802118087199771956e-01) (151, 4.63770570021458661270e-01) (152, 6.26964625442413048262e-01) (153, 6.24513499620052314754e-01) (154, 6.02886850201155621853e-01) (155, 4.54496877454784231620e-01) (156, 4.72290449315695415322e-01) (157, 6.13765919613530663845e-01) (158, 4.43500590050606380288e-01) (159, 5.41384713911082116056e-01) (160, 5.42141677269334043565e-01) (161, 4.18950000545784295714e-01) (162, 4.46804130132042676138e-01) (163, 3.93469941918722421192e-01) (164, 3.73220412686655511614e-01) (165, 3.82808965865615025148e-01) (166, 3.35074875566456431564e-01) (167, 4.45414205382791250631e-01) (168, 3.72449741370598275125e-01) (169, 3.45142363800430063137e-01) (170, 3.77282525223381959290e-01) (171, 3.79916070945443162810e-01) (172, 4.41629663024212193445e-01) (173, 4.21158793321556701450e-01) (174, 6.01940121972945885176e-01) (175, 3.62637388661206261364e-01) (176, 7.31438409030571801139e+00) (177, 7.21875307108876262951e-01) (178, 5.62861644176706699128e-01) (179, 6.17189552075676828302e-01) (180, 5.60432630963139666314e-01) (181, 6.46855923719220293755e-01) (182, 5.63037771172337553338e-01) (183, 6.31395790166668913201e-01) (184, 5.24504158086590899224e-01) (185, 5.96999477035813352899e-01) (186, 5.57312775874522881026e-01) (187, 5.90823423588660912031e-01) (188, 6.72803628630452177362e-01) (189, 1.11272889674367148061e+00) (190, 6.50554411402096577355e-01) (191, 1.12902698378026733472e+00) (192, 9.57575653635817203302e-01) (193, 1.03642198155582199171e+00) (194, 7.36871302416672535607e-01) (195, 8.40372465239498822598e+00) (196, 4.28987290180556757324e-01) (197, 6.12846747719823392586e-01) (198, 5.82300574935237014174e-01) (199, 6.17204515565040967573e-01) (200, 6.51514547593622816990e-01) (201, 6.18807324264199598574e-01) (202, 6.78032615277917249941e-01) (203, 5.35318141603939312567e-01) (204, 3.97107454887337341098e-01) (205, 5.71066689217475609297e-01) (206, 5.46033846246888554532e-01) (207, 4.64136660598439998449e-01) (208, 5.65318153645930410178e-01) (209, 4.60394550645883859907e-01) (210, 5.06135363828707607325e-01) (211, 4.64559525432678921408e-01) (212, 4.63251696687527692031e-01) (213, 4.57614819458431854038e-01) (214, 4.69757321229881785740e-01) (215, 1.18945783500047319592e+00) (216, 4.88847935871150274245e-01) (217, 7.50826378354438217499e-01) (218, 7.88687040099509406588e-01) (219, 5.28767454809956682915e-01) (220, 6.97149642940310454442e-01) (221, 7.92338379016270466515e-01) (222, 1.01765949577750403066e+00) (223, 5.09355064926609535370e-01) (224, 5.32230641133599413628e-01) (225, 6.55959415621571562127e-01) (226, 4.96930618310360561196e-01) (227, 5.47775548422721469954e-01) (228, 5.67162241227440855340e-01) (229, 5.51410987413935793633e-01) (230, 6.20081763155274301447e-01) (231, 5.69747577793412229852e-01) (232, 5.14800665302006077440e-01) (233, 6.79731223172955534295e-01) (234, 6.29852142656234459395e-01) (235, 6.28538522310070901788e-01) (236, 7.02462750859074613885e-01) (237, 5.47058641351275576348e-01) (238, 6.75545167623028075532e-01) (239, 9.54660968426815470522e-01) (240, 7.65373729458203033715e-01) (241, 6.91473707845558838159e-01) (242, 9.85280598706619215044e-01) (243, 5.35286800060422507386e-01) (244, 7.90787556711784911379e-01) (245, 7.45129593005528279015e-01) (246, 5.72821035405453260481e-01) (247, 9.32635070327869852846e-01) (248, 6.57673191039834237337e-01) (249, 6.23191293800262169356e-01) (250, 6.11021500552085594649e-01) (251, 4.73290630156187663857e-01) (252, 6.30557071888831810469e-01) (253, 6.07602235401061729902e-01) (254, 6.05757561052230553145e-01) (255, 6.02246892178443626875e-01) (256, 5.98461714113143639082e-01) (257, 5.80948900902656384382e-01) (258, 4.43025123799233089272e-01) (259, 6.50054589901120527529e-01) (260, 5.59016544843104923324e-01) (261, 5.77363344779914466898e-01) (262, 4.46686588830868092082e-01) (263, 4.49190661546027936168e-01) (264, 5.24207181475496608591e-01) (265, 5.75349288931792823831e-01) (266, 4.27783992542551116944e-01) (267, 5.50858856584963918479e-01) (268, 4.59713545167832027261e-01) (269, 4.40492693806080470864e-01) (270, 5.95651533925918297285e-01) (271, 5.50258297944453800277e-01) (272, 6.26071926677612022871e-01) (273, 5.77478916790423513206e-01) (274, 4.63132929528145442788e-01) (275, 5.10151405358699405745e-01) (276, 5.49624968791392887191e-01) (277, 5.81804331863311596784e-01) (278, 5.71946786191401601585e-01) (279, 4.87755641255784577748e-01) (280, 5.24349035170016408713e-01) (281, 5.09401519322780216292e-01) (282, 5.46312261844066227034e-01) (283, 7.57976283320792587617e-01) (284, 4.58639669340789479790e-01) (285, 4.27347990792930287896e-01) (286, 4.69095257741096782755e-01) (287, 3.69794921886958449786e-01) (288, 4.98824086459741022903e-01) (289, 5.45555334022618465539e-01) (290, 5.63704760219988942893e-01) (291, 5.12547106888232351096e-01) (292, 5.05802967991767160605e-01) (293, 6.08793608758855575580e-01) (294, 1.04728132198512802198e+00) (295, 2.41940820351873986382e+00) (296, 3.24981256514393876955e+01) (297, 2.67014834363542474804e+00) (298, 5.20769951619711846114e-01) (299, 5.17616055820394160847e-01) (300, 4.36616760218529353921e-01) (301, 3.81937276846117890194e-01) (302, 4.97913583284022298603e-01) (303, 4.60094788542188104508e-01) (304, 3.72805024638474480358e-01) (305, 4.85426555698448114473e-01) (306, 4.38659431657270393323e-01) (307, 4.42378021261074449999e-01) (308, 5.20705768003760116613e-01) (309, 5.39085111913389480875e-01) (310, 5.19626774557607307159e-01) (311, 5.82362206127581716331e-01) (312, 4.90674826425254395623e-01) (313, 4.18043173982278359890e-01) (314, 4.95008641328750720323e-01) (315, 5.31473815842196661841e-01) (316, 4.65632209029136767686e-01) (317, 4.06831468394703521518e-01) (318, 6.02589961612609581465e-01) (319, 5.16145111467776529501e-01) (320, 5.46158523906997261932e-01) (321, 4.13860830670511437024e-01) (322, 3.61303546444706691343e-01) (323, 3.59947125927257527422e-01) (324, 3.11403256273765027817e-01) (325, 4.14220016813773572739e-01) (326, 4.79794278566837151256e-01) (327, 3.81158780132532071239e-01) (328, 3.88970084657897341440e-01) (329, 3.68873839240078660318e-01) (330, 4.70829859042567577809e-01) (331, 4.67396762881548299973e-01) (332, 3.39663795477488872354e-01) (333, 3.72339128260454066410e-01) (334, 3.40911619191169690257e-01) (335, 4.01040390660946377555e-01) (336, 5.32707604518836697061e-01) (337, 6.01521501105613753957e-01) (338, 6.06747042858985619063e-01) (339, 6.32458236539748863692e-01) (340, 5.12180985357699514182e-01) (341, 5.36000851670955125172e-01) (342, 4.58435986320232691238e-01) (343, 4.42328815754591209153e-01) (344, 5.47147692587313771995e-01) (345, 4.40538003218114537773e-01) (346, 3.90132853236137611130e-01) (347, 4.89516028609214892686e-01) (348, 4.22456072118221503953e-01) (349, 5.31786246057010525412e-01) (350, 5.49921141614249764373e-01) (351, 4.62506116976074688196e-01) (352, 4.77679680242836857129e-01) (353, 4.96843866226363839456e-01) (354, 4.86508317348949170800e-01) (355, 5.00528472432143600734e-01) (356, 4.11482980275624687927e-01) (357, 4.98122009276585842041e-01) (358, 5.40237407308757355828e-01) (359, 5.99927611380673520003e-01) (360, 4.11883909975464312936e+00) (361, 6.92958700055995677758e+01) (362, 6.91979715372243617821e+01) (363, 4.37789097156894911222e+02) (364, 1.02257372098725033993e+03) (365, 1.50000000000000000000e+03) (366, 7.57084614973399766313e+02) (367, 1.04216823886737519622e+00) (368, 7.36145697822918720910e-01) (369, 7.36011777950384971092e-01) (370, 6.78807881174549376802e-01) (371, 4.56999872351078639809e-01) (372, 6.31875034892944054121e-01) (373, 5.58670629287151054854e-01) (374, 6.12300169194129662031e-01) (375, 5.64040434086707787031e-01) (376, 4.62376256013302455727e-01) (377, 5.92756849253562645430e-01) (378, 4.99391589785007972147e-01) (379, 5.09467144036677921370e-01) (380, 4.49318487668423305337e-01) (381, 5.30850437009719455794e-01) (382, 4.38300174200920711343e-01) (383, 5.46049643779185855941e-01) (384, 4.91327770525602947060e-01) (385, 5.80859926069167920026e-01) (386, 5.47681440139201725081e-01) (387, 5.17066952312377425827e-01) (388, 5.79252418601898022565e-01) (389, 5.28852918904609614614e-01) (390, 4.66002811217693935220e-01) (391, 5.44260804081348137373e-01) (392, 6.26396012032417015547e-01) (393, 4.72625367814688335244e-01) (394, 4.46806781988327406108e-01) (395, 8.96301578024961465019e-01) (396, 2.03099051349241364051e+01) (397, 4.14253109101201211217e+00) (398, 2.13952026054795503285e+01) (399, 7.80447238249585151237e+00) (400, 9.18813982194641098999e+00) (401, 2.93594539651805703784e+01) (402, 6.43054297475756375668e-01) (403, 1.15482073038596899650e+00) (404, 8.08915114280814329106e+00) (405, 6.80398808354906137197e+00) (406, -3.75986067459872508323e-01) (407, -2.46300156196960662314e+00) (408, -7.88395993024109742464e+00) (409, 1.35406153250580665315e+01) (410, -2.04253246025181342538e-02) (0, 4.32214543281722596291e-02) (1, -2.39821238883092080485e+00) (2, -3.67324451494213610747e-01) (3, -1.58205297689842372399e+00) (4, -1.49593716548698507651e+00) (5, -5.03161750475441427177e-01) (6, -7.29186819323220891675e+00) (7, -7.79806036059562668328e+00) (8, -2.83338991528033457001e+00) (9, -2.85397465978364106576e+00) (10, -8.90222511207597833049e+00) (11, 5.47008244010235067378e+00) (12, -8.63471515193018213097e+00) (13, -6.21488071884634774023e+00) (14, -6.48431339153693286903e+00) (15, -1.46158309867635827217e+00) (16, -1.93792365339407224312e+00) (17, -2.33956149702542148816e+00) (18, -2.39043608688080233549e+00) (19, -2.73061510656497619109e+00) (20, -4.91553437249112157303e+00) (21, -1.90493174146554311577e+00) (22, -3.28916625994846345549e+00) (23, 3.60273845723005763375e+01) (24, -1.45363548740881132204e+00) (25, -4.90248089409210585643e+00) (26, -1.20877089168323723078e-01) (27, -1.42260108781976546410e+00) (28, 1.52202061954669587429e+00) (29, 8.01585776548476736103e-01) (30, 2.93034459442877581736e+00) (31, 3.10294295882375692486e+00) (32, -4.13862706853680151209e-01) (33, 1.02030093300412949553e+00) (34, -5.12715320418764219923e-01) (35, -4.32445102183551088881e-01) (36, 9.86586328309189908303e-01) (37, 1.04212910434310113139e+00) (38, -1.45330903482953455175e+00) (39, -8.00046023560991304002e-01) (40, -4.88755635738992000316e-01) (41, -5.85835897891875401200e-01) (42, -3.10993800794341401783e+00) (43, -1.09796920787566376632e+00) (44, -9.02858307332333298589e-01) (45, -5.34307081735771904896e-01) (46, -1.52978318460508910803e+00) (47, -1.21714647112623790548e+01) (48, 1.49491323860679852231e+01) (49, -1.38182265816886928889e+00) (50, -1.75110198800563943156e-01) (51, 1.84586835867809329059e-01) (52, -2.03539395251147769983e+00) (53, -3.64489432500287495811e-03) (54, -1.90712729850299900214e+00) (55, -7.62908795505108372481e-01) (56, -3.48080385471852382651e+00) (57, -6.47727021495474342139e-01) (58, -5.70060372892294053848e-01) (59, -1.00411429443326110089e+01) (60, 6.40913671179210386875e-01) (61, 6.86871778378738140347e-01) (62, 4.66079287607270298377e-01) (63, 2.45676529923672171130e-01) (64, 9.22999598222200567932e-02) (65, 6.18592859337581124635e-01) (66, 3.52956924963789775429e-01) (67, 7.90387984004573551644e-01) (68, 7.36925126831641907899e-01) (69, 7.38093061538908967734e-01) (70, 7.32698440960811048228e-01) (71, 6.35495507544251658771e-01) (72, 7.31640820868842078895e-01) (73, 8.29371076509642701780e-01) (74, 6.74479982327512495033e-01) (75, 7.27402648259616091408e-01) (76, 7.64120984657859048106e-01) (77, 6.66950875244785690299e-01) (78, 6.23109696640049337546e-01) (79, 7.91874526234839448691e-01) (80, 7.82814884622499151945e-01) (81, 6.84843794541875161563e-01) (82, 8.37836868110347410266e-01) (83, 8.22842222242362142381e-01) (84, 1.10824328784201897591e+00) (85, 7.66229736125935256830e-01) (86, 1.04117024082548814690e+00) (87, 7.36731301353031220458e-01) (88, 6.61080806197295034465e-01) (89, 7.50851304528508900482e-01) (90, 7.59713075343450339183e-01) (91, 6.52453753308715134196e-01) (92, 5.74520904193364878587e-01) (93, 7.50497879106508780644e-01) (94, 7.46827565606942189724e-01) (95, 6.81442718780312151061e-01) (96, 1.43778283885600566272e+00) (97, 6.29977241968021073326e-01) (98, 4.58045446560822244741e-01) (99, 4.61924329946850842354e-01) (100, 5.55196206937163760919e-01) (101, 7.07176033750922305998e-01) (102, 6.98576730463103423574e-01) (103, 9.43359268566764441744e-01) (104, 7.76313444297680566031e-01) (105, 7.73499840953436823554e-01) (106, 7.53334736399926985229e-01) (107, 3.80983640953610758206e-01) (108, 6.25180095248525691254e-01) (109, 6.80135622869220357600e-01) (110, 3.31571804356353694310e-01) (111, 4.87840115754634262579e-01) (112, 1.24599545205683570614e+00) (113, 1.15922569161151134409e+00) (114, 1.17036766787169677073e+00) (115, 3.49382380605412334873e+00) (116, 7.22406493200858146331e-01) (117, 3.77076046435454648176e+00) (118, 2.39608249905050252337e+00) (119, 2.62577948648881021043e+00) (120, -2.86742866270088603287e+00) (121, -2.84200750066513144199e-02) (122, 3.44164787617054490632e-02) (123, -3.27577532412647864923e-01) (124, -3.35662269197743223792e-01) (125, -2.17706156002856587861e-01) (126, -1.90820180933333721773e-01) (127, -1.98733159463263836519e-01) (128, -2.33327505339554125419e-01) (129, -3.53975547620845876207e-01) (130, -2.37982528427435585661e-01) (131, -3.43256374964309773912e-01) (132, -2.81572193792749447816e-01) (133, -3.44610372701479039659e-01) (134, -2.37496974089934059782e-01) (135, -3.82593149462534143357e-01) (136, -2.14010628083540765942e-01) (137, -2.47804166892363147978e-01) (138, -2.16211774340559798047e-01) (139, -2.35052353157983839882e-01) (140, -2.51886314167962532817e-01) (141, -3.94392093050431713497e-01) (142, -2.06956880310370294751e-01) (143, -2.95299368122411809434e-01) (144, -2.68073298922468228334e-01) (145, -2.71831011786446974376e-01) (146, -3.90309244038949565425e-01) (147, -2.63131821167112367466e-01) (148, -2.50687988618208068559e-01) (149, -2.84745977214265866273e-01) (150, -2.87045643618989987367e-01) (151, -3.36947387227607808580e-01) (152, -2.45690660694433848921e-01) (153, -2.92952668905569202362e-01) (154, -3.59556538955117244161e-01) (155, -3.48329331955051002545e-01) (156, -2.61048944810224614610e-01) (157, -2.20540182808234036527e-01) (158, -3.90485838941026841553e-01) (159, -2.55265404522730054993e-01) (160, -3.49680284009123820699e-01) (161, -3.17745309666205288934e-01) (162, -2.21685458317805533790e-01) (163, -1.87405656653474722573e-01) (164, -4.41610054164636930962e-02) (165, -2.18751997121966412774e-01) (166, -1.97787711444127406457e-01) (167, -1.83864731953860688352e-01) (168, -2.98245378181744458246e-01) (169, -2.74708226453453496774e-01) (170, -2.48700848877142360882e-01) (171, -2.17427577299637048158e-01) (172, 3.19595548371385818065e-01) (173, 2.34546730276751685951e-01) (174, 3.85555300101352527165e-01) (175, -1.66129853680163003249e-01) (176, -3.83062709321427496967e-01) (177, -2.08740502471865485568e-01) (178, -2.96250051274285719494e-01) (179, 4.05596646651340431156e-01) (180, 2.31836418792319476356e-01) (181, 2.43629078551840988487e-01) (182, 2.42927502080512253135e-01) (183, 2.51339211299729914373e-01) (184, 2.26986210033011615028e-01) (185, 3.26148512944293811344e-01) (186, 3.46996235832286670231e-01) (187, 3.34623324855876758122e-01) (188, 3.81920970645500013063e-01) (189, -3.33931596342802894384e-01) (190, -3.09505054551077740665e-01) (191, -2.88865674702174113353e-01) (192, -2.31676860503680803749e-01) (193, -3.16589817524920713598e-01) (194, -2.48453307186133842688e-01) (195, -2.42915790218841465276e-01) (196, -2.52291112007468454337e-01) (197, -3.37799539428592698886e-01) (198, 2.13194760665011528999e-01) (199, 3.32969526500583479223e-01) (200, -3.32993694535184903138e-01) (201, 2.18064005226969892526e-01) (202, -3.48699057026649605895e-01) (203, -1.67010929539232827468e-01) (204, -3.53889292249275289048e-01) (205, -3.88925434044290696534e-01) (206, -2.29250407700182790016e-01) (207, -3.92047108105112229737e-01) (208, -2.97097020736623806947e-01) (209, 3.41568704790974453367e-01) (210, 2.48738614996528967227e-01) (211, 3.96775761601138976520e-01) (212, 3.69322622176814829853e-01) (213, -2.39313517749621146313e-01) (214, -2.71882531482767142439e-01) (215, -3.06270073204874038186e-01) (216, -2.29779171311269986289e-01) (217, -3.72290267064557478527e-01) (218, -2.09561204924570254615e-01) (219, -2.19721415034224321072e-01) (220, -2.28927648045004733524e-01) (221, -3.16553840749032922020e-01) (222, -3.11564431155157917086e-01) (223, -2.97092446510911989410e-01) (224, -3.09932150832105679505e-01) (225, -3.91036101571012650879e-01) (226, 2.99683603629184558415e-01) (227, 3.51157161578250720524e-01) (228, 2.67372804864955682103e-01) (229, 3.03634087726188495182e-01) (230, 3.46955928191257312321e-01) (231, 2.57324631496978539769e-01) (232, -3.40513460343484841708e-01) (233, -2.24507912998800657212e-01) (234, -3.19427751010064930881e-01) (235, -2.77355992189336819642e-01) (236, 3.21370522662711932682e-01) (237, 2.43269707247328964561e-01) (238, -2.03090254673411130248e-01) (239, -3.43291109251690762516e-01) (240, -3.29543872058344733400e-01) (241, -2.43228036199576919119e-01) (242, -4.02537550066477789468e-01) (243, -3.17069717312289112154e-01) (244, -2.31267821175052290528e-01) (245, -3.95769202905608186160e-01) (246, -3.28158609699011671879e-01) (247, 3.19032364429469084133e-01) (248, 2.38170266987318357543e-01) (249, 3.95408901557041114749e-01) (250, 4.06363847836566871585e-01) (251, 3.26031784698081805729e-01) (252, 3.86018407463812218694e-01) (253, 3.41735187157703235172e-01) (254, 3.11902942807555982885e-01) (255, 4.05727806672168678226e-01) (256, 2.36109848305297076454e-01) (257, 2.67046242192102212254e-01) (258, 2.12654215953365172131e-01) (259, -3.25362421702147353031e-01) (260, -2.83698410681177182191e-01) (261, -2.80699790409494442933e-01) (262, -2.40051176742125671471e-01) (263, -2.17178444532061865058e-01) (264, -1.84813941982890417304e-01) (265, -2.33107461846400521033e-01) (266, -2.89990562305095289641e-01) (267, -2.17382969477965204419e-01) (268, -3.27232682100225491517e-01) (269, -3.61002654722620053285e-01) (270, -3.32884252956796689027e-01) (271, -3.47026084503818554872e-01) (272, -2.28726395359923173611e-01) (273, -3.65845330944944424623e-01) (274, -3.23817134788919491761e-01) (275, -3.55845742813039822572e-01) (276, -2.60745578399587674134e-01) (277, 2.92496602222038215579e-01) (278, 3.59330895527911975407e-01) (279, 2.43294316515040603965e-01) (280, 2.44898719945959464361e-01) (281, 3.25295436367107226872e-01) (282, 2.09291237577510003121e-01) (283, 3.21120116854907045045e-01) (284, 2.79468727230810565221e-01) (285, 3.61147555693698718571e-01) (286, 4.26890845680161390430e-01) (287, 5.31118076973526531681e-01) (288, 3.57687217976230542593e-01) (289, 4.03313446533560215901e-01) (290, 2.09004293366980675728e-01) (291, 3.04073403760505511784e-01) (292, -2.74210997811246914857e-01) (293, -2.29317503007398670878e-01) (294, -3.30727078351806924594e-01) (295, -3.11620218933785608773e-01) (296, -2.96916764933436938545e-01) (297, 2.27557486887191851022e-01) (298, 2.32218422076052866121e-01) (299, 3.18877737208915545963e-01) (300, 3.46891525372577502750e-01) (301, 4.17697278844691266553e-01) (302, 3.66191161858416547314e-01) (303, 4.28475475755372703368e-01) (304, 2.55083714484644896725e-01) (305, 4.35792330037227337858e-01) (306, 4.70651264618506981474e-01) (307, 5.44733736048807815067e-01) (308, 2.79898728415084729892e-01) (309, 2.25930454695582677571e-01) (310, 3.49331954476047312763e-01) (311, 3.80919489249301745915e-01) (312, 3.23053982228634017915e-01) (313, 2.83718798429367091707e-01) (314, 3.79163951584197078670e-01) (315, 2.32565441003202033610e-01) (316, 3.12513109040140457662e-01) (317, 3.28394884225536143330e-01) (318, 2.91390228256298011722e-01) (319, 3.65074852463413035419e-01) (320, -1.90528828993846183204e-01) (321, -2.04502266184952014028e-01) (322, -1.84969138090834483990e-01) (323, -1.84388471451033597592e-01) (324, -1.55437521345988954868e-01) (325, 3.34534879125640907671e-02) (326, -3.00269532658234583611e-01) (327, -3.48164260096922972831e-01) (328, -2.73722974267513630142e-01) (329, -8.49246372185659820220e-02) (330, 9.62544943008536296736e-02) (331, 2.01432575135582422887e-02) (332, -1.47329507577119961370e-01) (333, -2.61849036594097916986e-01) (334, -3.38029737395239837650e-01) (335, -2.76073604143191264626e-01) (336, -1.83580258124380557572e-01) (337, -2.98115113893343053331e-01) (338, -3.91677128294302179246e-01) (339, -2.89050132921625180238e-01) (340, 3.77817231401515796207e-01) (341, 3.86711691379023503323e-01) (342, 3.80155802675581966366e-01) (343, 3.40210367113945033601e-01) (344, 3.91454959270168101337e-01) (345, 3.82366564244625117830e-01) (346, 3.50152153641578700594e-01) (347, 2.82536964103294319095e-01) (348, 3.67636609062267138981e-01) (349, 2.77680311471817042879e-01) (350, 2.90247869649029766048e-01) (351, 2.57724855214950587801e-01) (352, 3.00539345353318165799e-01) (353, 2.83498461361075426712e-01) (354, 4.05890866268301897524e-01) (355, 3.35371359336997076905e-01) (356, 2.70900587624002209264e-01) (357, 2.48381222769332138389e-01) (358, -2.51761169367341886005e-01) (359, -2.22750771245561363099e-01) (360, -3.78678268592857303343e-01) (361, -4.07656488696580443509e-01) (362, -2.99805347912405595334e-01) (363, -1.14954878231570112312e+00) (364, -1.77842691532407819466e+01) (365, -3.78450978036510576885e+00) (366, -4.03221165995228891799e-01) (367, -3.44849169374476682837e-01) (368, -2.03025699222518674070e-01) (369, -2.91564741921759518206e-01) (370, -3.77189302204752829883e-01) (371, -3.48381844303298993104e-01) (372, -2.14968838683058577343e-01) (373, -3.41862430939270101060e-01) (374, -2.52827229121519225785e-01) (375, -2.38896959415365872648e-01) (376, -3.02560881665636105531e-01) (377, -3.02105770400453610414e-01) (378, -2.53056981554914572907e-01) (379, -2.90272236755777401918e-01) (380, -3.66741106799531979554e-01) (381, -3.79126624158311997803e-01) (382, -3.41815849909378133287e-01) (383, -2.70623751870084805482e-01) (384, 2.69930138423753629429e-01) (385, -3.20118741086412472718e-01) (386, -1.97089889040877180859e-01) (387, 3.53646251544071033024e-01) (388, -3.03533227137018246644e-01) (389, -2.43680747369124095503e-01) (390, 2.91577884909320739215e-01) (391, 3.08068345471931293034e-01) (392, 2.74183193203616948352e-01) (393, -2.49265261879850680282e-01) (394, -3.68160598109961378910e-01) (395, -4.15761538932489405074e-01) (396, -4.01501362605187650523e-01) (397, -4.37501787737996084005e-01) (398, -9.45297232639110029950e-01) (399, -8.93929435016149076532e-01) (400, -1.03379922419667757971e+00) (401, -7.97053441891093616967e-01) (402, -7.38594064631297175794e-01) (403, -8.40417155369594603975e-01) (404, -1.02977197039276213708e+00) (405, -7.59577866697918269168e-01) (406, -7.46096664149929700294e-01) (407, -4.10909622666418394843e-01) (408, -5.56157432283109542936e-01) (409, -1.01185256625240138639e+00) (410, 7.72311219636952817069e-01) (0, -6.81183990768802760662e-02) (1, -1.68641964482776546275e-01) (2, 4.72799753002943676239e-02) (3, 4.10393796887076681146e-02) (4, -1.09339012904295942996e-01) (5, -6.43015456299316917610e-02) (6, 1.35124977726487544016e-01) (7, 1.06930090114921952371e-01) (8, 1.44551238854783714594e-01) (9, 1.80183189854953879072e-01) (10, 7.51366248358818940301e-03) (11, -5.67136059676640491567e-01) (12, 8.31208613030329779292e-02) (13, 1.81043021458054537165e-01) (14, -1.33445663078764938103e-02) (15, 1.03734169724997729589e-01) (16, 2.84136351535619578745e-02) (17, 8.74064307997525491434e-02) (18, 1.75044643039874020518e-01) (19, 2.04379944744542602075e-01) (20, 1.27038352574285418051e-01) (21, 1.25400545759504183918e-01) (22, 2.19544918485268872321e-02) (23, -1.10438583490547448385e+00) (24, 1.19456869188365288892e-01) (25, 8.04917849784124173063e-02) (26, 1.41005447990108622597e-02) (27, 7.33562432773394307306e-02) (28, 1.78368606860309725226e-01) (29, 1.97042791972212236185e-02) (30, 1.03629607354470007485e-01) (31, 5.59708830859085293419e-02) (32, 2.15141965538082458043e-01) (33, 1.29084699522823115325e-01) (34, -7.03229725807233835289e-02) (35, -3.84578049396987386999e+00) (36, 1.26114978323034702262e-02) (37, 1.05587947560414605053e-01) (38, 2.09206550264420532148e-01) (39, 4.51567277333498745540e-02) (40, 1.09666894593450928164e-01) (41, -2.96396988985817913531e-02) (42, 8.39194176585244200339e-01) (43, 2.39498950062715099119e-01) (44, -3.05506074875031355398e-02) (45, 3.77826232628830083193e-01) (46, -1.08252988529070379164e-01) (47, -6.36878363878017328403e-01) (48, -8.28509299078635519376e-02) (49, -9.78618240404963701806e-02) (50, 2.67072775401035883425e-03) (51, 3.15357554390900407526e-02) (52, 1.89811817692251798284e-02) (53, 3.23078125546943997759e-02) (54, -6.12572108876506954411e-02) (55, 2.82582870565020516374e-01) (56, -9.93317264751487072338e-02) (57, 3.51623269037660723946e-01) (58, -4.14983006364489596246e-03) (59, -5.63766285574455072727e-01) (60, -8.09712488545734909717e-02) (61, -4.06591672791796823749e-02) (62, -1.13945441967265803651e-01) (63, -1.76612042297299598470e-01) (64, -7.54158277406055954639e-02) (65, -6.84584318113990730748e-02) (66, -1.68446139230615271609e-01) (67, -1.79393532084330953325e-01) (68, -1.22776680101330998296e-01) (69, -6.50471021313255015617e-02) (70, -9.34452576947875923619e-02) (71, -1.21426932920392277593e-01) (72, -1.79308712889130805745e-01) (73, -1.99241580586176636469e-01) (74, -1.39140933545823380912e-01) (75, -2.11570782387211601960e-02) (76, -6.48602415214345751071e-02) (77, -1.22566314447955918010e-01) (78, -1.90203957053418498679e-01) (79, -3.67622674076511779528e-02) (80, 1.01258554471676504027e-01) (81, -7.60918922608677661401e-03) (82, -1.19938218999938783771e-01) (83, -2.17077139456528338257e-02) (84, -8.52491852756165208183e-02) (85, 4.06094792724131375961e-02) (86, 3.87698289781092386708e-02) (87, 2.27371531273089094727e-02) (88, -1.13849951775558233535e-01) (89, -7.05368584031371564924e-02) (90, 3.32614122081938135000e-02) (91, -5.59181293486085348454e-03) (92, -5.38318324188562444266e-02) (93, -1.05916746982022635937e-01) (94, 9.78555567833212930351e-02) (95, 7.34891743550706716404e-02) (96, -1.85523076601130966490e-02) (97, 1.03408664755009760405e-01) (98, -1.08969307079897406026e-02) (99, -1.53660476745849955416e-01) (100, -1.18299037555153804119e-02) (101, 4.79990789255718974804e-02) (102, -2.70417284617667959268e-02) (103, 6.95661330184559056899e-02) (104, 3.89596146454119400884e-03) (105, 5.37466758359862184502e-02) (106, 7.41772551616620701154e-02) (107, -1.69735672491772876525e-01) (108, 4.63670308671863984351e-01) (109, 5.18064262675517195333e-01) (110, 4.37346035963404600189e-01) (111, 3.81059157162831230181e-01) (112, 3.29735317054760668221e-01) (113, 3.10637642529277002712e-01) (114, 3.13714741135556918206e-01) (115, 9.34677497664146650358e-01) (116, 9.04309178736266483511e-01) (117, 7.59472707498834331830e-01) (118, 1.00435719915510235367e+00) (119, 9.65246455903788547204e-01) (120, -4.26034104491977871909e-01) (121, 5.67986626553152254560e-02) (122, -1.50662683766231205590e-02) (123, 3.61795615459230904265e-02) (124, 5.46287701633508815391e-02) (125, 4.27129970100458555837e-02) (126, -2.56598709914152185718e-02) (127, 3.06391223284509794933e-02) (128, 1.36317118021753187068e-02) (129, -3.12510316224156869946e-02) (130, -9.81716577282593927389e-02) (131, -8.16818670940987721918e-03) (132, 5.46834061889589495564e-02) (133, 1.13964481639273139922e-03) (134, -1.08864437505728037237e-01) (135, 5.27500848321855800305e-02) (136, -9.20812969060003788657e-02) (137, -7.29337220044195683188e-02) (138, -5.98159466834126893331e-02) (139, 1.06339643745363490734e-02) (140, 6.24869058875977753664e-02) (141, -4.51613041689091776476e-02) (142, -2.96502980520421087485e-02) (143, 6.36251906900345970408e-02) (144, -1.14001739487177164434e-01) (145, -8.99594907612860233970e-02) (146, -1.17071467568570369844e-02) (147, 3.46194243242091137525e-02) (148, -7.10725930483400575310e-02) (149, 2.02488641290605904388e-02) (150, 6.00085447578370817512e-02) (151, -9.92141325922071964927e-02) (152, 4.53434477596224363993e-02) (153, 2.45678017883241943398e-02) (154, 5.45319719812004805037e-02) (155, 2.30153224339192316594e-03) (156, -9.62218900175154240317e-02) (157, -6.40011426956712536906e-02) (158, 7.00821320562302757518e-02) (159, 1.29554080115765885006e-02) (160, -3.03669990399749178955e-02) (161, -9.77115955254492102311e-02) (162, -1.10841139735978574943e-01) (163, -3.83777062803958290971e-03) (164, 6.19503717550589083629e-02) (165, -3.01385343125751166415e-02) (166, -5.13078729003561412325e-02) (167, -4.29050415899917686469e-02) (168, 4.98975377210929549321e-02) (169, -8.47604017168734902299e-03) (170, -7.13878006960875916009e-02) (171, -6.16277388117936614220e-02) (172, -4.84079156966268006612e-02) (173, -5.46063591690122071554e-02) (174, -3.18035815806447519360e-02) (175, 1.49803172478034686554e-02) (176, -7.24610482858241145010e-02) (177, 2.65665521277528328403e-02) (178, -3.19020484538136903097e-02) (179, -4.04500921220838013936e-02) (180, -1.07338692709928781865e-01) (181, -1.04127559527879984258e-01) (182, 6.53831551818787742869e-02) (183, 3.20542643814028319071e-02) (184, 7.33816216735779930369e-02) (185, 6.23166601209580589549e-02) (186, -1.06631550654894144414e-01) (187, -1.92113851161061881256e-02) (188, 5.15522102861345546398e-02) (189, -2.47619260997830985260e-02) (190, -3.63729332537709657003e-02) (191, 1.74422602205217720794e-02) (192, -1.10588069722181589483e-01) (193, -1.15183903559239950165e-01) (194, -4.72130288333951417257e-02) (195, 2.78571586160601160354e-02) (196, -6.75064798495923629185e-02) (197, 7.13399126215493867287e-02) (198, -2.48001459747858518656e-02) (199, -4.58458009869165891703e-02) (200, 3.98568492620877748434e-02) (201, 4.47562824039400494747e-02) (202, -4.38545902223645631124e-02) (203, 7.45627238365914046803e-02) (204, 3.63673160819948729228e-02) (205, -3.71067558379231873800e-02) (206, -1.15892003938680918096e-01) (207, -5.95590134115277711202e-02) (208, -7.10180883259832612664e-02) (209, -5.17561028772015874200e-02) (210, -4.62773413756758789095e-02) (211, -1.05219725236421854375e-01) (212, -9.05551274271070988364e-02) (213, -2.27206681819020865631e-02) (214, 7.43572563857204937854e-02) (215, -1.00979653658474638478e-01) (216, -6.72959980518876982325e-02) (217, -1.06572214231020243047e-01) (218, -2.19566334934293387604e-02) (219, -8.97247866278942790563e-02) (220, 1.42825558478135473950e-02) (221, 6.47667508253408907848e-02) (222, -1.02525312170511515020e-01) (223, -5.56409703207604456471e-03) (224, 2.14902798681200386810e-02) (225, -7.51446809938595972067e-02) (226, 6.20022816943534369610e-03) (227, -5.53644929976521912862e-02) (228, 2.62818525581301094818e-02) (229, 5.62870095519960381147e-02) (230, -4.67683558316289368917e-02) (231, -9.84876935334265263267e-02) (232, 5.46015839128435320760e-02) (233, 2.60606448202074410248e-02) (234, -6.14731644244252625753e-02) (235, -4.22700081915914002706e-02) (236, -9.46899984927237065024e-02) (237, -1.17566015288358957647e-01) (238, 5.27275009440787787579e-03) (239, -4.37546034307538453390e-02) (240, -4.63103686423360291768e-02) (241, -1.14395813656441801796e-03) (242, -8.92305855603277714438e-02) (243, 3.89139692335070189189e-02) (244, -3.56246118397771302511e-02) (245, -5.53381787253014612721e-03) (246, -6.95077178032457582146e-02) (247, -7.88944435269892246909e-02) (248, -4.15812318177281800557e-02) (249, -1.18464614912992746709e-01) (250, -9.74520255775511295981e-02) (251, 6.10964040307939021401e-02) (252, -1.54725422115384834976e-02) (253, -1.09669673904901773809e-01) (254, -8.09113082439959080405e-02) (255, 6.09953592567384211831e-02) (256, -1.13559875354295999883e-01) (257, -6.35630969853460126018e-02) (258, 3.29017053970649675509e-02) (259, -5.81280623526631776143e-02) (260, -2.04915244451210204479e-02) (261, -3.65902384754821854984e-02) (262, -3.64175489184066780712e-02) (263, 6.42530213146149803416e-02) (264, 3.77644340543688353251e-02) (265, 4.47166870960548218372e-02) (266, -8.32313251069234094626e-02) (267, -1.05994570717340738653e-01) (268, -1.13381568059450418828e-01) (269, -6.66741278917848262386e-02) (270, -5.47566075773297730733e-02) (271, 4.30575053243578351192e-02) (272, 4.75520296382316107892e-03) (273, 5.78636418132722693541e-02) (274, 5.14991025476396815930e-02) (275, -1.17216903433328897832e-01) (276, 7.28770832567155052439e-02) (277, -1.75372098536550162506e-02) (278, -1.07015405745565193862e-02) (279, -1.23477998837953836797e-01) (280, 4.26434467582643902950e-02) (281, 4.55899129657686766337e-02) (282, -3.30492068977414482633e-02) (283, -1.22660860467558766040e-01) (284, 6.02545961254778925098e-02) (285, -7.76867342145502598472e-02) (286, 5.63594440965593315718e-02) (287, -2.97575089842386647510e-02) (288, 3.42192872875873715932e-02) (289, -5.51587716227825014537e-02) (290, -3.01390324683248091164e-02) (291, -9.44197522116296469874e-03) (292, 4.60776130704821165751e-02) (293, -3.63627632112561646749e-02) (294, -1.16783489437162144031e-02) (295, 5.91706822662294087967e-02) (296, 1.71757299146560772629e-02) (297, 2.75093583259523911944e-02) (298, -3.88346348853169931470e-02) (299, 4.36542223243654645137e-02) (300, 3.23759130489643734419e-02) (301, -3.05659143236584746051e-02) (302, -2.55142268099876369514e-02) (303, -6.23917523533411497172e-02) (304, -4.79431915790148252543e-02) (305, -1.30750277599591107486e-02) (306, 2.01823175341904036822e-03) (307, -1.23085844978815348028e-01) (308, 3.35404912977160032939e-02) (309, 5.18302750080517973807e-02) (310, -1.18495920649201544328e-01) (311, 9.64001221942313232804e-03) (312, -4.49845642334277956431e-02) (313, -4.21742395314290488550e-02) (314, 4.94013576448763575173e-05) (315, -3.25079892726002975256e-02) (316, -2.44958658666669486237e-02) (317, 3.52231453208864744853e-02) (318, -6.73021373302995634669e-02) (319, -9.75194172573678672022e-03) (320, 3.64595989732683714579e-02) (321, -8.61175914259016545005e-02) (322, -3.49618615010649780306e-02) (323, -1.23324559723664337052e-01) (324, 2.71458218841494104689e-02) (325, -2.29664181323110221100e-02) (326, -5.93910326213895264913e-02) (327, -4.78103418798505250265e-02) (328, -1.10626925678312046375e-02) (329, 6.64671166228660015296e-03) (330, 4.85990534572542584590e-02) (331, -5.84499870390950623800e-02) (332, -3.16447053999959482251e-02) (333, -1.15299466714388162969e-01) (334, -1.00867274865633280156e-01) (335, 6.10407183914124934487e-02) (336, 4.87190972118318951778e-02) (337, -4.08432965130864564229e-02) (338, -1.16012554332739145635e-01) (339, -8.56588778050005467124e-02) (340, 6.85420672445237327830e-02) (341, -7.62233731300890476890e-02) (342, 5.11177371292055385266e-02) (343, 7.30383287219941307322e-02) (344, -1.07462767228609354375e-01) (345, 6.63526092092471368733e-03) (346, -4.16559760422765198995e-02) (347, 2.53452102689684204140e-02) (348, -8.58286355586111576743e-02) (349, 1.34718343132678910340e-02) (350, 4.43427751808107770137e-02) (351, 6.24812050151237006329e-03) (352, -5.06149415822087708761e-02) (353, 5.31937343039193683003e-02) (354, -1.22985197886022176728e-01) (355, 3.65067313461245115946e-02) (356, -9.41938941330969364829e-02) (357, 2.05194394140184761810e-02) (358, 7.54073663043387538291e-03) (359, -1.26260549496922530599e-01) (360, -1.17051630126540517907e-01) (361, -1.25720612753039223675e-01) (362, 3.50198223704044492299e-02) (363, -9.65571000848056276711e-02) (364, -2.81879525676493214448e-01) (365, -2.99657918837486425545e+00) (366, -2.68857124912852442356e-02) (367, -5.54704624204491736350e-02) (368, 4.27914599924028790645e-02) (369, -6.59785073569462143794e-02) (370, 6.21213207988679030902e-02) (371, 1.03020261077821986828e-02) (372, -1.16576429173475534795e-01) (373, 3.72763167171419676493e-02) (374, 4.04277931003511961650e-02) (375, 7.29296012210257742214e-03) (376, -8.99203007073462040610e-02) (377, 4.68542764930666502665e-02) (378, 1.70084278135240914154e-02) (379, -2.04534427834145464062e-03) (380, -3.87366895527898325025e-02) (381, -1.10209870800501139043e-01) (382, 3.99603436737001951884e-02) (383, -4.93580882401524964620e-02) (384, -2.40733508915959952545e-02) (385, -6.34534020872174892025e-02) (386, -1.24005462691313059209e-01) (387, -2.24525068850575972024e-02) (388, -2.19485198111592887116e-02) (389, 4.85465864686907208614e-02) (390, 5.97295056133210905402e-02) (391, 1.11518393306673339882e-02) (392, -3.37671522946416322042e-02) (393, 1.28185193090380004921e-02) (394, -2.06692579231581193000e-02) (395, 6.08876209387137282136e-02) (396, -9.67398105400034125090e-02) (397, -3.63480048280893155987e-02) (398, -1.27755269201989457573e-01) (399, -3.99194050481401774277e-02) (400, -6.81224218184916380237e-02) (401, -3.30845710708015175450e-02) (402, -8.02649818452796925961e-02) (403, -1.04154013287555607947e-01) (404, -1.26798145988333610390e-01) (405, -1.49639816378080645065e-02) (406, -6.36934315077475887712e-02) (407, -5.13842040018405582513e-02) (408, 4.08860332088178179966e-01) (409, -8.37486789146476451329e-01) (410, 4.56682290489079878437e-01) (0, 4.35074690500636407364e-01) (1, 3.83007122654307530230e-01) (2, 4.25971560836744922440e-01) (3, 3.01100456412554562391e-01) (4, 4.85319171800133231098e-01) (5, 4.87622743537232006261e-01) (6, 4.22079184267337315095e-01) (7, 4.09374278882854047978e-01) (8, 4.68813115421217174728e-01) (9, 3.20574311956919544286e-01) (10, 3.15429332357514968788e-01) (11, 3.74328900681192844324e-01) (12, 3.56783296906820202032e-01) (13, 3.16471222278468466982e-01) (14, 2.92740242832054686772e-01) (15, 4.82265700520370155235e-01) (16, 4.27581249738539226346e-01) (17, 3.99830443081893693869e-01) (18, 4.83237713768131016412e-01) (19, 4.28405005204366584604e-01) (20, 4.24257051342654400994e-01) (21, 3.42971227082226659544e-01) (22, 3.90515854747389645762e-01) (23, 1.63248365851573162821e+00) (24, 3.98696893072451929996e-01) (25, 4.92669425209598332849e-01) (26, 4.31221749296238521243e-01) (27, 3.65361510481140461248e-01) (28, 3.97421413394816569475e-01) (29, 4.59115064364655101059e-01) (30, 3.83361663494215521020e-01) (31, 4.16703822491974962272e-01) (32, 4.11420125825428584232e-01) (33, 4.89298378598475858237e-01) (34, 4.31376147836871781660e-01) (35, 3.28126141116023284372e-01) (36, 3.66911241385701691886e-01) (37, 5.58323427127832339067e-01) (38, 3.14270373940759850662e-01) (39, 4.49226588025546436089e-01) (40, 4.77832420481385966582e-01) (41, 4.66375008360632059556e-01) (42, 3.85948948678900061182e-01) (43, 3.49243508572118610545e-01) (44, 4.85883125351802391823e-01) (45, 4.73868964967351924411e-01) (46, 4.18866041160892876860e-01) (47, 2.05559987315437364686e+00) (48, 5.32783112123533797444e-01) (49, 3.56016252891448559126e-01) (50, 4.87493644165788553302e-01) (51, 3.31633436675217274647e-01) (52, -7.90081693847975718992e-02) (53, 5.00435730156607694319e-01) (54, -1.75450738343665008090e-01) (55, -1.55770803898478166216e-01) (56, -1.50593692788689781370e-01) (57, -1.09194357678445083670e-02) (58, -2.61015659173303923857e-02) (59, 5.93993549484660987581e-01) (60, 4.35558547375045790329e-01) (61, 3.87049107875667430800e-01) (62, 3.86425100730488135792e-01) (63, 4.92414129075847639694e-01) (64, 3.56700242606245165877e-01) (65, 4.13202154514633213100e-01) (66, 4.68833191739151333710e-01) (67, 3.52815060363838639557e-01) (68, 4.42618806692920696566e-01) (69, 3.73152392978320923689e-01) (70, 4.79608154918990947646e-01) (71, 4.32520155641399395297e-01) (72, 4.39563895497963263992e-01) (73, 3.74594700267069646848e-01) (74, 4.18225260983889401967e-01) (75, 4.67331205825083417782e-01) (76, 4.94665570751196270738e-01) (77, 5.11118602150194556444e-01) (78, 4.84969066957479821856e-01) (79, 3.88730833808428155596e-01) (80, 5.05627954301874571463e-01) (81, 3.36355128029892258557e-01) (82, 3.82079693058973657305e-01) (83, 3.24911121997171870035e-01) (84, 4.39780542459254908394e-01) (85, 3.90615125420951392332e-01) (86, 2.71429380567458855555e-01) (87, 3.53112386602722316820e-01) (88, 4.09322168468925717821e-01) (89, 4.41132138540308749164e-01) (90, 4.47434716756254347025e-01) (91, 4.06799495953152068228e-01) (92, 3.95778362594706056843e-01) (93, 3.52040957829509726373e-01) (94, 2.58074180449772816459e-01) (95, 5.01363565509258313213e-01) (96, 2.80200534750696450548e-01) (97, 3.75855094817934887175e-01) (98, 4.03451089522346872940e-01) (99, 2.97656159544181508902e-01) (100, 3.65194703698406841763e-01) (101, 3.93361730035267531669e-01) (102, 5.06371346114250830972e-01) (103, 4.21652791555844008720e-01) (104, 3.44977611907540004932e-01) (105, 2.89936184020507636827e-01) (106, 2.99033265537978654169e-01) (107, 4.24756440326106765593e-01) (108, 3.43494536104468672910e-01) (109, 3.46018104736533049781e-01) (110, 3.31344133112320915480e-01) (111, 3.22603024700010426740e-02) (112, -1.30653213077054519697e-01) (113, -5.66018378160465518434e-03) (114, -1.37036151213545103617e-02) (115, 3.47834445739647890594e-02) (116, 1.30238106170656703364e-01) (117, 1.59985912170047234193e-01) (118, -2.00384159036338244109e-02) (119, -1.39336687365885614209e-01) (120, 2.78825984247251756898e+00) (121, 2.72976639129764553360e-01) (122, 3.29259637114746150921e-01) (123, 3.63703302670917938411e-01) (124, 3.86730839520523450581e-01) (125, 3.58642195373604200093e-01) (126, 2.72682395785877718097e-01) (127, 3.46735450153896729297e-01) (128, 3.15962142025778214283e-01) (129, 3.09492399276160790045e-01) (130, 3.03805346790978425542e-01) (131, 3.29937006345102035176e-01) (132, 2.91063982632177919996e-01) (133, 3.57609051849859693739e-01) (134, 3.80553479876535871718e-01) (135, 4.07858589230051749031e-01) (136, 3.57338541684618704597e-01) (137, 4.66925659714213125984e-01) (138, 2.86970700327584260503e-01) (139, 3.80295182768532635809e-01) (140, 2.96913966899675973998e-01) (141, 3.38799041856154503627e-01) (142, 4.54359901297911705775e-01) (143, 2.85716879751700014722e-01) (144, 2.78530488912293427983e-01) (145, 3.35950966563242414686e-01) (146, 3.72895174327486478294e-01) (147, 3.90983289862510352553e-01) (148, 4.04073048540127044426e-01) (149, 4.05713790593615286628e-01) (150, 3.09423539426344484937e-01) (151, 3.28220396169216721560e-01) (152, 3.67290657576392398642e-01) (153, 3.27217218963375799934e-01) (154, 4.18222911980124123499e-01) (155, 3.57762426462145455286e-01) (156, 3.99536925234587281253e-01) (157, 3.83750687219889252688e-01) (158, 4.63798138575106988490e-01) (159, 4.42106449065355844308e-01) (160, 3.82878546698099619938e-01) (161, 4.52087569620626905653e-01) (162, 2.69988055793950076922e-01) (163, 4.27506961977166310973e-01) (164, 4.05790227655598523260e-01) (165, 3.76303750575993023464e-01) (166, 4.05939040720972643683e-01) (167, 3.31273783951828382222e-01) (168, 3.03082825355979246229e-01) (169, 3.48356516391896797735e-01) (170, 2.89377987194225749779e-01) (171, 3.18599771723756419739e-01) (172, 2.98852960624762298281e-01) (173, 3.64068840965327378267e-01) (174, 4.59924173172782169150e-01) (175, 4.08981997921297801835e-01) (176, 3.31674122975229856980e-01) (177, 3.35591761590522119629e-01) (178, 3.55684289586001789463e-01) (179, 4.17999761212792253495e-01) (180, 3.66164307528557608773e-01) (181, 3.23956014510443590648e-01) (182, 3.88566305782845400341e-01) (183, 2.93829282667687430308e-01) (184, 4.48530776348164461620e-01) (185, 3.16570708450129523204e-01) (186, 4.63750777688076876171e-01) (187, 3.19142738279154791758e-01) (188, 2.91870219554951682017e-01) (189, 3.22868048631968329598e-01) (190, 4.43958911531987021615e-01) (191, 4.16170128448527631981e-01) (192, 2.98191317184489657066e-01) (193, 4.16937135474482301056e-01) (194, 4.28834048054921646020e-01) (195, 4.02750252341610159856e-01) (196, 3.97251535545035394659e-01) (197, 3.41889296818598809047e-01) (198, 3.94901718431534598519e-01) (199, 3.12019214792769838951e-01) (200, 4.33900528414767561181e-01) (201, 2.92959512038749148033e-01) (202, 2.97443316145461489342e-01) (203, 4.54353968707460420529e-01) (204, 4.44099742249995599330e-01) (205, 3.72408735984387229134e-01) (206, 2.71689059150958867050e-01) (207, 3.72196177148661766498e-01) (208, 3.15439131869595934532e-01) (209, 3.05789814049842845201e-01) (210, 4.51600607982130697327e-01) (211, 2.79791694291603498801e-01) (212, 4.10833049722683196769e-01) (213, 4.21219640908709280769e-01) (214, 3.05492655502130283640e-01) (215, 3.51386059378037407530e-01) (216, 3.85905224118967715707e-01) (217, 3.46899685081313358115e-01) (218, 4.18243257250836275585e-01) (219, 2.74171261038830715862e-01) (220, 4.59442447641701001704e-01) (221, 2.75678576935257824143e-01) (222, 3.72662166010791218174e-01) (223, 3.64458708014538668163e-01) (224, 3.17361393865397467540e-01) (225, 3.52317069288562045859e-01) (226, 4.68188358392765902050e-01) (227, 3.01603941168835654185e-01) (228, 3.17272612747004523204e-01) (229, 4.60667250599911592968e-01) (230, 2.94421901848366751597e-01) (231, 4.08811269249966524608e-01) (232, 3.50800512280514620311e-01) (233, 3.64037414934685610302e-01) (234, 4.34561637565192337984e-01) (235, 4.32325866636107669638e-01) (236, 3.76249497678330324657e-01) (237, 2.85049101259758963511e-01) (238, 2.80103174891522477274e-01) (239, 3.53939017202904604442e-01) (240, 3.13113036984028758614e-01) (241, 2.89744966490786959312e-01) (242, 4.70407682733088861049e-01) (243, 3.27043440887319902810e-01) (244, 3.69062742140343569286e-01) (245, 2.97587919467511119453e-01) (246, 3.59633288720076882417e-01) (247, 3.16583878242931160418e-01) (248, 4.39019504439365215731e-01) (249, 3.55690191762000451625e-01) (250, 4.71192884521037469447e-01) (251, 3.25675326773351037080e-01) (252, 3.98039022494282579423e-01) (253, 2.84309507175010134361e-01) (254, 3.16860024644654680870e-01) (255, 3.94849805083325289257e-01) (256, 2.98720280901938917140e-01) (257, 3.77900610940009484828e-01) (258, 3.61703488306552300990e-01) (259, 3.36270955726203080172e-01) (260, 4.59176314398345108980e-01) (261, 3.29646923914250489229e-01) (262, 3.28665077325123289320e-01) (263, 3.19949194119721780361e-01) (264, 3.72303138749152551235e-01) (265, 2.84326810028570742261e-01) (266, 3.25927137967365720961e-01) (267, 3.03011645897921788606e-01) (268, 4.71658733304808841513e-01) (269, 4.42896392759154544638e-01) (270, 4.34492197450469241904e-01) (271, 3.85076698478530154990e-01) (272, 4.57335722967681046480e-01) (273, 3.94729686304625626558e-01) (274, 3.76644019600222812461e-01) (275, 3.30954604413579211997e-01) (276, 4.28827982958625064658e-01) (277, 3.85138322934207077974e-01) (278, 3.74559086378882633017e-01) (279, 2.90162452239737800319e-01) (280, 4.20299362859681058247e-01) (281, 2.74555643942406613078e-01) (282, 3.05979270006983938845e-01) (283, 3.67471253659118091139e-01) (284, 2.90020093996272376735e-01) (285, 4.26895083987555656879e-01) (286, 4.42269729484047746659e-01) (287, 4.74692528085464748866e-01) (288, 3.04080774558669331142e-01) (289, 3.67376817075807382551e-01) (290, 3.20856658663800253795e-01) (291, 2.95670484527644383821e-01) (292, 2.87141089662608373079e-01) (293, 3.33584313615855332369e-01) (294, 3.05976899951141023681e-01) (295, 4.37879774206700156380e-01) (296, 4.45622195101977647269e-01) (297, 4.33327768532690671410e-01) (298, 3.43049747521358083802e-01) (299, 4.24719330486129031943e-01) (300, 3.32625210847924457358e-01) (301, 3.07990172911610571305e-01) (302, 4.35642199624504899980e-01) (303, 2.83679481605109751197e-01) (304, 3.76532661628790898956e-01) (305, 2.79396131077235709839e-01) (306, 3.86707393138009836164e-01) (307, 4.11296892920550771766e-01) (308, 4.43866672122321281879e-01) (309, 2.81932536900637908950e-01) (310, 4.21188132965407524555e-01) (311, 3.24298460599253879355e-01) (312, 3.59198385977587852924e-01) (313, 4.65953802259686578058e-01) (314, 2.87986907354567889250e-01) (315, 3.13499227252906575991e-01) (316, 4.28663474139044986533e-01) (317, 4.21709877070258365439e-01) (318, 3.51054338141974564547e-01) (319, 3.25020157363484607504e-01) (320, 2.77966199602473762464e-01) (321, 3.42625909136762329954e-01) (322, 3.89624250954140827208e-01) (323, 2.61602611432065368380e-01) (324, 3.12418675825108738131e-01) (325, 3.37665817543973179049e-01) (326, 2.66292354866971392457e-01) (327, 2.92579716846455784030e-01) (328, 3.05491170238616438493e-01) (329, 2.81056771829833407228e-01) (330, 2.38442670864953132348e-01) (331, 3.25323925032101168853e-01) (332, 3.15585914255238630943e-01) (333, 3.47647121894467392433e-01) (334, 3.85624863817177310210e-01) (335, 4.17804692894050977436e-01) (336, 4.27573527147573462237e-01) (337, 4.62312431910909538146e-01) (338, 3.75898834880660281943e-01) (339, 4.06406488832305179404e-01) (340, 3.48617133315871463584e-01) (341, 2.82866854783366539206e-01) (342, 4.18061834391425357627e-01) (343, 4.40036636408637271689e-01) (344, 3.70621976074050174521e-01) (345, 3.18502986931643750079e-01) (346, 2.95046698864768364157e-01) (347, 3.24665405418942676352e-01) (348, 3.26240081902812228964e-01) (349, 3.92085569107375297992e-01) (350, 3.97704223298869286030e-01) (351, 4.30345904644797550009e-01) (352, 2.95067998518747431902e-01) (353, 4.29939637967167387345e-01) (354, 4.51315908862531312007e-01) (355, 3.29131723874694914755e-01) (356, 4.69508491687642415258e-01) (357, 4.09690912059520018218e-01) (358, 3.93955665818427336333e-01) (359, 3.21075267685998366751e-01) (360, 4.48892690889671652776e-01) (361, 4.13027580561021290251e-01) (362, 3.12082362682287117739e-01) (363, 3.42210461635704787930e-01) (364, 4.30061551806064146231e-01) (365, 3.93927583920223589597e-01) (366, 3.36646733838213751966e-01) (367, 4.12647115876015491143e-01) (368, 4.28648961629918001659e-01) (369, 3.63711627233948564530e-01) (370, 3.45529236573920428555e-01) (371, 3.67178594097193833345e-01) (372, 3.25393252637456165122e-01) (373, 3.59202724512885318564e-01) (374, 3.95001505132983432578e-01) (375, 4.64941736873458133505e-01) (376, 3.50608114715884433554e-01) (377, 3.45338222202132449912e-01) (378, 3.74273483272860751914e-01) (379, 2.89245661910842277731e-01) (380, 4.26574674066375003623e-01) (381, 3.15156248029540397848e-01) (382, 3.05456112005503377382e-01) (383, 3.68019763943026767539e-01) (384, 3.82870574113200412558e-01) (385, 3.80429391380618320273e-01) (386, 3.51516578909228549765e-01) (387, 4.13874012049506412314e-01) (388, 4.55309641178916202353e-01) (389, 4.63884916719268070029e-01) (390, 3.88525341268847690390e-01) (391, 4.20082238134215579795e-01) (392, 3.96898184534381137656e-01) (393, 3.41039431616362687105e-01) (394, 3.92681878946530837915e-01) (395, 3.75810395185181500555e-01) (396, 3.62316726582266823709e-01) (397, 3.85146120736214958580e-01) (398, 4.86133141123286427465e-01) (399, 4.41649879168775905125e-01) (400, 4.80662754785685597536e-01) (401, 4.65491675425648954167e-01) (402, 4.25215494636255575411e-01) (403, 4.96818929023480848617e-01) (404, 5.16249046321511806390e-01) (405, 3.56636456818504476995e-01) (406, 6.05153122688149691655e-01) (407, -5.39368748924574370474e-02) (408, 6.11760588559895207572e-02) (409, 2.24220308764424919312e-01) (410, -1.36592531533169850820e-03) (0, 4.34858193216418775773e-01) (1, -1.24618559301061346267e-01) (2, 3.76816134076468245429e-01) (3, -8.38607476387505379467e-02) (4, -1.95137949440404551149e-01) (5, 4.14451177856934915855e-01) (6, -4.79032541075079323911e-02) (7, 3.77385151374499072663e-01) (8, -1.60208729384284237485e-01) (9, -1.93367838671148262186e-01) (10, -1.99335699141255956457e-01) (11, -2.48844999530646010522e-01) (12, -6.71260638699860412437e-02) (13, -1.43808849474199113017e-01) (14, -7.27027022785988324971e-02) (15, 3.87049324276140860324e-01) (16, -1.78099172921106746470e-01) (17, -1.06863845103717880480e-01) (18, -1.07594874223131908852e-01) (19, 3.34787868900058793731e-01) (20, 2.76215834154934170019e-01) (21, -1.63186089102587111865e-01) (22, -1.18480787091720649040e-01) (23, -4.38685132144519748798e-02) (24, -5.70955852836109653548e-02) (25, -1.74588038642327393613e-02) (26, 3.68664419000050425090e-01) (27, -1.83001872634152379371e-01) (28, -7.03237461765086457194e-03) (29, -3.69736745997853305523e-02) (30, -1.84423652369594681666e-02) (31, -1.91615847345919271261e-01) (32, -2.52686905513206210017e-02) (33, -1.10106473640197141672e-01) (34, -3.78864626946253252315e-02) (35, -6.41062346005421002104e-01) (36, -3.61465063592067079035e-02) (37, -2.78865070359623143381e-02) (38, -9.77963503878428869198e-02) (39, -1.51031640986142551286e-01) (40, -5.61816971433592715623e-02) (41, -3.41488590107490233572e-02) (42, 1.35089532473644913235e-01) (43, -7.82059491369202081090e-02) (44, 2.87293325120267922790e-02) (45, -1.65210902048320340540e-01) (46, -2.10519591795502836185e-01) (47, -3.98598784980916276410e-01) (48, -3.69735448161497490260e-02) (49, -8.47371797466275750166e-02) (50, -2.16248825258810201122e-01) (51, -2.40507123556601455638e-03) (52, -5.64137122651445013788e-02) (53, -1.39968981043779222562e-01) (54, 1.06510598529172065274e-01) (55, 4.88157911717975526167e-02) (56, -1.00142364766755601058e-01) (57, -4.54415005826517143239e-02) (58, -2.52183396172282914272e-01) (59, -1.71355599591229923462e-01) (60, 4.11166010951461047274e-01) (61, 2.86240480286063359028e-01) (62, 4.34468291959401620161e-01) (63, 3.93855348371375368899e-01) (64, 4.26995713489951411734e-01) (65, 3.48745058182355349707e-01) (66, 3.05073226472342751148e-01) (67, 4.05022660975802639705e-01) (68, 3.26146674844325246134e-01) (69, 3.08078521414626438357e-01) (70, 2.85163950661099618866e-01) (71, 2.96820987866055874260e-01) (72, 4.00502763229024227876e-01) (73, 2.92235664198529643265e-01) (74, 3.70941613807618475462e-01) (75, 3.26752688016021253237e-01) (76, 4.26081130458486112556e-01) (77, 3.56119396079671413080e-01) (78, 4.36107068865239533295e-01) (79, 3.19004638387334338301e-01) (80, 4.55973107851254888523e-01) (81, 3.26909793036736617822e-01) (82, 3.14921737449014138566e-01) (83, 3.67427413845670292059e-01) (84, 4.86773263114731513657e-01) (85, 3.75435962359705055480e-01) (86, 3.24811145186033323196e-01) (87, 3.73696551477086469362e-01) (88, 3.68610055371320133322e-01) (89, 4.66183258470189487710e-01) (90, 4.87056783218241695632e-01) (91, 3.52887103779542465887e-01) (92, 4.45797308809411541031e-01) (93, 4.53299675218893582951e-01) (94, 3.35114539140834943876e-01) (95, 3.18829832822840109063e-01) (96, 4.04769667020548284952e-01) (97, 3.03548287963291030245e-01) (98, 3.04892603696224173682e-01) (99, 3.95086987289020530323e-01) (100, 2.81213166978403539265e-01) (101, 3.17298731746634532502e-01) (102, 3.03970569108689137039e-01) (103, 4.39373792843682053899e-01) (104, 4.15646262240231878504e-01) (105, 2.73473837962753818509e-01) (106, 4.00097010275728748319e-01) (107, 3.55744106313593433377e-01) (108, 3.02571778213453823625e-01) (109, 3.41852084755204566058e-01) (110, -1.53080512199754770197e-01) (111, -5.98416376771662358869e-02) (112, -2.26165796611315444986e-01) (113, -1.74538529399370589967e-01) (114, -1.74865404872277196979e-01) (115, -1.18274103464287932974e-01) (116, -2.07164314204836857991e-01) (117, -8.21950452332210756978e-02) (118, -1.70977112101162981306e-01) (119, -1.08675676110090213555e-01) (120, -9.11216858613862812355e-01) (121, -8.51649432019715851849e-02) (122, -5.22445541296485752025e-02) (123, -6.33134860749507977218e-02) (124, -1.06336996269925238012e-01) (125, -5.83921823031739797849e-02) (126, -4.99770420915917959470e-02) (127, -1.66089910394983490682e-02) (128, 4.84210126562313581365e-05) (129, -3.87316051251725759763e-02) (130, -1.53123866285243340202e-02) (131, -1.00938878751268015788e-01) (132, -1.39287462409869666757e-01) (133, -1.50499865990699255303e-01) (134, 3.37212303461423001938e-02) (135, 3.74743560137143147393e-02) (136, -8.42198337878147379465e-02) (137, -2.94911991323390555719e-02) (138, -4.25012761997172958117e-03) (139, 3.53055947858273933004e-01) (140, -1.23080691514621046179e-02) (141, 2.41638879284207450104e-02) (142, -1.14522802602465383071e-02) (143, -1.23505076585421827429e-02) (144, -8.97261610095401729303e-02) (145, -8.65862747846256330941e-02) (146, 3.01759018488232631794e-02) (147, -7.27606256499942621874e-02) (148, -2.25678216184535505862e-02) (149, -4.42020128930964428804e-02) (150, -4.93240436730990328140e-02) (151, -1.02880181425120953431e-01) (152, -7.27222969596286877847e-02) (153, -1.02239963070500969322e-01) (154, 3.22903614183773779445e-02) (155, -1.16706137017358407837e-01) (156, -1.00723113662471400187e-01) (157, -1.11948940700759516642e-01) (158, 1.45809073482594132171e-02) (159, -8.41639940003048037109e-02) (160, 3.52216135403027597039e-02) (161, 3.92002362850770447178e-01) (162, -7.15468953813473002024e-02) (163, -3.52650340165057141206e-02) (164, -4.58819423011584265337e-02) (165, -1.42287829042864244489e-01) (166, -8.68069203576569831116e-02) (167, -1.39260487311389485887e-01) (168, -1.15493552439715971292e-01) (169, -6.59613314397173994275e-02) (170, -6.31583720975184975677e-02) (171, -6.71502069168354170925e-02) (172, 4.84981483095418386409e-01) (173, 3.60676272087823324153e-01) (174, 3.63059638314973287532e-01) (175, -2.41311123786578617112e-02) (176, -8.55301586339779207346e-02) (177, 3.16351049905078840485e-01) (178, 3.63741461280450317783e-01) (179, 3.91671184543237183018e-01) (180, 4.06498972419366333408e-01) (181, 4.17178448382482025547e-01) (182, 3.07091917935475799961e-01) (183, 4.82678350154027435703e-01) (184, 3.63872628751859161778e-01) (185, 3.96154362801179382725e-01) (186, 3.55128858331307861729e-01) (187, 4.39581360760793182774e-01) (188, 4.32621296588048431797e-01) (189, 4.54955738130673859043e-01) (190, 4.29930579010114166660e-01) (191, 4.31973036471471283360e-01) (192, 3.59615083876714203281e-01) (193, 4.40522199743520193049e-01) (194, 3.33436453961860113093e-01) (195, 3.42620142436110941553e-01) (196, -3.11670726795837127465e-02) (197, -4.40271543715173921396e-02) (198, 4.17073375014409497563e-01) (199, -6.28511343320765913933e-02) (200, -4.45678013689355459470e-02) (201, -1.04189133223430291375e-01) (202, -5.34036587442316967866e-02) (203, -1.01330779803498388647e-01) (204, -1.19596304323808313996e-01) (205, -1.69089245452070063673e-03) (206, 3.69228450575348129958e-02) (207, -1.41018962328333941070e-02) (208, -7.02749993170658365793e-02) (209, -5.24026799905694187776e-02) (210, 3.56579327597272399686e-01) (211, 3.43064542025744934062e-01) (212, 3.17401070240601990147e-01) (213, 3.48557394090756866856e-01) (214, -4.83201866927051026934e-02) (215, 3.16715382063840200644e-01) (216, 3.74689040952454976985e-01) (217, 4.75584661834966115901e-01) (218, 4.27342262211904022617e-01) (219, 3.30099713150128815098e-01) (220, 3.76767445057170802247e-01) (221, 4.24122776589021144300e-01) (222, 3.89644321147069427891e-01) (223, 3.40927600953444931431e-01) (224, 3.59012488368615600987e-01) (225, 3.11754550877675506992e-01) (226, 4.47559636179074737949e-01) (227, 3.23674753401145431919e-01) (228, 3.90436414722070190830e-01) (229, 4.53649010602101776524e-01) (230, 4.67868995014295074863e-01) (231, 4.63014077488049957676e-01) (232, 4.66352563444241974278e-01) (233, 3.76311097386941406651e-01) (234, 4.49429493490323517246e-01) (235, 3.51006702917993018698e-01) (236, 3.89498572889432403965e-01) (237, 2.91291240695580933018e-01) (238, 3.20706810895070526524e-01) (239, 3.08239210489854309483e-01) (240, 3.65297887567147705479e-01) (241, 3.50452665332421753330e-01) (242, 4.46825932804212067051e-01) (243, 3.93254539244901113459e-01) (244, 3.04991584364041778965e-01) (245, 3.82439304236039612217e-01) (246, 4.46247454825505707188e-01) (247, 4.69761338177785370274e-01) (248, 4.68281389612138221334e-01) (249, 4.25204154196843597813e-01) (250, 3.94962113443479034824e-01) (251, 3.17137900832757446690e-01) (252, 3.25533330533370468540e-01) (253, 4.27551683131322357578e-01) (254, 4.49949812236890289707e-01) (255, 2.95280817988976929112e-01) (256, 3.73535547498330566807e-01) (257, 4.00735888723000976963e-01) (258, 3.56922719720468017979e-01) (259, 3.89956234269868307063e-01) (260, 4.70587568015691182222e-01) (261, 2.94828945428964039888e-01) (262, 3.20529593401681356379e-01) (263, 4.16949422688123128022e-01) (264, 3.98384291771516296787e-01) (265, 4.34624633067380361506e-01) (266, 4.13073977702390127131e-01) (267, 4.11296746009122304866e-01) (268, 3.40363942179545853062e-01) (269, 2.85660516563519928379e-01) (270, 2.85166975203618500156e-01) (271, 3.90240822080239746494e-01) (272, 3.66259310487374756260e-01) (273, 3.09029776695832703037e-01) (274, 4.53340715044270925471e-01) (275, 3.73209405783280823155e-01) (276, 3.19355044606790039463e-01) (277, 3.89012415054902527256e-01) (278, 3.20409897807702515049e-01) (279, 3.18052250984773132725e-01) (280, 2.93124344292745087071e-01) (281, 3.29757247212991211338e-01) (282, 4.18909963313207123203e-01) (283, 4.08491190615758392735e-01) (284, 3.00278555694684479160e-01) (285, 3.70605554524526092930e-01) (286, 3.55464405969628804982e-01) (287, 3.29843044373855087681e-01) (288, 4.59334938506108680922e-01) (289, 2.97275679759606836772e-01) (290, 4.83135130349263641758e-01) (291, 4.40872501674756500645e-01) (292, 3.32995694223508331699e-01) (293, 4.48490178459416799495e-01) (294, 4.50276997033223602696e-01) (295, 3.94200559798345062656e-01) (296, 3.15639192191487727435e-01) (297, 3.80973947578652716306e-01) (298, 3.45156537615786962458e-01) (299, 3.21827743295297119541e-01) (300, 3.47684327605828735752e-01) (301, 3.19699231309354237052e-01) (302, 4.46253186338674001643e-01) (303, 4.52716844211206004278e-01) (304, 2.86650020722016785069e-01) (305, 3.15428419438943341557e-01) (306, 4.34414184121236279790e-01) (307, 4.27781777511224314825e-01) (308, 4.03652073282182166647e-01) (309, 4.01812809656555858240e-01) (310, 4.68992199522912434073e-01) (311, 4.12044610921010467930e-01) (312, 4.22745134774312469883e-01) (313, 4.66032333067426196571e-01) (314, 3.71560112971246192526e-01) (315, 4.31254641550958106588e-01) (316, 3.16586587670907471104e-01) (317, 4.59547277632817718906e-01) (318, 4.00484339732110450338e-01) (319, 3.61109307282697133967e-01) (320, -2.98674756931255206208e-03) (321, -5.66385466912875112921e-02) (322, -1.44292939077414972271e-01) (323, -9.63937003949066478770e-02) (324, -1.34789623200644914647e-01) (325, -1.49141982078303758641e-01) (326, 3.08608711960415942055e-02) (327, -6.13549275991816245313e-02) (328, -1.31074359403636486743e-01) (329, -1.36090217826266360324e-02) (330, -6.72719298949848582003e-02) (331, -3.55932234874376945966e-02) (332, -1.21347147508273391081e-02) (333, -5.87366416206965141766e-02) (334, 1.77987882675518550857e-02) (335, 2.91764804901470664600e-02) (336, -1.45959638637126409844e-01) (337, -5.86854374228129305191e-02) (338, 4.02750903207242438864e-01) (339, 4.54317059460744354649e-01) (340, 2.95720774773225281162e-01) (341, 3.68465149241864631247e-01) (342, 4.13590412679776642246e-01) (343, 4.03000872675046417637e-01) (344, 4.24584712926015350742e-01) (345, 3.84177025500401947422e-01) (346, 4.52131893578633758946e-01) (347, 3.70041520732819984030e-01) (348, 3.07714600208863708897e-01) (349, 3.48166633490190002842e-01) (350, 4.25402652565106842442e-01) (351, 3.31792471397101829123e-01) (352, 4.56521184581696937155e-01) (353, 3.73283192879651393170e-01) (354, -1.02335763775613430848e-01) (355, 3.22377488381360377545e-01) (356, 3.68545955293904714534e-01) (357, 4.28789338343869619319e-01) (358, 3.39019206750571677755e-01) (359, -1.26018204445584425244e-01) (360, -6.95311806151705791290e-02) (361, -9.32786255139489012267e-02) (362, -1.07249392148391381463e-01) (363, 3.56460418651685262414e-01) (364, 2.59592448049358742734e-02) (365, -1.35080462521006194887e-01) (366, 3.53105683135800096917e-02) (367, 3.01890232287264177399e-03) (368, -3.85505984987177807710e-02) (369, -6.65672476853290812082e-02) (370, 3.01617506984338257237e-01) (371, 4.74336411896810028477e-01) (372, 3.60902194026574585362e-01) (373, 4.72532094854295203756e-01) (374, 4.67293904560983131002e-01) (375, 4.28904370802819678854e-01) (376, 4.16198031443536231588e-01) (377, 4.60724146503388831686e-01) (378, 4.10531502309903595371e-01) (379, 3.92440454501092383932e-01) (380, 3.66557058039769623203e-01) (381, 3.13851953882157752584e-01) (382, 3.30224377501189658712e-01) (383, 3.01567056614339301657e-01) (384, 4.57337703648671600742e-01) (385, 4.63770624343022797031e-01) (386, 3.82288181621015021872e-01) (387, 3.37929566788852164816e-01) (388, 4.02644337552964637350e-01) (389, 4.63880048531472632956e-01) (390, 4.52263624805390784811e-01) (391, 4.14551090541944000645e-01) (392, 3.48960314038857910557e-01) (393, 3.65488090950429389547e-01) (394, 3.79196455949078969905e-01) (395, 4.31735163801442556331e-01) (396, 4.51778223819695901042e-01) (397, -6.72330241708293668834e-02) (398, -9.25105937981143683357e-02) (399, -5.80692082035819401309e-02) (400, 3.04944843767628280540e-02) (401, -7.55258969256996787189e-02) (402, -6.20416607348139512168e-02) (403, -1.68824383560166713103e-01) (404, -1.00644865687547102606e-01) (405, -1.43800528928456572419e-01) (406, -8.34968241964158600088e-03) (407, -4.05817415080297616559e-02) (408, -1.64464851751030399774e-01) (409, -2.78931887403132738878e-01) (410, 6.25815628515828531464e-02) (0, 5.16851767605854384158e-01) (1, -3.45498226487257337203e-02) (2, 4.22803187879100150770e-01) (3, 3.74248182800069162379e-01) (4, 3.83884278929534250580e-01) (5, 3.89360076612492500558e-01) (6, -3.35727291258958102094e-02) (7, -1.70233091734629859992e-01) (8, 1.56079288282717602854e-03) (9, 4.32695839174645546787e-01) (10, 6.37224561770912273362e-02) (11, 3.49138247817191049727e-01) (12, 3.83385682524646109748e-01) (13, 3.91684984230337207567e-01) (14, 4.36513289479195820686e-01) (15, 3.85742169475237650644e-01) (16, 4.30057561073629079917e-01) (17, 5.34178359875592589923e-01) (18, 4.27021846241123159693e-01) (19, -5.18452291316937822346e-03) (20, 4.57639476499251740549e-01) (21, 4.92014048500762024574e-01) (22, 5.07623771304685056371e-01) (23, 1.44755034815644667567e+00) (24, 4.49308505366777910517e-01) (25, 5.35297085501730274260e-01) (26, 5.45688601941230477799e-01) (27, 5.20271431198371048232e-01) (28, 5.60777212929487123283e-01) (29, 8.06003657429410158564e-01) (30, 6.56550356660290601596e-01) (31, 5.46638864105640220892e-01) (32, 6.04832559845785322494e-01) (33, 5.86150073763021417506e-01) (34, 6.44140395335318971526e-01) (35, 2.40798250725552431817e+00) (36, 4.88767484424336373650e-01) (37, 6.62879049921000884638e-01) (38, 2.24785324473822184510e-01) (39, 3.16661735797279353388e-01) (40, 5.27280018345691603443e-01) (41, 4.13682850198269336239e-01) (42, 3.11001021405150457344e-01) (43, 2.80948030083638999876e-01) (44, 3.50437056247876799198e-01) (45, 5.04213187585905386889e-01) (46, 4.90962648504737031452e-01) (47, 7.40398510655338338432e-03) (48, 1.72604322017928413224e+00) (49, -3.82982165240281363650e-02) (50, -6.95746027840902891981e-01) (51, -2.09179228613254435121e-02) (52, -1.82989513063980879792e+00) (53, -2.32069940445557687525e+00) (54, -2.72238213789194771763e+00) (55, -1.90916831303005918308e+00) (56, -1.88720462708016945008e+00) (57, -2.15943257383083420109e+00) (58, -6.48664594022570706322e-01) (59, 2.60255386177649594703e-01) (60, 4.76909640997530026585e-01) (61, 3.78253948216536017846e-01) (62, 4.63643657837313705183e-01) (63, 4.29559673834705724182e-01) (64, 3.56148158201805675738e-01) (65, 4.67268871526435480845e-01) (66, 3.84643452460890877820e-01) (67, 4.28857185127383411238e-01) (68, 4.34381384615654120296e-01) (69, 4.98365224594689126825e-01) (70, 4.08782186341224040849e-01) (71, 3.55003705803178248868e-01) (72, 4.43461265487957834175e-01) (73, 5.27120296743898597569e-01) (74, 4.38948273188906279429e-01) (75, 5.12346708449404664165e-01) (76, 4.61016535289126005992e-01) (77, 4.14075437470036167298e-01) (78, 5.26907968105535973180e-01) (79, 4.78868967010339152690e-01) (80, 3.65108594360666893763e-01) (81, 4.88848383571844735673e-01) (82, 4.87322821487265245288e-01) (83, 5.22133182607974033473e-01) (84, 5.29844882840539987967e-01) (85, 4.26664226169456706206e-01) (86, 4.84105684128205981942e-01) (87, 3.62075959917383893849e-01) (88, 4.71495763036661852396e-01) (89, 4.27900588048537533492e-01) (90, 4.20492526609301142670e-01) (91, 4.08549004413994165663e-01) (92, 4.60032520070703887516e-01) (93, 4.03909902189675595885e-01) (94, 5.16511624001433355957e-01) (95, 4.74368598354157566810e-01) (96, 4.08550309705409120387e-01) (97, 4.03768954121042855654e-01) (98, 3.80361124490863400371e-01) (99, 3.75151209413653929925e-01) (100, 4.81301225586089675978e-01) (101, 4.21159363813238707408e-01) (102, 3.79939549911589846687e-01) (103, 5.62155318572797990662e-01) (104, 4.78779329546481891011e-01) (105, 4.97243871911958623677e-01) (106, 5.10609403025914510010e-01) (107, 4.85687711532087729172e-01) (108, 5.25140303692751664322e-01) (109, 5.43986793597480144946e-01) (110, 4.73789095626344025636e-01) (111, 7.84492775400823183496e-01) (112, 1.60546092559435815694e+00) (113, 8.41118660079891111714e-01) (114, 1.37295233156871243629e+00) (115, 5.01310904179576155570e+00) (116, 9.45477503937594221384e-01) (117, 9.24353453076775632979e-01) (118, 1.01702317283235044165e+00) (119, 7.68071248140579143637e-01) (120, 2.81758371855295119968e-01) (121, 4.27994065071850060544e-01) (122, 4.86221223738533492309e-01) (123, 5.22456780857543878760e-01) (124, 4.62672710914748319677e-01) (125, 5.90137843538658724007e-01) (126, 4.96651035298245557836e-01) (127, 4.63710804034608015112e-01) (128, 4.37347006548779615454e-01) (129, 5.39222417582752244769e-01) (130, 4.23744512905361414568e-01) (131, 5.86317526610429906597e-01) (132, 4.56302686096962339946e-01) (133, 4.96902199895914442607e-01) (134, 4.54761066289138093932e-01) (135, 5.24196327479075074862e-01) (136, 5.20846957774694474530e-01) (137, 4.92450187416609175273e-01) (138, 4.27936817021902449198e-01) (139, 5.51735746176775121441e-01) (140, 4.39567360117014249710e-01) (141, 5.22370163765047412774e-01) (142, 5.84736778087513342506e-01) (143, 4.41690573902662642070e-01) 